{"num_of_inputs":1,"layers":[{"num_of_inputs":1,"num_of_outputs":40,"config":{"type":"conv","time_steps":2,"biases_start":0,"weights_start":"calculated","activation_fn":"default","default_activation_fn":"sigmoid","learning_rate":0.0005,"output_layer":false,"sequence_size":10,"color_depth":"w","kernel_size":5,"step_size":1,"feature_maps":40,"flatten_layer":false},"training":false,"sequence_training":false,"weight_array":[[{"label":"w","rows":5,"cols":5,"values":[[-0.046676529118458154,-0.016784602712695076,0.006181175609300436,-0.054267454737679695,-0.00820811939244449],[-0.1253340156673216,-0.07136990553249525,-0.040276134370228665,-0.007084243515541224,-0.07369603334406662],[-0.020661977675993065,-0.001105218017957368,-0.028880248261547687,-0.008388466348788993,-0.0495867802537751],[-0.05294120939004953,-0.06492011729584717,-0.12117952489437811,0.006962353910224186,-0.06707519326964191],[-0.014972231164991091,-0.03507192368528913,-0.07614179987883853,-0.0668922834304816,-0.0010469317131765272]]}],[{"label":"w","rows":5,"cols":5,"values":[[0.05762670155562199,0.006776389421531211,0.034865060475649946,-0.01037501233456526,-0.09012729357062411],[0.004502718204560024,-0.06989956947591205,-0.08139902722322015,-0.15095882112093206,-0.1182758887767664],[0.06829758730428981,-0.07715141347798206,-0.0925332921290288,-0.15862348687197278,-0.12031818351242544],[0.03559435612004125,0.005942029221184044,-0.06823420834032702,-0.10703070327414603,-0.10673053301697256],[-0.04866588084169366,0.0903443121226738,-0.026913512717675316,-0.04410547392114502,-0.009732529638935629]]}],[{"label":"w","rows":5,"cols":5,"values":[[0.31719390143610576,0.24501628904675168,0.14617931998789258,0.0799063932131516,-0.02506908861405218],[0.3000394025371495,0.21156977116310832,0.13283198974899188,0.062406477046716875,0.04744056036665305],[0.28979177088458974,0.13959227378549927,0.1146784629299151,0.1317130276294809,0.21342254369381775],[0.20373546944351686,0.08124188327725128,0.19739631257959944,0.20376296910558425,0.26779202260917845],[0.14046877298484123,0.12358556877514429,0.1294484985539422,0.14275940761697695,0.3642973332618711]]}],[{"label":"w","rows":5,"cols":5,"values":[[0.0505754212051417,0.024305764329185128,0.0037096021261768977,-0.03277873591778348,0.04205304432266193],[0.0387760574189965,-0.005291205417541412,0.009074424620965386,-0.04327228955316335,-0.0065599612202887],[0.05376504971626674,-0.012573400040583663,0.046426818887369756,0.06395701374631456,0.03364891538290814],[0.037149279366398016,-0.07285129538880032,0.06968355499821648,0.0033595268758321696,0.015745509242883485],[0.039097833177765114,-0.0006514526559474996,0.022921313401457977,0.003941968151934827,-0.044972202586817535]]}],[{"label":"w","rows":5,"cols":5,"values":[[-0.0016879929463723402,0.011747420307903723,-0.05791670597716362,-0.0557736841445501,-0.04169428544640285],[-0.10038357816496822,-0.06728316065769488,-0.000856501328397221,-0.05907851199104585,-0.11711590365724238],[-0.0445406357751583,-0.12795281266141934,0.03558129639946237,-0.024849447417604406,-0.049613379232806766],[-0.07225791893760494,-0.09060678955790522,-0.00690619597632485,0.018501420965272304,0.004074546124530227],[-0.06314950354257623,-0.1004512701766621,-0.014502222146860035,-0.04052813689762364,-0.019253054587563836]]}],[{"label":"w","rows":5,"cols":5,"values":[[-0.03281351440153403,0.000034190880826289975,0.008384525906507173,-0.08054234667968695,-0.09593489227750923],[-0.019738356360565007,-0.06716325709920669,-0.08815611714131455,-0.1331706928671439,-0.0359624395994634],[0.005244224359041662,-0.006287186991963972,0.02034732418563051,-0.056081490685397146,-0.06704017549558318],[-0.11885314018409093,-0.13691875466115644,-0.008367749572550718,-0.042123532908719265,-0.04975942988610791],[-0.05634562688910834,-0.03246634568026906,-0.10995323287018863,0.016315622138591543,-0.04542718220432054]]}],[{"label":"w","rows":5,"cols":5,"values":[[-0.013655995422040568,-0.055846067648982256,-0.03399571808171692,-0.1580513338880404,-0.12105323180378576],[-0.05422991731049139,-0.03808410285445136,-0.09844354327550518,-0.07234082462618135,-0.04096409359122043],[-0.09160580130450158,-0.14935242352467526,-0.09634421493259636,-0.15412868484517714,-0.22750668711531552],[0.02066476083674278,-0.03224762363026243,-0.049664331563844866,-0.05735585837301041,-0.1329310976694013],[0.053320992983837114,0.012978006122761692,0.04520596279539134,-0.019560282568552606,-0.15610027506748841]]}],[{"label":"w","rows":5,"cols":5,"values":[[-0.0805633398444113,-0.03928321971954501,-0.05200097319214086,0.06220407178003792,-0.010064243732633748],[-0.06350161548707041,-0.008848952636564992,0.005224339874934901,-0.09896613436512436,-0.03313467359448068],[-0.0185814746152583,-0.08144256851441102,-0.032043363695780806,-0.15640636063433688,-0.18279000188308658],[0.13326345833495526,-0.05160268859316341,0.019574417521801054,-0.012776164283534104,-0.01628620484232858],[0.14722660427322073,0.020617087179326046,0.018952480332853867,0.050220124000411696,0.05531074623816739]]}],[{"label":"w","rows":5,"cols":5,"values":[[-0.20601245299850143,-0.06632093014371042,-0.005644011904785161,0.10719881327474094,-0.008214023299370475],[-0.04914951617397043,-0.03609524913250059,0.0938049109568146,-0.014109115951117133,-0.030148412326351168],[0.03979292815789931,0.023972772175077862,0.0679530194838072,-0.05046630983905215,-0.005532205611712783],[-0.013899544554310288,-0.022052142275096477,-0.013921333274075071,-0.02216705750180108,0.01384033036162118],[-0.08933309043925425,-0.0686716171861209,0.013272559384418613,-0.052740718593459274,0.009630434797994981]]}],[{"label":"w","rows":5,"cols":5,"values":[[-0.09602750367282953,0.0324448355254247,0.010570533277187825,-0.0992310186748209,-0.016531669003271368],[-0.027115750733847793,0.005829765205905502,-0.04199634458943516,-0.007306733538758345,-0.010529851556903811],[-0.05260353262776027,-0.04253948805873347,-0.03937526916884251,-0.04791066488667236,-0.06324757038526849],[-0.10586588262128338,-0.06622626750841121,0.013485762818743276,0.043524675603170214,-0.02600131653720156],[-0.09478467590169763,0.001089508085716687,-0.001957270388988312,-0.0937881404562805,-0.009037191558789903]]}],[{"label":"w","rows":5,"cols":5,"values":[[-0.003861840604836017,0.07621333163429495,-0.026064581802046623,-0.07653462154910684,-0.06763203489055453],[0.03411308361004156,-0.02424818622814932,-0.0025266935870957787,-0.057763444381930144,-0.02646894288707937],[0.09485772510521645,0.0602762903710805,0.0639484669088459,0.04640599536977097,0.044703482291134564],[0.008464984609149885,-0.027181477288959425,-0.025846644930669203,-0.0881875061990849,-0.0700268744998589],[0.005307428936021441,-0.04596044606389785,-0.05659035764407808,-0.07803883157348478,0.023069674516438342]]}],[{"label":"w","rows":5,"cols":5,"values":[[-0.00976144179315011,-0.01962490828184206,-0.038236888418518106,-0.009051981785378124,-0.0014842127721152766],[-0.03959898356291411,-0.018067841036067494,-0.028989610430218356,-0.0626449513462069,-0.057093267185777126],[-0.030173862201151067,-0.030742553487095575,-0.0009677858979037706,-0.006622093900773606,-0.05667291766675458],[0.009765185942417175,-0.06096890881715667,-0.07710545344443176,0.0007168974595240161,0.028713844626211314],[-0.05823196702063051,-0.008458759328214589,0.10453360524802746,-0.013692421415277718,-0.021127172792731866]]}],[{"label":"w","rows":5,"cols":5,"values":[[-0.021939975461108454,-0.022448173835255075,-0.06346431428487971,0.006431225442107704,-0.08483236904919425],[-0.016210792063132126,-0.015457098658640138,-0.01711860044029079,0.01834997187296009,-0.029566611448935683],[0.029643803057544715,-0.07223604850216211,-0.08553064586448797,-0.0014499485353777388,0.04852058037880153],[-0.05918041228744307,-0.045161406702948846,-0.006256071482024633,-0.019338465904475893,-0.07674113341143539],[-0.07315321109383167,-0.05521625758641476,-0.012141411686047342,0.012694268707775038,0.006472840389208076]]}],[{"label":"w","rows":5,"cols":5,"values":[[-0.00769796110119651,-0.1066841598103503,-0.09306746786062284,-0.05004696728819715,-0.06982373322229606],[-0.006232122274870937,0.02305125594960379,-0.03491394977566549,0.039283212715601874,-0.08642538895858287],[-0.05335338796605163,-0.05481590170970001,-0.06147117755123028,-0.07677430883079193,-0.04547158080838663],[-0.09360052691383634,-0.06436904896893024,-0.11214132934391609,0.012398132534744165,-0.033658239860351435],[-0.03210546065299327,-0.09708505433326604,-0.08129775179024065,-0.0197011327368361,-0.15703642708019194]]}],[{"label":"w","rows":5,"cols":5,"values":[[-0.03751259351812451,0.037134222877173086,-0.09936256873789742,0.02275729347689663,0.046590728330826524],[-0.02473958830228094,-0.10520083146994075,0.035494237574252054,0.07750848041842277,0.07961875111964176],[-0.07381540273813068,-0.055993451674778406,0.07027588060156027,0.1044192801642668,0.03928190974009762],[-0.038291674251076484,-0.016824438803111488,0.005741198948422194,0.05759831306760085,0.03636793016899709],[-0.028736397877188073,0.014238933151862984,0.01243480933225374,-0.03131582055577493,0.044309160167653114]]}],[{"label":"w","rows":5,"cols":5,"values":[[0.04079839192121399,-0.026557099066955712,-0.05582835818704736,-0.09790929296096221,0.032160901242678244],[-0.02085555801578299,-0.0316627483775971,-0.04123153977000201,-0.08758592010726116,0.029360247915507377],[0.05659163066050009,0.029873342828717224,-0.010447524338214628,-0.04191437725464029,0.033019619647284774],[-0.013686000867402976,0.0028002208930546345,-0.0894722075467388,-0.02755198092083699,0.007083472062628005],[0.03896328979684913,0.00450934648507184,-0.013133639823496053,-0.04631553018792842,0.009444865824363031]]}],[{"label":"w","rows":5,"cols":5,"values":[[-0.038221738043385585,-0.06926175134853021,0.03212526268321291,0.1423294418963518,0.0271681465475862],[-0.10040591217709348,-0.06186565779036298,0.03460531941353179,0.05757228298864527,0.0034385499620902876],[-0.13523275162258996,-0.07120196525365519,-0.04586286787986707,0.08403565263331339,-0.08378752882289563],[-0.005880728031395245,-0.03475685549712826,-0.015582018436624063,-0.010827453435737476,0.017508543452438415],[-0.030636174861713793,0.05155609770339704,0.04617357085732858,-0.016071779537396098,-0.0016919141280719743]]}],[{"label":"w","rows":5,"cols":5,"values":[[0.01543489969308799,-0.05463230382253636,-0.10128778615575865,-0.06013208010751307,0.01559223808178481],[-0.009632016368890077,-0.0014834842941806022,-0.04401482864878877,-0.06688931472320972,-0.03155231019122458],[-0.0023996977258931994,-0.030221006648195332,-0.00010008768894153798,-0.04617417448720587,-0.0778400561897755],[-0.03129826488236429,-0.03684254861831217,-0.012777735196989225,-0.00972612498840821,-0.11024967687587015],[-0.0028474186401098605,-0.08526209113890812,-0.018075973995918603,0.011772237159584524,0.013583250101008453]]}],[{"label":"w","rows":5,"cols":5,"values":[[-0.12813897764253368,-0.0036258898508753777,0.041227881935045174,0.06893473803988773,-0.05593981592899731],[-0.04760446884408239,-0.0551558156165151,0.0558754047584719,0.03665035028049578,-0.09151034187013084],[0.01567095362572987,0.07286298051167243,0.0588637235760497,0.02634759702695759,-0.03103175022255922],[0.07005473025494605,0.09791704732768448,0.017723524358762868,-0.0262285533239985,-0.055799413711972175],[0.031943869497425566,0.10827532162174845,-0.015358864975815264,-0.0380120822452398,0.03159196717814549]]}],[{"label":"w","rows":5,"cols":5,"values":[[-0.0024957107928777577,-0.026672434026469224,-0.009017120828734192,0.05217761021640915,-0.05039199091765542],[-0.016661845997783024,0.07600719588126542,0.048356832188852526,-0.004230742031003282,-0.08917163525138991],[0.03501368721858746,0.02890617705491614,0.07082466209954885,0.05634883246646903,-0.029431600136679847],[-0.0215600537332459,0.01711944243858965,0.028332499759261342,-0.08108368981145479,-0.13776943973487052],[-0.10929074320582496,-0.032655674142020016,-0.07330008720470291,-0.07859274580569266,-0.14772111819680583]]}],[{"label":"w","rows":5,"cols":5,"values":[[-0.12855300227503727,-0.13685030923807442,-0.021492175382292446,-0.04287316065655741,-0.029185774022651195],[0.044591378369442554,0.034069579333711596,0.03972685461383152,-0.03185314663424613,0.045200982044217776],[0.19374067287586783,0.07118481299584718,-0.02548761932650422,0.04767408536496658,-0.019787656389960207],[0.09037730129193604,0.08461421138619149,-0.02729802086616301,0.0432161032648242,-0.05883802503634952],[0.05608599091131221,0.06221672128200438,-0.0019524589262335207,0.02842478181172786,-0.02588747765956037]]}],[{"label":"w","rows":5,"cols":5,"values":[[0.05370144684203751,0.05719898947295838,0.04301851295984125,0.07073981911636032,-0.0812302151476111],[0.010608847284766063,-0.07298662588741081,0.007206178629653519,-0.0020751633207331155,-0.046880348906560725],[-0.08384459506853831,-0.03316668911498147,-0.17851751244165145,-0.10634535630280595,-0.12416757731367538],[-0.05504769988603004,-0.1579607875780635,-0.15204348729115663,-0.09259610606549426,-0.05374621590282515],[-0.19486947216931663,-0.09632083835299074,-0.050613105574551204,-0.025074196443116568,-0.09534520927173773]]}],[{"label":"w","rows":5,"cols":5,"values":[[-0.007395885614940425,-0.00792265695158763,-0.011059954549799767,-0.03942459796029515,-0.03097941064457412],[-0.021709480584747573,0.018123209750166163,-0.0006608846800367043,-0.06868888297619136,-0.024830008467175108],[-0.018226094002886366,0.044592324639330924,-0.01972277324926878,0.0038004490668501786,-0.15257968024535834],[-0.03738382538501998,0.02016014903752612,0.0034776892946376146,-0.05834782502572885,-0.12561226374115125],[0.029826155950999144,-0.03491139360098568,0.02279304424022874,-0.08279467493528828,0.0048050883964249206]]}],[{"label":"w","rows":5,"cols":5,"values":[[-0.030035527800769925,-0.06736687416651178,-0.05014289833554347,0.05734890951214387,0.04145910591050484],[0.02298998798210856,0.10634598668275223,0.0671208724687334,0.05617371901258479,0.03942065934995064],[0.07663638310508673,0.03475247870208899,0.07048006587723797,0.12114903656758576,0.05684504046474772],[0.006108376301217534,-0.11480113427061275,0.022094789539177123,-0.01037064859267258,0.08748449327530317],[-0.01704363876132656,-0.056940055980897214,-0.06664323101891681,0.03824658788958719,0.05783032009943103]]}],[{"label":"w","rows":5,"cols":5,"values":[[-0.040824063676254796,-0.020282960545238284,-0.07544634573026672,-0.09182044360783115,0.027319076915017258],[0.002375517441040681,0.019430909949807437,0.00684110613536012,0.002654947146739936,-0.0649198488912156],[-0.056045356404655654,-0.081089556247181,0.0030281378658040693,-0.004930812699531481,-0.00045870128961821683],[-0.03770914402420782,0.016688977496923656,0.03865711195416338,-0.06223745841794916,0.03473339603817313],[0.01200318879812907,-0.030282859533231288,-0.10566272540085477,0.032398529290413605,-0.019769474510366276]]}],[{"label":"w","rows":5,"cols":5,"values":[[-0.009555603555613183,0.003469171358883389,-0.039547715280005905,0.03912709396516735,-0.004234336642516715],[-0.04560943924058112,-0.04991205660768205,0.00920353738808374,0.01486861257925497,-0.03793043429724876],[-0.10978982884047239,-0.05209297744864372,0.027020704104349248,-0.057479865735261086,-0.09635798733787367],[-0.08115602111787368,-0.0535999171403921,0.05196979432410651,-0.04740754351259336,-0.02043226894113426],[-0.017985023513983237,0.05428507806221646,0.09674669163726156,0.032153244601952014,-0.038315054091711064]]}],[{"label":"w","rows":5,"cols":5,"values":[[-0.006497995107233742,-0.058116389955143975,-0.07011045282915995,0.04466575081395973,0.05888891524567676],[-0.030009675407327876,-0.09532980775196724,0.04150594780211489,0.11679332796100479,0.050707849075975475],[0.012091023563723418,-0.11367913127233634,-0.014629648973607922,0.007856012855710878,-0.00022820455523159068],[-0.02023549895269797,-0.026452790050458454,-0.031069952749651908,0.06488433324456891,0.09893372535998847],[-0.05506868282522036,-0.02046475043044081,0.06136463278562953,0.18868448261372417,0.18872472132270662]]}],[{"label":"w","rows":5,"cols":5,"values":[[0.04248386016944047,-0.04269959651896224,-0.050622394585696374,-0.07794956416122314,0.03459530233238331],[-0.03671872479348196,-0.026528190796792483,-0.023257442617458973,0.03409322354757344,-0.021901586899427974],[-0.12351597376204297,-0.044988908477186944,0.024295218598564955,0.013988902936197223,0.0076984209077626915],[-0.1012244503165224,-0.0714097110781214,-0.029126019758267667,0.08295270271137029,0.019586365724173438],[0.004898110299007901,0.0009395003636050469,0.010463881887559682,-0.024169774177253932,-0.025281711732925753]]}],[{"label":"w","rows":5,"cols":5,"values":[[-0.03313772733348155,-0.20844979807437397,-0.08729315335463932,-0.028840532718872634,0.01207358100251753],[-0.109042749162555,-0.02558111942003268,0.07175493164477753,0.15143904807862982,0.18380746939784162],[-0.13282200089351115,-0.009227263936930056,-0.00350062186048433,-0.015046892288513723,-0.004369515749600664],[-0.017450618269744395,-0.07127821588508461,-0.06402326468284508,0.015321547373513381,-0.0415159115841692],[0.014888016123779203,0.007363153600325458,0.02192164130706629,-0.11193715074080836,-0.046886881563975365]]}],[{"label":"w","rows":5,"cols":5,"values":[[-0.015735913711432317,0.016915441708066213,-0.03634146050424768,-0.0309662695721151,0.00014309636622073955],[-0.0598114814807791,-0.12915325120949742,-0.12561500603805684,-0.04405489899217364,-0.023645297412768496],[-0.06292432065558792,-0.1338082605532862,-0.13143733638512087,-0.21916920299350956,-0.06227176538279428],[-0.04015174093593092,-0.0660228534873801,-0.1060835570865929,-0.01854697606171048,-0.010355795590546467],[0.015328391896110002,-0.05369643469623257,0.014925698827653234,0.06331372830155785,-0.04062339724249141]]}],[{"label":"w","rows":5,"cols":5,"values":[[0.03131641988030971,0.01938635267645458,-0.049729099647755834,0.07090683552411954,0.06601618803270919],[-0.004878157775991628,-0.10766489364308568,-0.003019704084157393,0.0685118447032535,0.05340526158710014],[-0.011924163095612195,0.031539294827890536,0.07552067972604375,0.047258918538828,0.007316868754237082],[-0.02988881420822321,-0.008028609890076014,0.08734476638308873,0.06408228180858459,0.1820117381787406],[0.07346544139333837,0.01945330529318935,0.09966698883356738,0.13558828913508691,0.2547683012853519]]}],[{"label":"w","rows":5,"cols":5,"values":[[0.03296615339164825,0.008376522910777728,0.025756551624478125,0.10066770614577343,0.08299893304517188],[-0.047347058350982754,0.037265898822102586,0.10604268819419888,0.058216482781240586,0.04101510587966038],[0.07182272022405281,-0.011809858989536693,0.06880545128598019,0.09425341323287173,-0.0053814600132900195],[-0.01631309939659953,0.03574933742487074,0.07243384070279303,0.02794242009469089,0.0696354413757598],[-0.0660447642964485,0.004569049581007331,-0.022677991975258695,-0.016134844990084298,-0.02866320093286652]]}],[{"label":"w","rows":5,"cols":5,"values":[[-0.031993511412042194,0.02773052554402288,0.010434957199023251,-0.00011561378495318223,-0.09831133812144904],[-0.0845461601337034,-0.018427673243288166,-0.03148580461984573,-0.048561960837964456,0.0008037975392590756],[-0.05918630722165349,0.006420783087089836,-0.05063079537452392,0.05261834373306676,-0.03819522610712407],[-0.04244019540436188,0.020449422311542734,0.09233503120752741,0.01977935146785753,-0.0715245726738237],[0.05144380501908271,0.07490595225096773,-0.07090550038732567,-0.04490078504883673,0.05543085431756255]]}],[{"label":"w","rows":5,"cols":5,"values":[[0.0745042168063705,0.024470607275074798,0.05702426987530193,0.1555149879467634,0.11546743121215107],[-0.08291584530793278,-0.04476842577343584,0.059061759298534765,0.007175081573011154,-0.04430551051984256],[-0.09387779994452909,0.02695143644338349,0.0798162030244836,0.019945946296334387,-0.03275673631253124],[-0.019570489809512107,0.060849697201285205,0.0972818725085336,0.028792654072244635,-0.1348772525466583],[-0.07238768843473387,-0.015002429596121141,0.175432691069208,0.11826302043012692,0.03835045876125495]]}],[{"label":"w","rows":5,"cols":5,"values":[[0.07558609005262956,-0.03508021451935198,-0.030169641722513168,0.035596045215001045,0.03465872054873916],[0.09782094282033807,-0.01686881721757313,-0.13361840302014089,-0.026366327023524316,-0.14129365169178615],[0.10171526653727497,-0.09994953600976902,-0.1850781065120044,-0.17268224576467758,-0.06491742178057873],[0.17915849836518657,0.003323504792323842,-0.1931831571489557,-0.12494013804616311,-0.0521246479368986],[0.2328459818537416,0.10090486802483968,-0.12687966369694123,-0.11711461322557191,0.057427309081454776]]}],[{"label":"w","rows":5,"cols":5,"values":[[-0.016551955423918657,0.014251367164800037,-0.03905089293961914,-0.041882729714779986,-0.06557931702875214],[-0.08770713332715314,-0.022814129211964223,-0.0020661690297833113,0.00567637759288889,-0.01260937237624226],[-0.14380452616229641,-0.09963605057908397,-0.05994298275668105,-0.07232116451909619,-0.05511539852668363],[-0.13418781471314176,-0.045236623399959715,-0.06219611217990279,0.011767986936679192,0.004628816996904147],[-0.0006023465618138824,-0.0314378397090541,-0.05452926474753182,-0.05965527654071013,-0.011223198064889245]]}],[{"label":"w","rows":5,"cols":5,"values":[[-0.08190821008222421,-0.05921426342114776,-0.08584421971438361,-0.056588645625467705,0.009819506923991625],[-0.04118714974184148,-0.03269908344229197,-0.0015093069069089912,0.004261788641115734,0.04671382901683205],[0.0006416406723715263,0.07668050480011275,0.019136897503389365,-0.016184121916249933,-0.013439257983992696],[-0.0717815982139714,-0.012035735696647452,0.033593900399964495,-0.08021733987077231,0.07412075492983031],[0.04335095410063893,-0.0023022734571106185,-0.10172027087683509,-0.04111716673373158,-0.0465666378549391]]}],[{"label":"w","rows":5,"cols":5,"values":[[-0.027102675790230246,-0.05699889067086095,-0.07961416134340958,-0.06354648868086407,-0.1814355573975603],[-0.05840398741655489,-0.068974127654648,-0.15247263954967663,-0.16024864643822698,-0.11602483601073224],[-0.06139669556833399,-0.13372700646843177,-0.15085553090948264,-0.09220576717157944,-0.04034438045756406],[-0.017528774687259358,-0.08349747774891629,-0.05805686211885997,-0.0301764369378401,-0.04735811436657022],[0.018144998297233022,0.03144693176887897,-0.08199996155475961,-0.08304626977882068,-0.044379218157561386]]}],[{"label":"w","rows":5,"cols":5,"values":[[-0.02379778162701039,-0.06732201698014796,-0.015790552099803425,-0.06707167697539501,-0.08117849828227706],[-0.024239220748194158,0.0030824083717831715,0.03444837746185272,-0.07594005164024784,-0.10956325598816646],[-0.0019552945070308546,-0.07498455364432897,-0.01547529671828384,0.007936281197567072,-0.08033719407811162],[-0.06446253894516947,-0.07672847895629177,-0.11474293483274005,0.005692979186367578,-0.00784846848566196],[0.000055449300944190396,-0.009242124040268605,-0.042259896885580885,-0.0379559583700516,-0.00008588115455089274]]}],[{"label":"w","rows":5,"cols":5,"values":[[-0.0012171693078496752,-0.04861497041449873,0.004476517303174445,-0.0053200868641132375,0.04232106137728528],[0.025684845367745335,0.013621076263249278,0.03022560641285105,-0.03762904137631639,0.016300302234516936],[-0.022446391042517996,0.011744022089764031,-0.023538978039350907,-0.027501996281402888,-0.026528857916083157],[-0.030639113353781677,-0.016328790870771635,-0.014989674325044864,0.07114379730358834,-0.04795109445289782],[0.06302650218468833,0.035955295265857085,-0.07504712487194726,-0.026118335289944176,0.03461787074600035]]}]],"bias_array":[[{"label":"","rows":1,"cols":1,"values":[[-0.0006180327781196275]]}],[{"label":"","rows":1,"cols":1,"values":[[0.0025404658433239562]]}],[{"label":"","rows":1,"cols":1,"values":[[0.0037715157080744077]]}],[{"label":"","rows":1,"cols":1,"values":[[-0.0000567162812337978]]}],[{"label":"","rows":1,"cols":1,"values":[[-3.424264808069887e-7]]}],[{"label":"","rows":1,"cols":1,"values":[[0.0005907144580098398]]}],[{"label":"","rows":1,"cols":1,"values":[[0.0005651855769348297]]}],[{"label":"","rows":1,"cols":1,"values":[[0.000023678461932878205]]}],[{"label":"","rows":1,"cols":1,"values":[[-0.000480582350717412]]}],[{"label":"","rows":1,"cols":1,"values":[[-0.00016459811057765634]]}],[{"label":"","rows":1,"cols":1,"values":[[0.000528175511612888]]}],[{"label":"","rows":1,"cols":1,"values":[[0.000013791101458510539]]}],[{"label":"","rows":1,"cols":1,"values":[[-0.00010324919074056919]]}],[{"label":"","rows":1,"cols":1,"values":[[-0.00001674252706836784]]}],[{"label":"","rows":1,"cols":1,"values":[[0.00019493462110257195]]}],[{"label":"","rows":1,"cols":1,"values":[[-0.00009217741592484826]]}],[{"label":"","rows":1,"cols":1,"values":[[-0.00011166975748524885]]}],[{"label":"","rows":1,"cols":1,"values":[[-0.00003409338644003877]]}],[{"label":"","rows":1,"cols":1,"values":[[-0.0008507953127668802]]}],[{"label":"","rows":1,"cols":1,"values":[[-0.0004124229611565377]]}],[{"label":"","rows":1,"cols":1,"values":[[-0.0008094611831435785]]}],[{"label":"","rows":1,"cols":1,"values":[[0.000581233507012708]]}],[{"label":"","rows":1,"cols":1,"values":[[-0.0009302706167244454]]}],[{"label":"","rows":1,"cols":1,"values":[[-0.0004396099626630204]]}],[{"label":"","rows":1,"cols":1,"values":[[-0.0006050660321413911]]}],[{"label":"","rows":1,"cols":1,"values":[[-0.0009279470590163619]]}],[{"label":"","rows":1,"cols":1,"values":[[-0.0014256987466075737]]}],[{"label":"","rows":1,"cols":1,"values":[[-0.000018627786044705128]]}],[{"label":"","rows":1,"cols":1,"values":[[-0.0008732710502832073]]}],[{"label":"","rows":1,"cols":1,"values":[[-0.0005087026096907356]]}],[{"label":"","rows":1,"cols":1,"values":[[-0.00046717999634329896]]}],[{"label":"","rows":1,"cols":1,"values":[[-0.00018042015376263897]]}],[{"label":"","rows":1,"cols":1,"values":[[0.00021559592051503948]]}],[{"label":"","rows":1,"cols":1,"values":[[-0.0018166566939501908]]}],[{"label":"","rows":1,"cols":1,"values":[[-0.0008481424599517074]]}],[{"label":"","rows":1,"cols":1,"values":[[-0.0005120738583980135]]}],[{"label":"","rows":1,"cols":1,"values":[[-0.00021562726424462951]]}],[{"label":"","rows":1,"cols":1,"values":[[-6.44365443035794e-7]]}],[{"label":"","rows":1,"cols":1,"values":[[-0.00039747005648954934]]}],[{"label":"","rows":1,"cols":1,"values":[[-0.00042711414514740677]]}]],"input_values":{"label":"","rows":1,"cols":1,"values":[[0]]},"outputs_calcd":{},"output_values":{"label":"","rows":40,"cols":1,"values":[[0],[0],[0],[0],[0],[0],[0],[0],[0],[0],[0],[0],[0],[0],[0],[0],[0],[0],[0],[0],[0],[0],[0],[0],[0],[0],[0],[0],[0],[0],[0],[0],[0],[0],[0],[0],[0],[0],[0],[0]]},"cellstate_raw_inputs":{},"cellstate_outputs":{},"hidden_error_cache":[],"cellstate_error_cache":[],"cellstate_output_cache":[],"forget_output_cache":[],"i_output_cache":[],"a_output_cache":[],"hidden_cache":[],"input_value_cache":[[[{"label":"","rows":28,"cols":28,"values":[[0,0,0,0,0,0,0,0,0,0,0,0,0,0,0,0,0,0,0,0,0,0,0,0,0,0,0,0],[0,0,0,0,0,0,0,0,0,0,0,0,0,0,0,0,0,0,0,0,0,0,0,0,0,0,0,0],[0,0,0,0,0,0,0,0,0,0,0,0,0,0,0,0,0,0,0,0,0,0,0,0,0,0,0,0],[0,0,0,0,0,0,0,0,0,0,0,0,0,0,0,0,0,0,0,0,0,0,0,0,0,0,0,0],[0,0,0,0,0,0,0,0,0,0,0,0,0,0,0,0,0,0,0,0,0,0,0,0,0,0,0,0],[0,0,0,0,0,0,0,0,0,0,0,0,0,0,0,0,4,25,25,25,25,25,25,2,0,0,0,0],[0,0,0,0,0,0,0,0,0,0,0,0,0,0,35,4,126,253,253,253,253,253,253,161,0,0,0,0],[0,0,0,0,0,0,0,0,0,0,0,0,0,47,250,178,253,253,253,253,253,211,226,253,0,0,0,0],[0,0,0,0,0,0,0,0,0,0,0,0,108,250,246,176,245,169,72,72,72,10,31,72,0,0,0,0],[0,0,0,0,0,0,0,0,0,0,0,110,248,253,207,93,51,0,0,0,0,0,0,0,0,0,0,0],[0,0,0,0,0,0,0,0,0,0,70,247,253,253,23,0,0,0,0,0,0,0,0,0,0,0,0,0],[0,0,0,0,0,0,0,0,0,28,207,253,253,149,0,0,0,0,0,0,0,0,0,0,0,0,0,0],[0,0,0,0,0,0,0,0,0,73,253,253,253,242,105,0,0,0,0,0,0,0,0,0,0,0,0,0],[0,0,0,0,0,0,0,0,0,4,52,178,253,253,254,242,225,99,0,0,0,0,0,0,0,0,0,0],[0,0,0,0,0,0,0,0,0,0,0,0,0,0,6,191,250,255,138,3,0,0,0,0,0,0,0,0],[0,0,0,0,2,22,0,0,0,0,0,0,0,0,0,0,89,253,253,72,0,0,0,0,0,0,0,0],[0,0,0,0,30,244,60,0,0,0,0,0,0,0,0,0,37,253,253,163,0,0,0,0,0,0,0,0],[0,0,0,0,156,242,51,0,0,0,0,0,0,0,0,28,136,253,242,49,0,0,0,0,0,0,0,0],[0,0,0,0,254,253,191,50,0,0,0,0,0,0,3,171,253,242,89,0,0,0,0,0,0,0,0,0],[0,0,0,0,66,222,253,242,194,102,73,73,73,73,198,253,243,89,0,0,0,0,0,0,0,0,0,0],[0,0,0,0,0,39,180,253,253,253,253,253,253,253,254,245,144,0,0,0,0,0,0,0,0,0,0,0],[0,0,0,0,0,0,6,59,156,156,156,156,156,156,151,32,0,0,0,0,0,0,0,0,0,0,0,0],[0,0,0,0,0,0,0,0,0,0,0,0,0,0,0,0,0,0,0,0,0,0,0,0,0,0,0,0],[0,0,0,0,0,0,0,0,0,0,0,0,0,0,0,0,0,0,0,0,0,0,0,0,0,0,0,0],[0,0,0,0,0,0,0,0,0,0,0,0,0,0,0,0,0,0,0,0,0,0,0,0,0,0,0,0],[0,0,0,0,0,0,0,0,0,0,0,0,0,0,0,0,0,0,0,0,0,0,0,0,0,0,0,0],[0,0,0,0,0,0,0,0,0,0,0,0,0,0,0,0,0,0,0,0,0,0,0,0,0,0,0,0],[0,0,0,0,0,0,0,0,0,0,0,0,0,0,0,0,0,0,0,0,0,0,0,0,0,0,0,0]]}]]],"outputs_calcd_cache":[],"output_value_cache":[[[{"cols":24,"rows":24,"values":[[-0.0006180327781196275,-0.0006180327781196275,-0.0006180327781196275,-0.0006180327781196275,-0.0006180327781196275,-0.0006180327781196275,-0.0006180327781196275,-0.0006180327781196275,-0.0006180327781196275,-0.0006180327781196275,-0.0006180327781196275,-0.0006180327781196275,-0.0006180327781196275,-0.0006180327781196275,-0.0006180327781196275,-0.0006180327781196275,-0.0006180327781196275,-0.0006180327781196275,-0.0006180327781196275,-0.0006180327781196275,-0.0006180327781196275,-0.0006180327781196275,-0.0006180327781196275,-0.0006180327781196275],[-0.0006180327781196275,-0.0006180327781196275,-0.0006180327781196275,-0.0006180327781196275,-0.0006180327781196275,-0.0006180327781196275,-0.0006180327781196275,-0.0006180327781196275,-0.0006180327781196275,-0.0006180327781196275,-0.0006180327781196275,-0.0006180327781196275,-0.004805759630825737,-0.2943604593294592,-2.003665610884927,-3.7429311030816925,-4.539330425132729,-4.853747279597542,-4.853747279597542,-4.829667850194482,-3.2890514678670515,-1.404005503792802,-0.44506765927347514,-0.03056249510810181],[-0.0006180327781196275,-0.0006180327781196275,-0.0006180327781196275,-0.0006180327781196275,-0.0006180327781196275,-0.0006180327781196275,-0.0006180327781196275,-0.0006180327781196275,-0.0006180327781196275,-0.0006180327781196275,-0.037260642739298085,-2.346035679697682,-3.3333643311982044,-11.875034413053086,-29.434961117936087,-45.72405571800446,-53.579889528938075,-56.59312828408299,-56.59312828408299,-54.95408112126898,-48.65741879323912,-28.109511207328193,-10.888542700195346,-2.517029669121784],[-0.0006180327781196275,-0.0006180327781196275,-0.0006180327781196275,-0.0006180327781196275,-0.0006180327781196275,-0.0006180327781196275,-0.0006180327781196275,-0.0006180327781196275,-0.0006180327781196275,-0.04982382329741641,-5.753920046742354,-20.513325715870078,-45.71940401840805,-60.337068509836605,-80.59366849126876,-104.42584468993826,-120.35830195855229,-127.47176595033102,-124.67799402194844,-115.20027610810634,-105.95992239749468,-80.28064847921134,-36.622563706693924,-12.353451184670826],[-0.0006180327781196275,-0.0006180327781196275,-0.0006180327781196275,-0.0006180327781196275,-0.0006180327781196275,-0.0006180327781196275,-0.0006180327781196275,-0.0006180327781196275,-0.11368665780118457,-10.639251655237434,-43.38165347126658,-55.84977450361523,-97.80995548120683,-113.46198027919456,-131.76426302488227,-126.21146827853075,-125.82515018844298,-123.65930163275357,-119.38020596631034,-106.46713883990493,-81.42636220787634,-78.37571183780247,-40.06094935789961,-18.04999108950954],[-0.0006180327781196275,-0.0006180327781196275,-0.0006180327781196275,-0.0006180327781196275,-0.0006180327781196275,-0.0006180327781196275,-0.0006180327781196275,-0.11578052122753762,-14.862529148120199,-43.57781880067716,-83.09977048489915,-103.7757598658301,-133.65569171283016,-125.3792272924805,-127.09422966246089,-120.73985633050526,-131.73051414548027,-131.3024674125859,-128.39890122000497,-116.77252198991255,-84.4638125994237,-81.00835456883027,-55.66581427043924,-29.311995041563627],[-0.0006180327781196275,-0.0006180327781196275,-0.0006180327781196275,-0.0006180327781196275,-0.0006180327781196275,-0.0006180327781196275,-0.07390325270047654,-12.319941265727044,-43.341973023213676,-83.7907695543165,-131.69874971698877,-127.59766952708111,-129.426690863803,-124.11492162636324,-132.25538926710092,-108.73470449879646,-118.96677580324808,-114.34756309509754,-113.67249100473884,-113.74044332162066,-83.89075502403763,-70.14631247492721,-61.61427158227664,-40.712707577353754],[-0.0006180327781196275,-0.0006180327781196275,-0.0006180327781196275,-0.0006180327781196275,-0.0006180327781196275,-0.02993212074706239,-6.78558036233408,-37.77891861473007,-78.844919528694,-131.08515444294238,-139.9080483742744,-147.43567181224807,-127.88008677951063,-116.95409267035099,-95.73452325641702,-80.94321782609745,-82.83693755533767,-60.42101558467873,-47.21589835911451,-49.18432492934525,-39.18042531502592,-18.4445373635259,-23.820005783888146,-20.83382902779519],[-0.0006180327781196275,-0.0006180327781196275,-0.0006180327781196275,-0.0006180327781196275,-0.0006180327781196275,-1.9551494593899796,-22.309322161730798,-62.611125225069436,-117.70522247893493,-154.84353689209343,-167.3220396477578,-163.92760145131254,-130.68207876539466,-100.43060007975602,-59.36786576540962,-31.07746612085239,-24.71819701777855,-12.641736140279345,-4.921901129294097,-6.7812834616522215,-7.244814453658683,-0.5426613641866171,-2.656081830764368,-3.3613281293071067],[-0.0006180327781196275,-0.0006180327781196275,-0.0006180327781196275,-0.0006180327781196275,-0.0006180327781196275,-6.289724715420388,-32.442462581740465,-62.71681679581521,-118.77427871995191,-165.90604063570362,-178.24514877761757,-195.36708377163757,-166.3468118069065,-119.81198565743924,-55.394490282912926,-24.25005093826509,-9.221993474786105,-1.4828689181122376,-0.0006180327781196275,-0.0006180327781196275,-0.0006180327781196275,-0.0006180327781196275,-0.0006180327781196275,-0.0006180327781196275],[-0.0006180327781196275,-0.0006180327781196275,-0.0006180327781196275,-0.0006180327781196275,-0.0006180327781196275,-5.952242698016136,-32.64649819295336,-55.90406757226559,-90.16844026247213,-120.28396243216393,-155.31400173944917,-156.17650616377915,-154.28566209194278,-132.01358964665837,-102.00357112505337,-79.69430201276455,-41.73412532239579,-14.128067577672166,-2.1720017046027578,-0.0455347262730929,-0.0006180327781196275,-0.0006180327781196275,-0.0006180327781196275,-0.0006180327781196275],[-0.002711896204472682,-0.15743509732896643,-1.6245318680063918,-1.7458814774831453,-0.8021448161844627,-6.137992016528333,-24.993500130943985,-45.893298435568525,-66.37947515351244,-95.14193776501867,-113.53723165132153,-113.55646543064273,-109.80966369041538,-109.19049743886589,-100.46329772338034,-103.97603853662515,-85.53664426770442,-43.01205774707138,-13.81441827057606,-1.2374423048276266,-0.0006180327781196275,-0.0006180327781196275,-0.0006180327781196275,-0.0006180327781196275],[-0.16617637071269925,-3.724567417819314,-18.758592352735207,-26.440701701870303,-15.109967338957448,-7.816841313759098,-10.797661012770288,-29.003091603753525,-37.754307247770335,-53.62583577092946,-78.70672429513228,-99.96966926901331,-113.69545724402883,-120.88763683056304,-126.30804031714956,-140.43077285252392,-135.61253132066255,-81.53277672378262,-30.42835907254744,-6.3148447217832135,-0.0006180327781196275,-0.0006180327781196275,-0.0006180327781196275,-0.0006180327781196275],[-2.2753687386304655,-27.954334361288502,-34.32345466653709,-59.0449024095969,-39.472078567475386,-22.71282419802025,-4.584566412953469,-4.258846228555382,-11.48259646154072,-15.766194486778037,-20.108323975022916,-40.909767587143634,-58.3949445874307,-97.78315648505784,-121.77394222745012,-163.73329283710964,-157.82653853701558,-119.71562858262973,-52.135787258197794,-11.227338930114222,-0.0006180327781196275,-0.0006180327781196275,-0.0006180327781196275,-0.0006180327781196275],[-12.365264312290481,-46.38851090179782,-63.22910363939196,-88.71149787673245,-65.15726558490607,-38.282302568534035,-8.553630709007983,-0.7492295910276742,-0.0006180327781196275,-0.0006180327781196275,-0.05300754427231615,-4.1517811499557,-41.63346248400942,-96.43081720052282,-131.02655686567186,-138.62693520184837,-136.5500853562723,-118.8686915519415,-66.07348990396146,-15.126718369479947,-0.0006180327781196275,-0.0006180327781196275,-0.0006180327781196275,-0.0006180327781196275],[-27.069649575032624,-51.641588132889844,-79.57479964887314,-105.44838718881007,-126.11577721913554,-116.5078427705173,-55.87852481063328,-25.800937932283105,-17.00048119132814,-14.605950137275572,-14.503847477446824,-35.55913940515661,-62.487024812264075,-119.34549420675799,-137.76233844906005,-126.65248949667439,-101.9224208015302,-98.77460867068552,-66.12719377687581,-24.80320958920419,-0.0006180327781196275,-0.0006180327781196275,-0.0006180327781196275,-0.0006180327781196275],[-28.76544775648109,-51.719138605750615,-70.4533072845906,-96.09510545798736,-147.62096003015762,-159.59356999990433,-118.01558951932765,-92.30220913464072,-79.2410751869638,-72.48780052149966,-79.48671188036798,-92.78225658474659,-120.2676368540643,-136.5241986895789,-135.775924809135,-103.07807233074098,-87.31576728641642,-75.81363708548429,-50.21254331766481,-13.750259046785557,-0.0006180327781196275,-0.0006180327781196275,-0.0006180327781196275,-0.0006180327781196275],[-23.272604624141536,-45.075036686698226,-66.8081627766614,-78.75908857654892,-133.6523306401659,-152.9667425293498,-141.91847383831697,-123.17701191877455,-116.431635372728,-114.49868210401587,-120.38076091786992,-135.718920416407,-134.08932461812964,-120.13644319156775,-108.7100512967593,-96.29197126804,-77.06674945657412,-54.09044554841181,-23.273511006758675,-2.287767959582569,-0.0006180327781196275,-0.0006180327781196275,-0.0006180327781196275,-0.0006180327781196275],[-6.949418559167417,-34.62316964674296,-46.259261438439914,-65.85140009983522,-98.64248656707568,-119.12139316180848,-131.05482101449067,-125.53038305695863,-114.58178195411287,-100.98132525227692,-106.29747813801583,-104.3930280480544,-111.87300811523724,-92.19224321007816,-88.34978631912635,-75.11519156541391,-55.104941311886726,-23.94489511526648,-4.154829124320896,-0.0006180327781196275,-0.0006180327781196275,-0.0006180327781196275,-0.0006180327781196275,-0.0006180327781196275],[-0.542353912679456,-8.278617851006254,-27.55578178117839,-39.919192110506486,-58.84299180794038,-83.59516795663856,-105.78959667581245,-113.81708000224697,-112.21588908223404,-107.43489492466773,-106.9330526363632,-107.56898180663336,-99.50277654216394,-84.12460303213602,-75.09240887306171,-56.98359725051009,-30.884942506087626,-4.154829124320896,-0.0006180327781196275,-0.0006180327781196275,-0.0006180327781196275,-0.0006180327781196275,-0.0006180327781196275,-0.0006180327781196275],[-0.0006180327781196275,-0.3207346890834547,-4.036686458252036,-15.994919671479378,-27.505134559133264,-34.4909485335888,-50.73900925845649,-67.71197955112403,-79.86937907085422,-79.86937907085422,-79.50910702352634,-70.68425221821037,-65.95796517411439,-53.99099292607613,-36.287868148542934,-17.86403895878275,-6.722038225836094,-0.0006180327781196275,-0.0006180327781196275,-0.0006180327781196275,-0.0006180327781196275,-0.0006180327781196275,-0.0006180327781196275,-0.0006180327781196275],[-0.0006180327781196275,-0.0006180327781196275,-0.04986674913278657,-0.8105018053584228,-4.44577743386676,-9.482825852404936,-10.052894936786382,-14.154857443196088,-18.68248076768653,-18.68248076768653,-18.64144017072431,-17.393336689335012,-10.703755633039407,-9.618833965376934,-7.5858812164715435,-1.4942669645687805,-0.0006180327781196275,-0.0006180327781196275,-0.0006180327781196275,-0.0006180327781196275,-0.0006180327781196275,-0.0006180327781196275,-0.0006180327781196275,-0.0006180327781196275],[-0.0006180327781196275,-0.0006180327781196275,-0.0006180327781196275,-0.0006180327781196275,-0.0006180327781196275,-0.0006180327781196275,-0.0006180327781196275,-0.0006180327781196275,-0.0006180327781196275,-0.0006180327781196275,-0.0006180327781196275,-0.0006180327781196275,-0.0006180327781196275,-0.0006180327781196275,-0.0006180327781196275,-0.0006180327781196275,-0.0006180327781196275,-0.0006180327781196275,-0.0006180327781196275,-0.0006180327781196275,-0.0006180327781196275,-0.0006180327781196275,-0.0006180327781196275,-0.0006180327781196275],[-0.0006180327781196275,-0.0006180327781196275,-0.0006180327781196275,-0.0006180327781196275,-0.0006180327781196275,-0.0006180327781196275,-0.0006180327781196275,-0.0006180327781196275,-0.0006180327781196275,-0.0006180327781196275,-0.0006180327781196275,-0.0006180327781196275,-0.0006180327781196275,-0.0006180327781196275,-0.0006180327781196275,-0.0006180327781196275,-0.0006180327781196275,-0.0006180327781196275,-0.0006180327781196275,-0.0006180327781196275,-0.0006180327781196275,-0.0006180327781196275,-0.0006180327781196275,-0.0006180327781196275]],"label":""}],[{"cols":24,"rows":24,"values":[[0.0025404717687681566,0.0025404717687681566,0.0025404717687681566,0.0025404717687681566,0.0025404717687681566,0.0025404717687681566,0.0025404717687681566,0.0025404717687681566,0.0025404717687681566,0.0025404717687681566,0.0025404717687681566,0.0025404717687681566,0.0025404717687681566,0.0025404717687681566,0.0025404717687681566,0.0025404717687681566,0.0025404717687681566,0.0025404717687681566,0.0025404717687681566,0.0025404717687681566,0.0025404717687681566,0.0025404717687681566,0.0025404717687681566,0.0025404717687681566],[0.0025404717687681566,0.0025404717687681566,0.0025404717687681566,0.0025404717687681566,0.0025404717687681566,0.0025404717687681566,0.0025404717687681566,0.0025404717687681566,0.0025404717687681566,0.0025404717687681566,0.0025404717687681566,0.0025404717687681566,-0.03638975981727139,-0.4171955971616381,-1.4510666622287511,-1.6548798540447396,0.04767554314964204,-0.9743118950824317,-0.9743118950824317,-0.7504630634627043,0.28342925105685535,0.9906561426372505,-1.0334236526843341,-0.09479166520571505],[0.0025404717687681566,0.0025404717687681566,0.0025404717687681566,0.0025404717687681566,0.0025404717687681566,0.0025404717687681566,0.0025404717687681566,0.0025404717687681566,0.0025404717687681566,0.0025404717687681566,-0.33809905460907785,-1.5800833230967883,-2.76908746080741,-8.05910678831278,-23.968536975071963,-16.26513957336544,-10.461572515301997,-15.89466968532613,-15.89466968532613,-12.544467660970849,-4.244648384527342,7.115853618038308,3.1371335729180907,-7.761506694881365],[0.0025404717687681566,0.0025404717687681566,0.0025404717687681566,0.0025404717687681566,0.0025404717687681566,0.0025404717687681566,0.0025404717687681566,0.0025404717687681566,0.0025404717687681566,-0.4548897493671965,-8.239134340003067,-18.1941819124667,-29.53852094218923,-42.306658462625165,-85.26624420921483,-86.28254827841975,-86.18225327182448,-79.81867814410613,-78.11223423661838,-65.3196702969032,-37.32687426097455,2.459296345356973,23.376337369311866,-6.442595751559982],[0.0025404717687681566,0.0025404717687681566,0.0025404717687681566,0.0025404717687681566,0.0025404717687681566,0.0025404717687681566,0.0025404717687681566,0.0025404717687681566,-1.0485757810542995,-12.210340405082867,-52.24900389273048,-64.52751430564801,-81.77526919464093,-127.25399632621946,-159.4118696559394,-170.83542086201476,-178.69504595191006,-169.9052994280551,-159.7602010833272,-147.24851190822042,-94.00940962562491,-26.966610334434705,19.377181638408544,16.509035154860932],[0.0025404717687681566,0.0025404717687681566,0.0025404717687681566,0.0025404717687681566,0.0025404717687681566,0.0025404717687681566,0.0025404717687681566,-1.0680408968473192,-18.78966063572079,-60.255444239560646,-111.96489168396793,-132.49886471058218,-159.97232951954945,-201.40247684947303,-207.2396218178236,-219.57691558763793,-216.35009057406145,-203.6970434387994,-197.89777794505957,-189.0780639991333,-126.22339447549139,-58.777339918309664,-11.21062718198781,20.684882600598886],[0.0025404717687681566,0.0025404717687681566,0.0025404717687681566,0.0025404717687681566,0.0025404717687681566,0.0025404717687681566,-0.6787385809869239,-17.22916831463694,-66.47480984718746,-127.76429909260011,-183.78776291377028,-195.94547273789428,-191.94027489283118,-212.7898590293177,-170.6114266787923,-160.10338119339013,-134.12088235697743,-113.89721513841344,-108.6479857982725,-104.92240500160682,-56.89500049719352,-21.902541600361204,-4.431546638056469,15.337079807995696],[0.0025404717687681566,0.0025404717687681566,0.0025404717687681566,0.0025404717687681566,0.0025404717687681566,-0.2699711493335087,-10.71820468305613,-59.4328879774171,-134.93725008637995,-202.6629852813789,-238.55163463621548,-184.79849118107907,-140.7069350149501,-115.68115818720217,-63.09433341993933,-51.689222018988936,-32.78222785129536,-18.708870206202455,-13.186136577782122,-20.212257640224344,7.499247448219892,14.53145764118054,9.847410000667054,14.906322952223896],[0.0025404717687681566,0.0025404717687681566,0.0025404717687681566,0.0025404717687681566,0.0025404717687681566,-3.696396582525949,-39.19190728808004,-120.48466265948016,-213.64199119462276,-257.8311357960741,-224.43400066172802,-118.61290017575482,-48.65165156362443,-5.642722393835909,2.411620933437186,7.314879392822375,10.770005576891933,11.091347470643386,4.252124502846598,-1.8226112885533445,4.55323404687519,3.299144302484543,2.2768621981258805,4.151672010773772],[0.0025404717687681566,0.0025404717687681566,0.0025404717687681566,0.0025404717687681566,0.0025404717687681566,-11.196647023153668,-73.12278925560497,-178.75569420601076,-270.5483897428816,-290.1583550419536,-193.52328759264586,-73.76745964936494,-0.8458641383640854,30.878285308255244,17.26060376510228,11.593129790905206,0.9356788281342098,-4.815400308468152,0.0025404717687681566,0.0025404717687681566,0.0025404717687681566,0.0025404717687681566,0.0025404717687681566,0.0025404717687681566],[0.0025404717687681566,0.0025404717687681566,0.0025404717687681566,0.0025404717687681566,0.0025404717687681566,-12.519357479199972,-83.01461043754857,-188.60065219214144,-259.03921032305084,-280.0608465347507,-195.2788844131596,-109.99161743941717,-71.04198848809192,-34.91672113458349,-9.325172595458687,3.5102852961360242,15.624414695557078,3.5032934253157673,-6.442345597878667,-0.14345773369295667,0.0025404717687681566,0.0025404717687681566,0.0025404717687681566,0.0025404717687681566],[-0.016924644024251617,-0.2997868627132789,-1.021608660128058,-0.4088740395500089,1.892771799801602,-12.707125590928708,-66.77932944037552,-128.06506098652838,-175.62691453540364,-199.76157408147662,-170.0952325601338,-151.81169397661404,-148.3347500151171,-143.3317011675617,-111.11948466059826,-44.82328005157363,16.9490367137046,25.062714079647264,-0.8752948180766543,-3.3946316696189776,0.0025404717687681566,0.0025404717687681566,0.0025404717687681566,0.0025404717687681566],[-0.5028977171157781,-6.257507034609922,-14.641719244552169,-7.989696302752447,19.17353813089368,-12.720688825064723,-33.23131029450507,-52.108169934821255,-77.4161232300681,-95.91360785691434,-88.61549349256971,-104.73161360503873,-151.2732164189631,-196.42593522197794,-212.26210681149146,-142.49304805454292,-34.98924354145537,18.693280614212537,21.043045808972025,-5.162300653427765,0.0025404717687681566,0.0025404717687681566,0.0025404717687681566,0.0025404717687681566],[-4.958297073191861,-41.45067198257393,-53.60705699143615,-19.749094254404525,9.764184458081399,3.016617967721912,-5.07187263618003,-16.440233542479024,-22.806460021607297,-18.635854483112908,-13.200877715626278,-27.419888711902665,-73.74388113087741,-155.11857498821638,-215.4518557802162,-187.26114358099522,-87.3426430876306,-4.318311634761713,14.762382388748092,8.35081887920426,0.0025404717687681566,0.0025404717687681566,0.0025404717687681566,0.0025404717687681566],[-22.96562593687054,-93.2086158643492,-114.02354583463563,-50.15501552524529,-17.193381931763934,24.651640606433812,1.1377142202211705,-2.4307629525933123,0.0025404717687681566,0.0025404717687681566,-0.5674232110714229,-22.05913946665166,-66.87757117816713,-159.8576132082196,-219.1487529712372,-182.1341225343181,-102.34582768205124,-20.628495388123255,13.359286303111281,13.376292100873641,0.0025404717687681566,0.0025404717687681566,0.0025404717687681566,0.0025404717687681566],[-50.247620014731766,-148.5117772909368,-184.31274624281966,-127.81073695152976,-44.63913666852529,13.487898635835137,9.971804479792503,0.8564133171831727,-6.11849270433787,-4.261184425566743,-4.386630354484345,-32.05588081359412,-94.51978879761249,-182.45219947820306,-226.22869495250828,-167.81583124971434,-87.60974466133915,-12.12056856872142,20.731146242346075,8.23220113799339,0.0025404717687681566,0.0025404717687681566,0.0025404717687681566,0.0025404717687681566],[-58.7574736184526,-176.34105190295608,-207.50827283808943,-188.64624787480523,-117.80883366639593,-34.912461287686874,-14.958434860705227,-19.26604077064625,-22.957371091746126,-26.404427991044173,-41.14870936520691,-84.35534577937764,-153.47884628465883,-212.52659255037625,-201.1297569648013,-119.4314879595108,-40.64527382574964,15.043947731660358,19.42972892426289,9.616346151507075,0.0025404717687681566,0.0025404717687681566,0.0025404717687681566,0.0025404717687681566],[-52.04054895762583,-133.03666985109072,-178.3308683025026,-208.77919859499437,-195.3993802270233,-150.115175974802,-114.99251812365594,-90.22377606004676,-88.66641492641486,-92.71241213389791,-110.14573773328057,-157.20579798488097,-204.25240077815153,-203.5601975613446,-145.47964550255276,-47.30193567944453,9.31760808477684,18.877449396026662,14.6810102729731,2.8262549913693955,0.0025404717687681566,0.0025404717687681566,0.0025404717687681566,0.0025404717687681566],[-30.696118058326096,-66.3480811000233,-108.27419991753032,-154.98381958135914,-186.4089720983165,-202.65795913522368,-188.88793933720092,-174.73130630738757,-165.58473636527316,-163.97189835831392,-178.74405279683532,-205.1313368815673,-201.4746556842395,-143.32903910257534,-59.699840183510034,2.756276784852648,24.032920772527703,14.952060323810732,5.131328068594397,0.0025404717687681566,0.0025404717687681566,0.0025404717687681566,0.0025404717687681566,0.0025404717687681566],[-5.945885628888507,-25.303335557306287,-50.70099391710609,-84.56762067793885,-120.04257203782362,-138.81250364950847,-152.32866148044877,-159.72971679552404,-157.50542485743705,-163.00360422191181,-175.4574251180908,-165.6868122725518,-124.58587508745485,-58.42336761199268,0.8167572904412007,12.554884265193579,15.257336313038364,5.131328068594397,0.0025404717687681566,0.0025404717687681566,0.0025404717687681566,0.0025404717687681566,0.0025404717687681566,0.0025404717687681566],[0.0025404717687681566,-3.5124385877105304,-17.334728613309395,-31.19160986642712,-46.73078727014105,-60.359319817728846,-63.31264105849304,-65.6474971935074,-65.21073412545633,-65.21073412545633,-64.70948067172512,-49.07904132602026,-17.691954813748456,10.893986660951654,19.763602912625885,15.240980038123817,8.300803549778776,0.0025404717687681566,0.0025404717687681566,0.0025404717687681566,0.0025404717687681566,0.0025404717687681566,0.0025404717687681566,0.0025404717687681566],[0.0025404717687681566,0.0025404717687681566,-0.5382255373818933,-5.37724294604618,-14.460321231065327,-13.578215857906084,-9.491419663892959,-5.779901463288578,-0.19009925101794745,-0.19009925101794745,0.26053908994093644,11.03760743351248,14.98201311128972,11.131215757974047,8.921031378963255,1.8465989335487698,0.0025404717687681566,0.0025404717687681566,0.0025404717687681566,0.0025404717687681566,0.0025404717687681566,0.0025404717687681566,0.0025404717687681566,0.0025404717687681566],[0.0025404717687681566,0.0025404717687681566,0.0025404717687681566,0.0025404717687681566,0.0025404717687681566,0.0025404717687681566,0.0025404717687681566,0.0025404717687681566,0.0025404717687681566,0.0025404717687681566,0.0025404717687681566,0.0025404717687681566,0.0025404717687681566,0.0025404717687681566,0.0025404717687681566,0.0025404717687681566,0.0025404717687681566,0.0025404717687681566,0.0025404717687681566,0.0025404717687681566,0.0025404717687681566,0.0025404717687681566,0.0025404717687681566,0.0025404717687681566],[0.0025404717687681566,0.0025404717687681566,0.0025404717687681566,0.0025404717687681566,0.0025404717687681566,0.0025404717687681566,0.0025404717687681566,0.0025404717687681566,0.0025404717687681566,0.0025404717687681566,0.0025404717687681566,0.0025404717687681566,0.0025404717687681566,0.0025404717687681566,0.0025404717687681566,0.0025404717687681566,0.0025404717687681566,0.0025404717687681566,0.0025404717687681566,0.0025404717687681566,0.0025404717687681566,0.0025404717687681566,0.0025404717687681566,0.0025404717687681566]],"label":""}],[{"cols":24,"rows":24,"values":[[0.0037715191064692224,0.0037715191064692224,0.0037715191064692224,0.0037715191064692224,0.0037715191064692224,0.0037715191064692224,0.0037715191064692224,0.0037715191064692224,0.0037715191064692224,0.0037715191064692224,0.0037715191064692224,0.0037715191064692224,0.0037715191064692224,0.0037715191064692224,0.0037715191064692224,0.0037715191064692224,0.0037715191064692224,0.0037715191064692224,0.0037715191064692224,0.0037715191064692224,0.0037715191064692224,0.0037715191064692224,0.0037715191064692224,0.0037715191064692224],[0.0037715191064692224,0.0037715191064692224,0.0037715191064692224,0.0037715191064692224,0.0037715191064692224,0.0037715191064692224,0.0037715191064692224,0.0037715191064692224,0.0037715191064692224,0.0037715191064692224,0.0037715191064692224,0.0037715191064692224,1.4609608878851625,9.682243069346297,13.197987057477228,16.410750735459526,19.567923750904455,22.517767263020108,22.517767263020108,14.13892839254262,10.12686523475855,6.864027790641496,3.762661229792364,0.2847089964508171],[0.0037715191064692224,0.0037715191064692224,0.0037715191064692224,0.0037715191064692224,0.0037715191064692224,0.0037715191064692224,0.0037715191064692224,0.0037715191064692224,0.0037715191064692224,0.0037715191064692224,12.754178495920035,6.45754334739887,52.0781444207289,122.51183777236335,162.58888545122048,194.22206703365637,229.57564764819267,251.69361965833104,251.69361965833104,212.0190492917951,135.011171806194,95.16997674590435,60.69551483310821,23.02670913092383],[0.0037715191064692224,0.0037715191064692224,0.0037715191064692224,0.0037715191064692224,0.0037715191064692224,0.0037715191064692224,0.0037715191064692224,0.0037715191064692224,0.0037715191064692224,17.125746602256115,107.1605218160992,114.82552933053361,198.07227062033206,291.7504002240318,378.8732087329192,409.66004442072847,459.45923101580615,476.11875458487617,475.58731576637985,452.5823197794031,295.7037954292913,205.16752635455646,135.16582478229623,68.92333577525989],[0.0037715191064692224,0.0037715191064692224,0.0037715191064692224,0.0037715191064692224,0.0037715191064692224,0.0037715191064692224,0.0037715191064692224,0.0037715191064692224,39.34788447613119,119.08235466360311,223.2858736278651,258.29731707370655,381.1038834733524,446.54604074622955,488.76766540030417,481.44730534661375,543.1966793508036,529.8039078175938,510.4364312612124,501.61494608552664,365.58498981560456,266.00321608535415,183.57058298482445,108.91908693212343],[0.0037715191064692224,0.0037715191064692224,0.0037715191064692224,0.0037715191064692224,0.0037715191064692224,0.0037715191064692224,0.0037715191064692224,40.07647916052054,134.97458801873438,240.79994114327758,356.57203402087765,376.3475017751736,440.55070192585566,465.02896489495777,485.1322688979893,440.9376546344295,509.09363330941864,497.76458731645903,468.6619808438639,470.81556758987585,389.24781557974114,305.65027481196887,231.37122368220014,136.9306866046292],[0.0037715191064692224,0.0037715191064692224,0.0037715191064692224,0.0037715191064692224,0.0037715191064692224,0.0037715191064692224,25.504585472733602,129.4354946258207,248.36994380752822,378.72242302800726,394.2167985509066,408.27926905525226,452.75195718367024,462.1214224700626,443.0508637787591,403.85831002035223,481.73856371623015,460.8423803853203,427.13880047056216,430.48943143543903,393.75058219924694,325.9894858972174,260.0716098238682,147.84688440348748],[0.0037715191064692224,0.0037715191064692224,0.0037715191064692224,0.0037715191064692224,0.0037715191064692224,10.204097100557323,98.15602392639822,229.2312567285119,362.9847166141752,443.1123642494315,416.75372189642025,456.36827286484174,481.17470045701356,483.73996181976287,414.82802843360696,338.37958145327633,334.61736760141986,274.6243478545244,238.91548423301074,228.31768974350166,217.5347508338566,178.4117302004252,158.2129486336782,101.8566254089535],[0.0037715191064692224,0.0037715191064692224,0.0037715191064692224,0.0037715191064692224,0.0037715191064692224,34.09565214147099,178.67030551391838,320.34998046480894,442.9795467169193,532.3393786910904,548.8198638515585,568.237199722748,557.0131214719955,469.73959947862426,278.642481811108,183.20521966654618,148.89923806651564,87.27820466009383,51.02974993070181,42.6168275069229,35.57672292333808,21.296138986507682,27.477958940541363,22.841725254158394],[0.0037715191064692224,0.0037715191064692224,0.0037715191064692224,0.0037715191064692224,0.0037715191064692224,26.98560004858064,153.33155979091703,304.30339801759226,454.237094100191,596.156604650298,736.0967014201785,789.9578606300311,711.8102047121369,496.87366407165564,233.04358920921112,116.61424449534587,60.02109818814392,13.910176647651689,0.0037715191064692224,0.0037715191064692224,0.0037715191064692224,0.0037715191064692224,0.0037715191064692224,0.0037715191064692224],[0.0037715191064692224,0.0037715191064692224,0.0037715191064692224,0.0037715191064692224,0.0037715191064692224,17.983107337739224,88.16764012626524,182.78802822052785,325.97607501837257,505.731408921965,686.5750069243959,772.3653360437027,723.0985114063958,561.7421220308049,317.2098927952774,198.6584202184738,138.810875598623,73.43626052972375,19.75921432168879,0.42517773512299106,0.0037715191064692224,0.0037715191064692224,0.0037715191064692224,0.0037715191064692224],[0.7323662034958159,8.30383204507578,3.4033777498692954,3.098812581312898,3.0035926791478236,6.708995568170381,25.23478867854458,97.07996334989619,211.80203898664683,365.5239369765424,517.7382978414961,585.5462709550604,614.9489137043038,591.6706950151336,472.5483232487702,357.47457507866574,265.3270709645847,168.57527212851076,72.79973008038529,10.728726731899028,0.0037715191064692224,0.0037715191064692224,0.0037715191064692224,0.0037715191064692224],[11.468275687957624,99.47405679090897,65.45596597129924,48.36757882470873,44.3344348073716,44.535177038826674,10.639125033902822,36.769620270780706,99.61159053157228,199.91827122795095,311.9186893101185,395.43497889971684,460.3627978976631,576.4510865025445,586.8405739312468,532.5013300274032,408.5063080741646,297.42991710022426,153.49129083805715,38.438495376434865,0.0037715191064692224,0.0037715191064692224,0.0037715191064692224,0.0037715191064692224],[65.29476021098237,186.8470527369846,148.15932645709913,123.52028179757463,99.85596312132922,101.16114710037664,18.407831196983945,0.2813310351012194,16.46605235184838,53.90721668350745,111.22761732379527,189.30225838646635,300.09072249008193,503.91579632162075,648.0207663237543,643.3577147328609,542.6520797971904,430.4661431249038,230.24839646809045,61.86071270841767,0.0037715191064692224,0.0037715191064692224,0.0037715191064692224,0.0037715191064692224],[140.8083933446967,282.21953549130944,282.36677410450704,223.88002230469004,215.2126752581389,204.75247835786575,60.790579630445976,7.027208452715167,0.0037715191064692224,0.0037715191064692224,0.9462490039966238,65.9163131276914,181.08707202688254,367.178831502273,500.09589537307204,572.4467408582443,560.029969948197,507.33717144707543,297.51182353968886,79.77723602990561,0.0037715191064692224,0.0037715191064692224,0.0037715191064692224,0.0037715191064692224],[126.73352034675857,295.05846132600396,370.00394739500024,386.515545680053,454.33277176862856,405.69806505648023,207.47555809767616,118.3784935367638,86.32533950694976,69.81823251282734,112.08518272018489,201.54263726684022,304.9775463185895,375.1481482292613,404.9006572028332,438.99437491961874,484.2086413628725,485.6105638775093,303.39278793973085,85.94790193011616,0.0037715191064692224,0.0037715191064692224,0.0037715191064692224,0.0037715191064692224],[78.53597131724614,192.05683030830698,360.99722542745326,504.9018005556053,659.359620440109,650.3706047990523,464.0877188345834,361.95779735961315,324.4901757106422,303.39051012426427,331.96074360999575,406.60218481431383,447.7721932734915,399.27656884384874,386.76136912842264,415.8029755674305,447.5436645728946,400.3744700296906,228.9593255069685,66.4082817630322,0.0037715191064692224,0.0037715191064692224,0.0037715191064692224,0.0037715191064692224],[22.22875869349199,100.77287134994215,248.59593197352433,433.434383503631,650.9043179423296,666.2396841425405,576.3278052684224,517.3140194679667,485.8593750558897,455.15037475013423,472.0128431424628,461.39893315075545,437.1699489003831,382.64989109147575,388.4323706623134,423.3867318198822,395.5349100066301,263.9412013827073,115.47396265583463,15.546267811016808,0.0037715191064692224,0.0037715191064692224,0.0037715191064692224,0.0037715191064692224],[-3.232704143631788,36.93164338157277,132.34469680426434,283.1507315848849,467.5465084649683,542.0456105199331,549.7306739407288,505.10263731615504,471.2868532352142,437.54772618710706,433.57590790526723,405.3389122597123,380.27752588774774,362.8757618472914,405.3946632610319,395.4833201751291,286.02695672495815,125.27461796877215,28.234019886045658,0.0037715191064692224,0.0037715191064692224,0.0037715191064692224,0.0037715191064692224,0.0037715191064692224],[-1.6507884395260515,1.562444319244087,33.30206444037377,104.57458819245765,228.4948767836608,353.35674127473504,424.8646107355774,444.6511516138717,430.7549216813988,394.4676168069528,381.1156888604869,363.3048193835161,357.9257398870507,366.97632558571655,362.82840527467977,266.0517265287015,142.09396747677187,28.234019886045658,0.0037715191064692224,0.0037715191064692224,0.0037715191064692224,0.0037715191064692224,0.0037715191064692224,0.0037715191064692224],[0.0037715191064692224,-0.9739230019036565,-1.1076669167864501,16.918895426634347,61.62528042556756,133.57719400611583,222.08585234884026,281.66533756634095,310.7691394480505,310.7691394480505,310.5068678373918,304.8549438124651,297.20531551889553,272.8122380039412,213.72600276579053,122.59986633425082,45.67967898921032,0.0037715191064692224,0.0037715191064692224,0.0037715191064692224,0.0037715191064692224,0.0037715191064692224,0.0037715191064692224,0.0037715191064692224],[0.0037715191064692224,0.0037715191064692224,-0.14664302258739628,-0.9958656090158219,1.6845556857439383,18.653099411752084,47.72153875387627,88.29939938716298,119.06719816910793,119.06719816910793,119.19254362051947,121.77623269866943,112.33866881808929,91.16122134299918,55.74055985269039,10.153973179129547,0.0037715191064692224,0.0037715191064692224,0.0037715191064692224,0.0037715191064692224,0.0037715191064692224,0.0037715191064692224,0.0037715191064692224,0.0037715191064692224],[0.0037715191064692224,0.0037715191064692224,0.0037715191064692224,0.0037715191064692224,0.0037715191064692224,0.0037715191064692224,0.0037715191064692224,0.0037715191064692224,0.0037715191064692224,0.0037715191064692224,0.0037715191064692224,0.0037715191064692224,0.0037715191064692224,0.0037715191064692224,0.0037715191064692224,0.0037715191064692224,0.0037715191064692224,0.0037715191064692224,0.0037715191064692224,0.0037715191064692224,0.0037715191064692224,0.0037715191064692224,0.0037715191064692224,0.0037715191064692224],[0.0037715191064692224,0.0037715191064692224,0.0037715191064692224,0.0037715191064692224,0.0037715191064692224,0.0037715191064692224,0.0037715191064692224,0.0037715191064692224,0.0037715191064692224,0.0037715191064692224,0.0037715191064692224,0.0037715191064692224,0.0037715191064692224,0.0037715191064692224,0.0037715191064692224,0.0037715191064692224,0.0037715191064692224,0.0037715191064692224,0.0037715191064692224,0.0037715191064692224,0.0037715191064692224,0.0037715191064692224,0.0037715191064692224,0.0037715191064692224]],"label":""}],[{"cols":24,"rows":24,"values":[[-0.000056712903813036045,-0.000056712903813036045,-0.000056712903813036045,-0.000056712903813036045,-0.000056712903813036045,-0.000056712903813036045,-0.000056712903813036045,-0.000056712903813036045,-0.000056712903813036045,-0.000056712903813036045,-0.000056712903813036045,-0.000056712903813036045,-0.000056712903813036045,-0.000056712903813036045,-0.000056712903813036045,-0.000056712903813036045,-0.000056712903813036045,-0.000056712903813036045,-0.000056712903813036045,-0.000056712903813036045,-0.000056712903813036045,-0.000056712903813036045,-0.000056712903813036045,-0.000056712903813036045],[-0.000056712903813036045,-0.000056712903813036045,-0.000056712903813036045,-0.000056712903813036045,-0.000056712903813036045,-0.000056712903813036045,-0.000056712903813036045,-0.000056712903813036045,-0.000056712903813036045,-0.000056712903813036045,-0.000056712903813036045,-0.000056712903813036045,-0.17994534983006688,-1.1085930878227217,-0.9341284028819644,-0.4553887089712557,-0.31267184918678137,0.5083992876247637,0.5083992876247637,1.5427589499507233,1.5420395346603284,1.0069683955218747,0.9761062935418031,0.07814053822109601],[-0.000056712903813036045,-0.000056712903813036045,-0.000056712903813036045,-0.000056712903813036045,-0.000056712903813036045,-0.000056712903813036045,-0.000056712903813036045,-0.000056712903813036045,-0.000056712903813036045,-0.000056712903813036045,-1.574082286008534,-0.04197879846601185,-4.785554329190529,-10.405347990654537,-5.370408728917494,-2.5789779443856187,0.7270698350150938,6.472746136229587,6.472746136229587,10.248019641447282,17.017115619457897,12.664271759116625,10.57008297681526,6.3691220840592475],[-0.000056712903813036045,-0.000056712903813036045,-0.000056712903813036045,-0.000056712903813036045,-0.000056712903813036045,-0.000056712903813036045,-0.000056712903813036045,-0.000056712903813036045,-0.000056712903813036045,-2.113748196787296,-10.506706280384655,-5.761753561017421,-0.405659951715858,-1.3927522026787178,22.325824823456188,19.19695445860276,17.36062691993201,25.096587764515434,24.256445514405115,19.916025602923618,27.38900157873786,17.21108165450631,7.66041620301488,15.98058305891812],[-0.000056712903813036045,-0.000056712903813036045,-0.000056712903813036045,-0.000056712903813036045,-0.000056712903813036045,-0.000056712903813036045,-0.000056712903813036045,-0.000056712903813036045,-4.857049909912667,-10.077294563515153,-2.33000910335271,8.005554291910002,24.047253232962113,23.765619635827335,62.498052694853904,52.318250409915535,60.63505245944866,67.49617683446124,62.609882349441364,54.03156739184921,47.87138010601001,29.777202435869384,3.6669692017982682,20.94779838752158],[-0.000056712903813036045,-0.000056712903813036045,-0.000056712903813036045,-0.000056712903813036045,-0.000056712903813036045,-0.000056712903813036045,-0.000056712903813036045,-4.946994228375794,-9.018941494758037,-1.9981114743118515,20.72916494154098,42.343342522298734,50.14041339728077,45.206968266895544,62.056420302616885,37.87446989459339,46.41009371555647,52.25626074294724,46.59359194529987,42.54347925103438,47.67222830315094,35.19166904031321,15.14784285794057,22.62151299213926],[-0.000056712903813036045,-0.000056712903813036045,-0.000056712903813036045,-0.000056712903813036045,-0.000056712903813036045,-0.000056712903813036045,-3.148107859113255,-9.10015277300337,-0.8910250069020317,22.729177972562617,48.79545655126539,40.55880650334981,48.11760485775122,47.60704687212618,44.11058315333455,22.798423511939156,37.280588597176084,37.1315492772808,30.376574270837,25.14456688243681,24.19281924347402,32.31459866581224,24.894873212199204,21.82398855837189],[-0.000056712903813036045,-0.000056712903813036045,-0.000056712903813036045,-0.000056712903813036045,-0.000056712903813036045,-1.2592771713875899,-8.096678689875336,-2.0942270685031925,18.70950239832412,43.14713555990695,48.5630856434112,41.86902632738344,32.54262622492416,41.86890109727089,36.4838079176465,26.27011266394734,30.643708112138015,24.108273593493305,24.89958061717899,23.647304602853232,10.374144102736963,17.980004429249608,18.400292754182036,15.587303186822968],[-0.000056712903813036045,-0.000056712903813036045,-0.000056712903813036045,-0.000056712903813036045,-0.000056712903813036045,-2.842127639659598,-5.38119617154669,9.990103226201152,38.305747323381254,36.25204055105341,40.42155583147024,38.927301946899576,44.95767811771594,53.94681953581703,28.455805059939777,19.487132458324396,19.410989792018775,8.624726894042116,6.634331992412779,7.440203401312495,1.639372244818343,1.5262630600181606,3.317761235908363,3.6413449980170904],[-0.000056712903813036045,-0.000056712903813036045,-0.000056712903813036045,-0.000056712903813036045,-0.000056712903813036045,1.9117348861467036,10.203491474026764,25.24195096624546,36.72353767689207,24.42010335987849,34.189851204799034,47.4303923120302,44.436103533110405,47.24878953049764,33.032128603766274,17.527517195356356,11.311979936071284,3.870707217779185,-0.000056712903813036045,-0.000056712903813036045,-0.000056712903813036045,-0.000056712903813036045,-0.000056712903813036045,-0.000056712903813036045],[-0.000056712903813036045,-0.000056712903813036045,-0.000056712903813036045,-0.000056712903813036045,-0.000056712903813036045,2.335731871802044,14.389084820016397,29.070652808455513,35.36350837530321,45.73854314458925,58.04610866120145,58.93192173841235,46.157650434700145,34.78794090237514,15.265750667981258,13.056495334196368,13.92999025337727,13.626828750317468,5.393599665791291,0.11723916378355054,-0.000056712903813036045,-0.000056712903813036045,-0.000056712903813036045,-0.000056712903813036045],[-0.09000103136693996,-0.9815604130631204,0.13250749644332657,0.5029068021532238,0.06381157944787871,1.6934366204260856,4.974793920694782,1.5150607642039475,15.359778156031995,29.132264922898294,49.40706355241215,71.17353301059795,72.15691029792245,62.4309201699524,29.88157079501849,25.44216251434056,20.58730957212901,16.329116957278984,14.753153892954954,2.9264944497047365,-0.000056712903813036045,-0.000056712903813036045,-0.000056712903813036045,-0.000056712903813036045],[-1.3177288686258346,-10.501868200772034,-0.8356445645842697,7.197031245006763,0.8608339023504558,13.361941261251975,10.078589680469571,-0.7637229704967413,-3.8513474917207935,1.5522407617887535,7.3254608588155365,18.492988746966205,38.54072441926739,41.481522882459636,43.621101137552316,49.55561636881278,35.50530904343526,25.401426245629267,21.321347491012087,9.209118611239646,-0.000056712903813036045,-0.000056712903813036045,-0.000056712903813036045,-0.000056712903813036045],[-6.476024265992442,-5.457275007428675,7.5910098697302715,21.661480367215805,-5.538457097973217,15.473210094145442,6.278674116914148,5.795939850599762,5.095232787427669,4.473257082609434,10.24427590653319,15.169989418183926,9.138356811300762,13.980012670039626,35.32112781446997,73.61958865834933,53.221813307276555,41.13993688924551,24.98680039952722,11.958675104098571,-0.000056712903813036045,-0.000056712903813036045,-0.000056712903813036045,-0.000056712903813036045],[-7.9701787089572615,3.856455456415615,28.80007914560673,24.78559636123379,7.352553401156895,29.405934408693224,12.555795565624406,1.9548745652189135,-0.000056712903813036045,-0.000056712903813036045,0.11735117871531098,0.5980831413044491,-3.4631526334325127,9.17643805606343,32.7856395817134,58.4032423067745,56.951261431048415,47.963802671110784,36.93526711637955,13.527671762310316,-0.000056712903813036045,-0.000056712903813036045,-0.000056712903813036045,-0.000056712903813036045],[6.168086301500678,11.19536502691901,25.610577316676988,7.83979004172925,13.711906907054956,31.834777311777728,19.821814937779582,10.53570975802566,6.196680328768295,2.6184949499508128,-4.089646163468478,-2.4727182629029087,12.048799841338951,44.81131222153604,41.68824312798094,33.44599858714051,30.482152296990424,47.98405111650181,39.19487229673511,12.596356895163886,-0.000056712903813036045,-0.000056712903813036045,-0.000056712903813036045,-0.000056712903813036045],[9.824749790961587,27.6624955299208,21.03471723835332,26.830309782251717,36.939393797357646,42.19859671527941,23.72385358344068,11.193535862314613,11.403504849686305,10.098375314309548,11.045290754211875,18.401422760267714,44.948427250462515,58.4078401968448,38.49400657290989,22.59281883062833,30.492948000825724,43.722611945035986,30.666901787065548,10.143700847921297,-0.000056712903813036045,-0.000056712903813036045,-0.000056712903813036045,-0.000056712903813036045],[7.115348693219254,4.718947341831871,13.36757837832097,33.855184871374995,64.4405476444227,64.30998200434611,46.35873899947653,37.183523481011754,36.266875827388304,31.685072254106405,34.55305230498979,49.53798939372924,53.67093561012562,42.19056760891996,25.465201047130893,17.96739987678302,38.95228663363236,32.55717394053839,16.88113847387272,2.478119451472913,-0.000056712903813036045,-0.000056712903813036045,-0.000056712903813036045,-0.000056712903813036045],[10.24879621002545,-0.6856475092898456,-1.3391830230064217,14.870433317795811,45.63556941766171,60.95483369380375,68.98670085395857,59.71505465307597,59.15219275344455,55.73822735113815,53.87495514860094,52.94254168586695,44.53544109895889,23.590307216307203,26.290063428098414,34.661199780137736,35.701440452809294,17.85335636952032,4.501120401984526,-0.000056712903813036045,-0.000056712903813036045,-0.000056712903813036045,-0.000056712903813036045,-0.000056712903813036045],[2.7755113495481454,6.916793158319925,0.9414436081307074,-2.413338602672831,8.020018005982632,24.344615215086954,36.5039040407987,39.850822754910865,40.29478937408619,34.93702921356498,38.552302528472886,32.4596232265915,22.841022691234485,17.653964529713576,31.723182305375733,29.490566655147802,20.0366166547518,4.501120401984526,-0.000056712903813036045,-0.000056712903813036045,-0.000056712903813036045,-0.000056712903813036045,-0.000056712903813036045,-0.000056712903813036045],[-0.000056712903813036045,1.6400516876359807,6.2519727673590655,4.237632282387158,0.4406735525916704,2.3628757374018745,12.100759019826574,17.334653870394526,21.095935149712034,21.095935149712034,21.1707830530337,21.75636884981498,23.121426852203278,20.69838041642627,25.020917684996885,17.131643594529315,7.282746708937994,-0.000056712903813036045,-0.000056712903813036045,-0.000056712903813036045,-0.000056712903813036045,-0.000056712903813036045,-0.000056712903813036045,-0.000056712903813036045],[-0.000056712903813036045,-0.000056712903813036045,0.2522676564100014,2.2844638434469022,4.648722704957217,1.8116877744873217,3.763170581827917,8.801275238201228,13.707052543191892,13.707052543191892,13.49678223543038,8.656239806735666,11.19256450518594,11.678480957346574,8.414546191795605,1.6183440475054776,-0.000056712903813036045,-0.000056712903813036045,-0.000056712903813036045,-0.000056712903813036045,-0.000056712903813036045,-0.000056712903813036045,-0.000056712903813036045,-0.000056712903813036045],[-0.000056712903813036045,-0.000056712903813036045,-0.000056712903813036045,-0.000056712903813036045,-0.000056712903813036045,-0.000056712903813036045,-0.000056712903813036045,-0.000056712903813036045,-0.000056712903813036045,-0.000056712903813036045,-0.000056712903813036045,-0.000056712903813036045,-0.000056712903813036045,-0.000056712903813036045,-0.000056712903813036045,-0.000056712903813036045,-0.000056712903813036045,-0.000056712903813036045,-0.000056712903813036045,-0.000056712903813036045,-0.000056712903813036045,-0.000056712903813036045,-0.000056712903813036045,-0.000056712903813036045],[-0.000056712903813036045,-0.000056712903813036045,-0.000056712903813036045,-0.000056712903813036045,-0.000056712903813036045,-0.000056712903813036045,-0.000056712903813036045,-0.000056712903813036045,-0.000056712903813036045,-0.000056712903813036045,-0.000056712903813036045,-0.000056712903813036045,-0.000056712903813036045,-0.000056712903813036045,-0.000056712903813036045,-0.000056712903813036045,-0.000056712903813036045,-0.000056712903813036045,-0.000056712903813036045,-0.000056712903813036045,-0.000056712903813036045,-0.000056712903813036045,-0.000056712903813036045,-0.000056712903813036045]],"label":""}],[{"cols":24,"rows":24,"values":[[-3.4425083686063433e-7,-3.4425083686063433e-7,-3.4425083686063433e-7,-3.4425083686063433e-7,-3.4425083686063433e-7,-3.4425083686063433e-7,-3.4425083686063433e-7,-3.4425083686063433e-7,-3.4425083686063433e-7,-3.4425083686063433e-7,-3.4425083686063433e-7,-3.4425083686063433e-7,-3.4425083686063433e-7,-3.4425083686063433e-7,-3.4425083686063433e-7,-3.4425083686063433e-7,-3.4425083686063433e-7,-3.4425083686063433e-7,-3.4425083686063433e-7,-3.4425083686063433e-7,-3.4425083686063433e-7,-3.4425083686063433e-7,-3.4425083686063433e-7,-3.4425083686063433e-7],[-3.4425083686063433e-7,-3.4425083686063433e-7,-3.4425083686063433e-7,-3.4425083686063433e-7,-3.4425083686063433e-7,-3.4425083686063433e-7,-3.4425083686063433e-7,-3.4425083686063433e-7,-3.4425083686063433e-7,-3.4425083686063433e-7,-3.4425083686063433e-7,-3.4425083686063433e-7,-0.07701256260109221,-0.6434392565304273,-1.552539019967964,-2.2588907803535214,-4.6209657054000175,-5.947106122646615,-5.947106122646615,-5.504285867132647,-4.533632609312176,-4.119025226139148,-1.7796414838618209,-0.1262994316076557],[-3.4425083686063433e-7,-3.4425083686063433e-7,-3.4425083686063433e-7,-3.4425083686063433e-7,-3.4425083686063433e-7,-3.4425083686063433e-7,-3.4425083686063433e-7,-3.4425083686063433e-7,-3.4425083686063433e-7,-3.4425083686063433e-7,-0.6738572548155711,-1.4954973540179197,-3.0792773605163553,-13.37550253950626,-19.027186511213692,-31.673845769187047,-54.327179060157775,-63.86459675300589,-63.86459675300589,-62.18703029181421,-55.79238168308539,-47.81130753953193,-34.13716277136289,-10.311593604635718],[-3.4425083686063433e-7,-3.4425083686063433e-7,-3.4425083686063433e-7,-3.4425083686063433e-7,-3.4425083686063433e-7,-3.4425083686063433e-7,-3.4425083686063433e-7,-3.4425083686063433e-7,-3.4425083686063433e-7,-0.9048939098663371,-6.575477310971549,-13.57683480786288,-20.28456880973979,-46.96344173473911,-52.23059327360836,-64.673389436027,-92.59737420593459,-101.9009207741339,-100.48753484324716,-100.23994656150985,-94.14913188441314,-86.25359118810636,-73.92447066247048,-27.69951366638467],[-3.4425083686063433e-7,-3.4425083686063433e-7,-3.4425083686063433e-7,-3.4425083686063433e-7,-3.4425083686063433e-7,-3.4425083686063433e-7,-3.4425083686063433e-7,-3.4425083686063433e-7,-2.079330239707731,-8.99879910823223,-16.282790945706214,-23.874903674283104,-54.58522602189711,-100.98284806040324,-96.06577727238096,-105.13376090629126,-129.3679914099986,-121.5670757296516,-114.04908114020554,-106.8547185156586,-86.1692063670254,-84.36641650919348,-82.95755925032834,-30.200015121273417],[-3.4425083686063433e-7,-3.4425083686063433e-7,-3.4425083686063433e-7,-3.4425083686063433e-7,-3.4425083686063433e-7,-3.4425083686063433e-7,-3.4425083686063433e-7,-2.1178363488828587,-8.792801959256005,-15.832284370229708,-41.67369353451093,-67.85833913843163,-106.01179732146731,-163.81915917968587,-150.03180644959664,-153.10200427746375,-166.64902861320292,-160.10099165379455,-153.85397686617227,-144.34329218185738,-94.95944071807094,-75.76431807529897,-87.45066036049843,-32.63670229914618],[-3.4425083686063433e-7,-3.4425083686063433e-7,-3.4425083686063433e-7,-3.4425083686063433e-7,-3.4425083686063433e-7,-3.4425083686063433e-7,-1.3477141653803055,-7.144274336514434,-18.209229730977412,-41.4702814177493,-97.84207215530022,-131.11467705953194,-177.67021898151958,-189.51034963564462,-171.5551091489184,-167.4007147908891,-162.78807957378305,-135.52585977294206,-129.98203155304992,-134.92051863588082,-80.99465603105087,-45.233617513474,-48.83879600211726,-28.875952029085724],[-3.4425083686063433e-7,-3.4425083686063433e-7,-3.4425083686063433e-7,-3.4425083686063433e-7,-3.4425083686063433e-7,-0.5390858727026243,-4.834952248292897,-16.82236906810538,-43.50803487258285,-94.10956898038305,-151.1296881530384,-189.74617796952793,-214.56980781496716,-173.6644993540923,-113.77318868645158,-94.29154490419548,-87.75170423003881,-62.312064722268744,-49.654298649727096,-55.17344568730562,-37.329093892214544,-15.505589985435924,-5.365837569636734,-7.654815886812733],[-3.4425083686063433e-7,-3.4425083686063433e-7,-3.4425083686063433e-7,-3.4425083686063433e-7,-3.4425083686063433e-7,-1.2913860376561508,-9.941042859922106,-38.392738576775876,-80.62717248017952,-145.67453176082324,-204.16794449346202,-211.66846685288155,-201.50002596658405,-121.66190548407859,-59.700857286074466,-26.991867550008724,-14.735646826653445,-8.0421849487765,-5.296021924707476,-4.5858992244614,-5.815215141592444,-3.8227208572282505,0.7934649120223606,-0.12156499689680683],[-3.4425083686063433e-7,-3.4425083686063433e-7,-3.4425083686063433e-7,-3.4425083686063433e-7,-3.4425083686063433e-7,-1.168745314028975,-17.945675115314515,-54.734188404628405,-91.70521244881586,-160.12150106766043,-191.63245176358478,-205.29135700096464,-189.66998866096358,-122.8336132371527,-59.73119087284331,-38.87735523242135,-24.239432076229228,-6.251805168413369,-3.4425083686063433e-7,-3.4425083686063433e-7,-3.4425083686063433e-7,-3.4425083686063433e-7,-3.4425083686063433e-7,-3.4425083686063433e-7],[-3.4425083686063433e-7,-3.4425083686063433e-7,-3.4425083686063433e-7,-3.4425083686063433e-7,-3.4425083686063433e-7,-6.884724146150396,-42.89610324334607,-70.66814657319281,-90.59238809166598,-132.92788813734194,-135.65526278791432,-129.33566030351435,-122.91321625796941,-96.14301438131974,-80.9006233652597,-85.0798678203195,-68.75356165896173,-37.162494480555175,-9.01599119334746,-0.1894489752860651,-3.4425083686063433e-7,-3.4425083686063433e-7,-3.4425083686063433e-7,-3.4425083686063433e-7],[-0.03850645342596453,-0.5046238189724885,-0.920623800292277,-0.519951779132506,-2.336227455765888,-11.304644781585045,-46.81472909810867,-78.33621428702031,-101.66178850365209,-119.78545022807947,-124.5254015380353,-103.64245131163456,-89.42905362220282,-81.9468325043308,-77.87390722679376,-95.94362257651485,-102.37755617921376,-77.79507975722188,-33.452801386287646,-4.76354258133776,-3.4425083686063433e-7,-3.4425083686063433e-7,-3.4425083686063433e-7,-3.4425083686063433e-7],[-0.5694428896286915,-5.786946913874912,-11.085896817647297,-9.31691897675965,-29.4125980993159,-26.537395893292167,-24.735447163588265,-52.809455666931996,-78.9147416951965,-84.63480130354574,-92.3882896185564,-105.40823147272916,-104.2369509756282,-83.28528346959847,-87.55732552428319,-100.13167613886506,-135.97067181328475,-124.30379137978606,-63.68597938451413,-15.62960140943425,-3.4425083686063433e-7,-3.4425083686063433e-7,-3.4425083686063433e-7,-3.4425083686063433e-7],[-2.9804672346405017,-10.573590265083988,-8.975953559031542,-24.013221365026432,-62.49439373500211,-44.619337214183545,-9.947326496469788,-10.553481553135805,-23.441049851131567,-34.3644643116897,-38.053490281679885,-59.50062196705564,-83.63053377300929,-97.1747684879889,-90.94744251377861,-90.06542480367368,-134.715609411203,-159.4592236726032,-87.79094796966429,-18.380551012183894,-3.4425083686063433e-7,-3.4425083686063433e-7,-3.4425083686063433e-7,-3.4425083686063433e-7],[-5.977280198364023,-26.838762953956504,-23.28080697557631,-49.550741360666414,-111.90478317471585,-78.74927003244026,-23.441768082359726,-3.1574775281713077,-3.4425083686063433e-7,-3.4425083686063433e-7,-0.30792522069194544,-11.598020423060523,-44.45551889705616,-98.26740862472616,-124.76402101912541,-114.41182642104748,-140.1743338659701,-144.07500540052493,-90.11115661191393,-18.033571833301984,-3.4425083686063433e-7,-3.4425083686063433e-7,-3.4425083686063433e-7,-3.4425083686063433e-7],[-11.572320072327306,-48.47922347494186,-36.924319197710396,-65.42625285828612,-140.67464861447283,-134.57417892509497,-75.26514428372947,-44.22590887797102,-27.919730943189897,-19.19688598384038,-19.7599574022384,-26.534039123459053,-41.059810283745854,-97.78024512750248,-149.1265002355115,-162.53599460547824,-142.57533706847317,-115.8455308319142,-59.42538907189959,-18.666676258602763,-3.4425083686063433e-7,-3.4425083686063433e-7,-3.4425083686063433e-7,-3.4425083686063433e-7],[-31.853788159086655,-66.8940837686984,-45.340659597268775,-76.14513525125744,-113.79342857465778,-137.32947682318522,-115.06412230192421,-96.53240297657433,-82.30083827938162,-73.02547029960826,-70.58875266799397,-79.60806701186246,-101.18136416008038,-133.87842741816914,-175.533477565717,-171.77857473599568,-128.3946806262589,-77.2150496192206,-30.06634621177758,-5.194027157283125,-3.4425083686063433e-7,-3.4425083686063433e-7,-3.4425083686063433e-7,-3.4425083686063433e-7],[-39.5262314321945,-75.92230424022642,-76.57314038482491,-65.6007779454891,-88.54062118467796,-107.57863687743576,-113.97015232749136,-110.65241795718987,-98.88092264629132,-91.07250371694565,-96.2334927721455,-120.61297221378683,-137.70529657701573,-159.23777880177713,-157.5455972277105,-140.26273940671956,-88.37884850878149,-34.667573074291965,-8.767154489565195,-0.08273184396823309,-3.4425083686063433e-7,-3.4425083686063433e-7,-3.4425083686063433e-7,-3.4425083686063433e-7],[-18.319998489015155,-56.54900452830278,-89.46256608069783,-87.61238360065492,-85.84290953299593,-96.03654900398308,-109.71797324853028,-119.81141660396909,-115.70269216462293,-104.51613541245447,-116.43955518372002,-137.59341201914623,-149.7686402342513,-143.5203740885259,-123.57080874140955,-89.76973915385486,-39.534384602918344,-8.29726249354903,-0.15026776210488307,-3.4425083686063433e-7,-3.4425083686063433e-7,-3.4425083686063433e-7,-3.4425083686063433e-7,-3.4425083686063433e-7],[-2.751823183713425,-17.50471510952503,-50.43551993812494,-79.65709183907444,-90.09011909850159,-97.59604742701825,-111.32052198076532,-127.02020863806837,-130.6608171489282,-130.84615623432563,-135.87802738197013,-138.1197196128749,-131.28355536138665,-106.04908664460643,-69.32542565833167,-38.43540405073512,-13.820073076490184,-0.15026776210488307,-3.4425083686063433e-7,-3.4425083686063433e-7,-3.4425083686063433e-7,-3.4425083686063433e-7,-3.4425083686063433e-7,-3.4425083686063433e-7],[-3.4425083686063433e-7,-1.6260774766605481,-10.382840828184259,-30.11097862904273,-56.38711121650752,-65.20422096486801,-68.83614912512606,-80.80626781353992,-90.54351966706376,-90.54351966706376,-89.99963443422394,-75.4479744541838,-60.01047082216512,-45.51149980357527,-23.201836577727857,-1.934335928445209,-0.2431296495427768,-3.4425083686063433e-7,-3.4425083686063433e-7,-3.4425083686063433e-7,-3.4425083686063433e-7,-3.4425083686063433e-7,-3.4425083686063433e-7,-3.4425083686063433e-7],[-3.4425083686063433e-7,-3.4425083686063433e-7,-0.2501660569292539,-2.7946052904559058,-10.14245647428112,-18.551605453689724,-23.55704942647367,-22.507046427665525,-22.670821029146904,-22.670821029146904,-22.462349601914887,-17.2218612130702,-8.960992135698028,-0.3428827312919761,0.12096516159624329,-0.05402907876015684,-3.4425083686063433e-7,-3.4425083686063433e-7,-3.4425083686063433e-7,-3.4425083686063433e-7,-3.4425083686063433e-7,-3.4425083686063433e-7,-3.4425083686063433e-7,-3.4425083686063433e-7],[-3.4425083686063433e-7,-3.4425083686063433e-7,-3.4425083686063433e-7,-3.4425083686063433e-7,-3.4425083686063433e-7,-3.4425083686063433e-7,-3.4425083686063433e-7,-3.4425083686063433e-7,-3.4425083686063433e-7,-3.4425083686063433e-7,-3.4425083686063433e-7,-3.4425083686063433e-7,-3.4425083686063433e-7,-3.4425083686063433e-7,-3.4425083686063433e-7,-3.4425083686063433e-7,-3.4425083686063433e-7,-3.4425083686063433e-7,-3.4425083686063433e-7,-3.4425083686063433e-7,-3.4425083686063433e-7,-3.4425083686063433e-7,-3.4425083686063433e-7,-3.4425083686063433e-7],[-3.4425083686063433e-7,-3.4425083686063433e-7,-3.4425083686063433e-7,-3.4425083686063433e-7,-3.4425083686063433e-7,-3.4425083686063433e-7,-3.4425083686063433e-7,-3.4425083686063433e-7,-3.4425083686063433e-7,-3.4425083686063433e-7,-3.4425083686063433e-7,-3.4425083686063433e-7,-3.4425083686063433e-7,-3.4425083686063433e-7,-3.4425083686063433e-7,-3.4425083686063433e-7,-3.4425083686063433e-7,-3.4425083686063433e-7,-3.4425083686063433e-7,-3.4425083686063433e-7,-3.4425083686063433e-7,-3.4425083686063433e-7,-3.4425083686063433e-7,-3.4425083686063433e-7]],"label":""}],[{"cols":24,"rows":24,"values":[[0.0005907122190882542,0.0005907122190882542,0.0005907122190882542,0.0005907122190882542,0.0005907122190882542,0.0005907122190882542,0.0005907122190882542,0.0005907122190882542,0.0005907122190882542,0.0005907122190882542,0.0005907122190882542,0.0005907122190882542,0.0005907122190882542,0.0005907122190882542,0.0005907122190882542,0.0005907122190882542,0.0005907122190882542,0.0005907122190882542,0.0005907122190882542,0.0005907122190882542,0.0005907122190882542,0.0005907122190882542,0.0005907122190882542,0.0005907122190882542],[0.0005907122190882542,0.0005907122190882542,0.0005907122190882542,0.0005907122190882542,0.0005907122190882542,0.0005907122190882542,0.0005907122190882542,0.0005907122190882542,0.0005907122190882542,0.0005907122190882542,0.0005907122190882542,0.0005907122190882542,-0.18111790911131323,-1.0698257569568164,-1.1670110796097235,-3.6058946383275443,-4.513070102559164,-5.69632826723044,-5.69632826723044,-4.651503694580631,-4.935908265215282,-2.4396147402063972,-1.4729826225491143,-0.11210054155912842],[0.0005907122190882542,0.0005907122190882542,0.0005907122190882542,0.0005907122190882542,0.0005907122190882542,0.0005907122190882542,0.0005907122190882542,0.0005907122190882542,0.0005907122190882542,0.0005907122190882542,-1.5893597244219246,0.38992821460585214,-9.705369492994079,-12.425325544002295,-25.65124606172238,-42.55288312440267,-56.90097565839764,-66.5527852353601,-66.5527852353601,-61.22902232764061,-54.34792592503252,-46.5823344314712,-22.727096666573253,-9.30876140378885],[0.0005907122190882542,0.0005907122190882542,0.0005907122190882542,0.0005907122190882542,0.0005907122190882542,0.0005907122190882542,0.0005907122190882542,0.0005907122190882542,0.0005907122190882542,-2.1344855884131286,-12.330941346066504,-10.847705743189158,-44.60173192158379,-62.323757339764775,-87.05309186663328,-99.11135135604273,-135.3370569880598,-148.41333094259943,-149.77999362104904,-140.02397976064847,-115.06553088772552,-113.08670431983515,-72.94269117515854,-33.379712515247576],[0.0005907122190882542,0.0005907122190882542,0.0005907122190882542,0.0005907122190882542,0.0005907122190882542,0.0005907122190882542,0.0005907122190882542,0.0005907122190882542,-4.905542063701752,-11.932801504594867,-35.736575429603015,-56.98796324341157,-86.22517141879916,-135.2534765653093,-159.483111579695,-153.18210890708414,-154.49906590985603,-141.9096827101225,-137.38689616854066,-126.7187879264354,-86.91059295677628,-66.9613191271394,-65.89810234526993,-33.3212864408235],[0.0005907122190882542,0.0005907122190882542,0.0005907122190882542,0.0005907122190882542,0.0005907122190882542,0.0005907122190882542,0.0005907122190882542,-4.996396374366952,-14.844635188787793,-39.68111772062436,-80.44456139638068,-108.71576502653198,-145.1612003156772,-174.12141367266543,-171.42304418572246,-173.8848500724763,-177.5209635809632,-149.62852356370027,-135.1832390315765,-135.58003985224826,-89.30908922912,-38.183210159790434,-30.574777897087802,-10.473574068153253],[0.0005907122190882542,0.0005907122190882542,0.0005907122190882542,0.0005907122190882542,0.0005907122190882542,0.0005907122190882542,-3.1793101610629373,-15.551350837204522,-39.37346662843265,-85.25892152630799,-121.71354218610715,-180.294687151876,-189.7109474431065,-208.64998427207684,-174.91821507351978,-152.33288675782342,-146.97156193374798,-139.1992196096568,-132.5849640952361,-128.21286246849886,-95.01154419263702,-47.267190824788806,-30.039005865038057,-9.898663302887723],[0.0005907122190882542,0.0005907122190882542,0.0005907122190882542,0.0005907122190882542,0.0005907122190882542,-1.271369637093722,-12.429146725195414,-33.80743348681381,-81.2921506710752,-130.1670592146713,-204.46201970955073,-224.81250441185466,-198.07552884880076,-162.92272290196473,-115.28869425706336,-95.19660088648327,-85.26369706675224,-71.25729550941251,-59.897540176356245,-62.85344173855586,-41.19015475868335,-13.42067407772661,-12.854274806237697,-9.722430705602887],[0.0005907122190882542,0.0005907122190882542,0.0005907122190882542,0.0005907122190882542,0.0005907122190882542,-4.708852900076723,-26.473875117125747,-61.37459948066213,-129.68227673024217,-209.93683459994273,-243.73011598082962,-216.3985168666507,-177.42998992962913,-110.12277595947886,-47.15384345215204,-22.31653195514065,-21.14225744947012,-11.697125851749618,-5.535222294402882,-11.679780683478793,-7.900751410511919,0.27721594782016423,-1.014170202530713,-2.3619907946195426],[0.0005907122190882542,0.0005907122190882542,0.0005907122190882542,0.0005907122190882542,0.0005907122190882542,-5.690666730272304,-35.92538467777182,-88.29169885431048,-157.7219091880127,-229.75694523176966,-242.84250257174716,-195.60834710912766,-163.15265487874058,-110.45500359790249,-64.58746763374205,-34.87527129435868,-17.564837367595434,-5.577626349802637,0.0005907122190882542,0.0005907122190882542,0.0005907122190882542,0.0005907122190882542,0.0005907122190882542,0.0005907122190882542],[0.0005907122190882542,0.0005907122190882542,0.0005907122190882542,0.0005907122190882542,0.0005907122190882542,-6.099302218601612,-41.698811203039135,-109.2117234860913,-154.0278919994434,-177.18710874249604,-157.93858013330464,-133.40955817676382,-118.28468331373999,-120.60954050348704,-105.71534808736642,-105.19834130461842,-77.78621481344418,-30.944213857104092,-7.872504792288603,-0.1684461684482368,0.0005907122190882542,0.0005907122190882542,0.0005907122190882542,0.0005907122190882542],[-0.09026359844611248,-0.9661754980285675,0.13962749154256043,-2.48331343317904,-0.8263598295045617,-6.818583845176351,-44.64335449928905,-104.70223999701564,-138.81901590552803,-144.4265808515602,-124.16921701985984,-100.08034104704774,-87.12973166435786,-66.99902094827166,-66.9511014279463,-93.00774243957001,-105.2226866997607,-79.09369424678931,-33.404911293980554,-4.412853704088957,0.0005907122190882542,0.0005907122190882542,0.0005907122190882542,0.0005907122190882542],[-1.4617426101172073,-11.773119434650686,-2.9860819953047364,-27.280982873057233,-19.458672225768144,-25.457568248840555,-35.933901529026166,-57.714702611617035,-80.17974640338522,-105.91191212996938,-114.2492362294065,-113.19884509294097,-125.56787218403703,-139.34171764589078,-112.79016789513784,-92.77601436874616,-94.56788887089085,-107.12731853805579,-58.76999347450638,-17.72543657097713,0.0005907122190882542,0.0005907122190882542,0.0005907122190882542,0.0005907122190882542],[-8.712905286832525,-23.439570534487874,-30.228355236561654,-39.08237063300838,-59.85740354940789,-52.774467846714195,-15.314991833144502,-21.230425573248535,-38.17122141640305,-43.28501276534864,-44.538611141601386,-56.32388291627317,-95.72334104645621,-142.03958034325117,-163.94268086922023,-141.095484012566,-131.726476148477,-110.18722653573744,-69.66473978561694,-21.81503171407077,0.0005907122190882542,0.0005907122190882542,0.0005907122190882542,0.0005907122190882542],[-21.38348429349057,-45.05903775995199,-66.71516509113422,-61.41415804334333,-96.48551366251623,-61.23075917593885,-18.131595817234963,-2.8166906322363285,0.0005907122190882542,0.0005907122190882542,-0.7112986371439649,-27.918537401040737,-61.977102492234614,-127.30044382629812,-174.20843515020977,-179.98958395049362,-150.10083995388902,-113.75680123321769,-54.54138472044461,-6.4880182208545,0.0005907122190882542,0.0005907122190882542,0.0005907122190882542,0.0005907122190882542],[-27.365433989556543,-72.30980232186967,-90.28175050477519,-111.09268346993348,-134.14170266104307,-114.05822969377242,-75.55835044212304,-39.21654863467338,-24.3937571681928,-18.268435887557672,-22.462085117886,-33.28418410123767,-75.53820855962091,-132.46202560695673,-202.92129935561877,-194.5877232503095,-147.55330691491758,-89.2049987268802,-33.85710858792756,-5.322401216594038,0.0005907122190882542,0.0005907122190882542,0.0005907122190882542,0.0005907122190882542],[-28.799807211774127,-102.10536311381398,-124.82823198085643,-98.33811486927138,-112.1047482503715,-134.58557776046706,-128.583678659254,-120.27562376430112,-101.99371485229383,-87.08859222590775,-90.10831581682898,-110.12325255439562,-134.67725899973553,-183.53941649298807,-218.10721821138586,-183.19761217731124,-107.31219950182286,-42.36120184232612,-15.8966597718485,-6.315218158547809,0.0005907122190882542,0.0005907122190882542,0.0005907122190882542,0.0005907122190882542],[-28.52424882617911,-99.22878502644532,-124.96805942532944,-118.05920630344701,-109.53981119825256,-109.25597004328279,-121.00763775550446,-128.00620365938613,-132.7481992995578,-133.04834372848566,-141.51092544410264,-155.60566831686847,-188.22015338746036,-198.14326669809006,-186.81176112057682,-125.56597512883975,-51.86408071556543,-18.169629030274667,-9.69536006506168,-1.6072772577127579,0.0005907122190882542,0.0005907122190882542,0.0005907122190882542,0.0005907122190882542],[-26.740315227030187,-64.11599053533293,-95.60386222138351,-113.89876740214825,-126.50165287039516,-122.66450026994184,-111.90212247916847,-111.06136588385458,-111.26646614784555,-107.50279447114893,-111.53170061715126,-139.83534137569953,-165.24918199777318,-157.6068135457939,-99.78100945747974,-43.325153751982704,-17.565546232300772,-9.693992465910354,-2.919822539289775,0.0005907122190882542,0.0005907122190882542,0.0005907122190882542,0.0005907122190882542,0.0005907122190882542],[-6.331096004798684,-28.015204128887934,-53.66691406673679,-82.52813926341344,-113.0616348261742,-126.65409768012073,-123.8962630010366,-123.74543672516882,-121.90799721639178,-118.89013457814934,-129.63113277817337,-136.5266517676531,-125.48923349503994,-90.68472012856381,-45.19088272936845,-21.88630929101671,-10.812423988944277,-2.919822539289775,0.0005907122190882542,0.0005907122190882542,0.0005907122190882542,0.0005907122190882542,0.0005907122190882542,0.0005907122190882542],[0.0005907122190882542,-3.7408605296550492,-20.624560065295935,-41.36223789206248,-57.133538870713664,-75.78914857949528,-92.64255862192506,-102.59891240306028,-104.51354759263239,-104.51354759263239,-104.4296712138407,-98.70144591200922,-70.83990903103629,-33.8781859686991,-12.248024753055752,-8.665458007983077,-4.724572301458174,0.0005907122190882542,0.0005907122190882542,0.0005907122190882542,0.0005907122190882542,0.0005907122190882542,0.0005907122190882542,0.0005907122190882542],[0.0005907122190882542,0.0005907122190882542,-0.5750171711461638,-6.1428059427188755,-19.666888390100734,-27.03487331990169,-26.416622742355152,-28.152428812502734,-31.335351120327,-31.335351120327,-30.85567788418929,-19.03674447368431,-6.424252197079657,-4.844861347289223,-4.953173646413091,-1.0494455130425255,0.0005907122190882542,0.0005907122190882542,0.0005907122190882542,0.0005907122190882542,0.0005907122190882542,0.0005907122190882542,0.0005907122190882542,0.0005907122190882542],[0.0005907122190882542,0.0005907122190882542,0.0005907122190882542,0.0005907122190882542,0.0005907122190882542,0.0005907122190882542,0.0005907122190882542,0.0005907122190882542,0.0005907122190882542,0.0005907122190882542,0.0005907122190882542,0.0005907122190882542,0.0005907122190882542,0.0005907122190882542,0.0005907122190882542,0.0005907122190882542,0.0005907122190882542,0.0005907122190882542,0.0005907122190882542,0.0005907122190882542,0.0005907122190882542,0.0005907122190882542,0.0005907122190882542,0.0005907122190882542],[0.0005907122190882542,0.0005907122190882542,0.0005907122190882542,0.0005907122190882542,0.0005907122190882542,0.0005907122190882542,0.0005907122190882542,0.0005907122190882542,0.0005907122190882542,0.0005907122190882542,0.0005907122190882542,0.0005907122190882542,0.0005907122190882542,0.0005907122190882542,