{"num_of_inputs":784,"layers":[{"num_of_inputs":784,"num_of_outputs":100,"config":{"0":"s","1":"i","2":"g","3":"m","4":"o","5":"i","6":"d","type":"dense","time_steps":2,"biases_start":"default","weights_start":"default","activation_fn":"sigmoid","default_activation_fn":"sigmoid","learning_rate":0.1,"output_layer":false,"sequence_size":10,"color_depth":"rgb","kernel_size":3,"step_size":1,"feature_maps":1,"conv_output_layer":false},"training":false,"sequence_training":false,"weight_array":[[{"cols":784,"rows":100,"values":[[0.08902076557969496,0.2993712286882978,0.36293437454463173,0.1696838096473927,0.07111572186143766,-0.10668737677396223,-0.09554285904886073,0.3404520175498903,-0.32270559248941777,0.048365540426544285,-0.013894476190655425,0.07035875344794762,-0.5529187453109747,0.4504542108882822,0.15064199177093052,-0.26565933159914246,0.5463709685747515,-0.10582069025500651,0.1922813661027506,-0.08495226724408544,-0.06731141198148549,-0.4263815566496134,-0.2763418610726285,-0.015923528120957542,0.19246818295006418,-0.3123763917660398,0.14865697614278517,0.4076822393511065,-0.3533991489708519,-0.18681029520265668,-0.3968132440796974,0.5183329484566115,0.6287973962660103,-0.20786247210938247,0.13875215118735115,0.0888409271186684,-0.06876238755616909,-0.052062898567305435,-0.13712353803936692,-0.2146244703320925,0.09407851136935179,-0.10392737115073862,1.1856033339428222,1.0526175463537453,1.1978301447612192,0.11501847001428987,0.007731927820226114,-0.37925439844291725,0.15653092339918628,-0.15873100649149954,0.22476569151177506,-0.37834902418802296,0.08498210243175608,0.2468997452878755,0.03596784820101562,0.15843861061586162,-0.07737155188464251,0.18191415961794333,-0.09126828460638037,-0.3052165948843805,-0.026269818757102,0.26635601915352214,-0.023409475915176586,0.41981668252443954,-0.03982770469330628,-0.2455219592803114,-0.036862280685335605,-0.3397709278519458,-0.2356848634368289,-0.21951975329521184,0.631999105279991,0.22651358379887387,-0.7571045687360441,-1.0473206094389973,-0.8614833427807614,-0.7437181146445941,-0.27884772772603506,-0.18218221205104745,-0.00048554131491145307,-0.07174716263687517,0.2568604563134712,0.2036640621588331,0.008564275598372029,0.383254546242343,0.21842715296290593,-0.14756489105927106,-0.12968609730533598,-0.197963478387972,-0.2808486896996826,0.1462260301139499,0.106293654350969,0.07766033303022676,-0.41663571512861264,-1.350202975177228,-1.979773809164422,-4.4175659311693805,-2.008407128237282,-12.354906061026291,-15.192918354224556,-6.769114454929093,-14.984232412141008,-7.16514269672871,-13.68320264763616,-1.0973507036948196,0.21089021234244262,-1.0519600533577311,-0.7106327450040033,-0.09010796477030297,-0.1312451695419785,0.19155413350107944,0.148093780569838,0.05039810622604779,-0.07778398190533231,0.2507142479307821,-0.16343727880957126,0.28452375276064745,0.0018767998489785144,0.09391824510342188,0.819439142200845,0.9753480264486237,-4.455565291947532,-6.3446112138267186,-7.17182439130934,-9.988283074455547,-12.557832698900631,-14.86856220930833,-3.278608319932369,2.708599966913058,-6.469150608251826,5.282291972884248,19.437620649640134,9.817999103761096,6.205742075199799,21.616429768643247,14.329531598105195,3.3319247641848166,2.654751326277617,0.20451814898438683,-0.052047496884933174,0.04208824458195526,-0.037930079098489555,0.23748701675142936,0.37471166376217596,-0.031559686002019346,1.0956433745172065,1.1460176339029702,2.4847123794095083,-6.386057503229845,-0.7977010164837177,-3.314331229239501,-6.594995243278976,-8.63646711600536,-4.038916543649571,-11.7509449977318,-24.402934188684775,2.3602079256802275,11.857551299403399,25.877832572758305,19.208331165194963,18.328918478658764,-2.5612304933857226,11.727719303465284,9.507834794735698,1.1895257427013555,-0.6414363915705108,0.38848270762160536,-0.01540497192966988,0.09823271567034104,-0.07553171912678303,-0.29185403692851697,-0.16004285812091176,-0.30152147643172017,0.5388106247460722,0.9514118547817864,-1.0325152250050387,-1.8133124466955854,-9.356797755871959,-11.254699836546594,-11.520044967414547,-17.53403928415631,-22.40506053777068,-41.995255788373115,-23.419620669883777,-17.480930022685698,6.013824232515898,16.05766340946109,7.295390703111527,15.731334414427296,-3.490110997748669,1.9665255020292354,5.8428948792488855,-3.6658305914710607,-0.26770669393792085,3.2421135181371974,-0.13731856208850618,0.07007209782412029,0.3065825036405614,-0.21064983498682,-0.21517327933749805,0.550404871069848,-0.5289952813752997,2.416530767804802,-1.053476580633834,-3.7284613327038074,-1.2233823010272393,-3.9525166874108897,-19.475128248420436,-17.954006683935656,-26.381564566302245,-26.979008075818253,-8.328914241046503,9.959301240345141,17.81977051858693,8.643879160271759,18.712903985009664,14.903596120976635,-0.07430277063117847,-10.851631867162808,-20.95926209166223,-2.8630203435170145,-12.254043984482562,-1.555373154118132,0.09447441572480493,-0.11018204519348891,0.12602179417249282,-0.33145820195280773,-0.023243836242105364,0.26124350798052204,0.4605544720913995,-2.7815217501743215,-5.405187851864397,-2.9293800584034213,-8.442388403836837,-4.841223498122743,-9.222911835682662,-14.443482781560649,-37.044368004464275,-35.28992649562978,-18.083664361387832,7.970724444802442,17.672005803181175,-12.925821864121026,-5.545829830165771,13.741895121969783,-25.10466263179345,-20.623654420062692,-17.65900251161317,-18.554031405062485,-26.704065044474554,-3.4880819980586915,0.4602639726988681,-0.03443738868763541,0.25012380303343973,0.0160472756196598,0.11461902768937124,0.5594572215777177,0.9985287996235407,-0.14622016695031148,-1.7236555498383033,-4.53502642915083,-10.855477175904761,0.7950190062961227,-15.394556867160182,-33.51708885084868,-40.54549708393092,-26.621801810716807,18.361941729904604,11.53218363667148,-5.336668095007661,1.1420032894867385,12.667934610084943,-2.7593078893355782,-55.27978156323489,-22.02033342545666,-26.096097094562143,-14.90086222920339,-32.781688063578784,-3.3012362360586893,-0.24832679839901164,-0.2195335276462033,0.13833231682881808,-0.22534408052260424,0.052799938070910775,0.41754053954798775,0.01581663311453087,-0.05585332733336682,1.1173024489073673,-6.676955319913954,-8.154334061554975,-3.1576712384531334,-4.24924833685921,-14.030765694641639,-44.029308830716275,-14.442268931661836,7.065534972483521,12.609000959525375,-7.384571168287421,20.116037947119867,29.2630284241657,21.491752512006386,-27.702180544282818,-3.1124908705188834,-19.404841168760502,-3.2264118258692944,-4.464041316655767,-1.1522580400428402,-0.24475130114533367,-0.026334973895432864,0.17689029480296659,0.1393005202511716,0.04815844162147517,0.5783695200348312,-1.5579411156646157,0.6152809646394334,-3.6884678289532205,-0.2365869572834695,-5.994386097326939,-1.9334109433679714,-9.671046678510587,-16.407415412741578,-50.29325283421762,13.551951565629821,8.134165893617329,-12.641273796231298,3.2556125589492497,12.792019875830533,-0.7504981584009849,-10.025012496462418,-23.38717245394124,-15.873680975812626,-7.541461449921388,-6.731185186203366,-4.86669001369775,-0.6854291529797749,-0.19557203327690328,0.532317503416784,-0.057120692032344475,0.12724329111272478,-0.15035195753562142,0.27929401376959734,1.2194730605225388,1.4423521294309527,0.7083840960718607,-0.65156002108423,-0.1641609730268662,-0.582837573400854,-17.628823636304432,-25.10713008056022,-11.298990880733134,16.77727099723474,10.97007304345624,-16.607234364595232,34.650025111591226,30.87422202933211,26.743863386101236,-10.303763047871097,-13.432493833769515,-11.264277590747675,3.3646965291031354,-2.0536297096910063,-0.20319536453087006,-0.03900040860712395,0.35852789792447315,0.25690184798762744,-0.33133735439934264,0.2198101275749839,0.4690559364541969,0.30049040629500556,-0.3849060619043567,-0.835653764171498,0.5737515311824304,1.6049432977089055,-2.8316524482664613,-10.506104542736551,-8.089606760074131,-20.125580118006816,-9.270663422898537,10.871148026582086,6.970643665015044,2.652343354649864,8.586387434737443,20.55467696883781,-16.3217237048898,-10.373298814408223,4.882675252246283,-13.502340856234603,-2.028891487964728,-1.8662440918707346,-0.38870294911619696,-0.02215192347597212,-0.4159775953742958,0.11656346292756727,-0.015773549411775223,0.1609422119951725,0.48404714103720714,0.19897485994064829,-0.08427366924775956,-1.7681628594787981,-16.201176770372857,-1.652647255946784,-12.976418323059379,-11.118857096643982,-27.666947577585965,-14.737409213813738,-5.75969590642843,17.66771444209698,10.565642303961479,-1.0242723977122103,11.170018766284356,2.8530828778418234,-29.525794385484325,-17.287142970053416,-1.3220401319454889,-10.455060108071796,-1.6944716256415027,-1.133004677592568,-0.12097534104363038,1.5964948512963295,2.8321633812654183,-0.20627235043645964,-0.14772600444295425,0.027355937213402126,-0.026413750369214173,-0.10193872847702705,0.8907068183305384,-6.384097534085756,-11.703764272232997,-14.937008937859934,-9.475272122706812,-18.30465659011677,10.26957545960713,-16.622266904334484,18.752158356365378,0.27517910592930117,11.611529637441535,2.552109074263869,15.502618236954326,-4.254126138741635,-27.689947894403236,-1.959135736995611,-1.3431258067535885,-7.959819903259278,-0.2151434102945231,1.3534239062034201,-0.12926814961240518,1.3649537738479616,0.2158094951771802,-0.12289638311085388,-0.08728708923201789,-0.06002865426217732,-0.6302576301646226,-3.1393009528807188,0.8972524633156429,-10.902861218431147,-14.156017605299988,-16.46896825066791,-17.033250794858706,-14.98291615504974,-16.584856832154763,14.291354098200777,14.201191722924753,23.97513510455166,-8.16152284588918,16.638291182649816,-5.235826484223576,-26.695046971120092,-18.87720367738368,-2.4981724860524075,2.2165767997508796,-4.237473171130805,4.503087226166022,1.8209866621696802,-0.7713399861807857,0.3952119627683331,0.10846112947535727,0.0653352364948311,-0.1152366419874149,-0.2545181936967579,-0.7960053621179641,-0.5329887742326368,-1.616463308037977,-13.510018138321932,-12.313151984986192,-14.037994050519664,-6.452359299199196,-5.623885104619724,2.4106405511857845,18.273703648978266,15.086488019490652,22.627746745569443,1.2242931373766601,2.6120261859071885,-7.5790150079738225,-28.723018111365768,-21.420468222515204,1.4647282004283197,5.665885121960791,-2.157049199958705,-0.398468167505721,5.7294759676072085,-0.09720894454668119,2.3970149777881296,1.007360254083441,0.19511783911904068,-0.10391348070729656,-0.012903525276705715,-3.5694868182239405,-0.6436407664603343,-2.0084104262237483,-6.433023430005378,-10.311298295554952,-10.862754763045519,-0.7994786365521338,9.431014078349728,5.804691602894282,19.626252475101595,11.398947773318673,14.355862392459185,10.229877229020476,-29.322331614005375,-7.746512794794896,-25.73936711467172,-18.38143622101996,-2.073379620899905,2.8842426319811554,-0.0850991294141392,4.865754465946569,5.670730189732034,2.4146160126245024,-0.07649857041147667,-0.05879413561401904,0.2287801597602175,-0.09292478091683609,0.22012286118797228,-0.20787426262701902,-2.073482510912557,-16.617503460551976,-35.01718948068815,-6.382067913045835,-18.44455968933061,20.740089515950533,-9.561439351544708,-14.633097729914692,16.361706437665987,13.482739328717486,10.85837191283537,-8.820108865356849,-25.73557448433966,-9.097939075802083,-27.771765886434455,-17.56448590472995,-1.812518077080943,-2.8062263574713286,-5.86190704324442,-1.1837364570972047,3.8216961750961103,4.04054682964777,-1.076257039321522,0.17014711903510288,-0.12223388230620921,0.16040582468945652,0.46233693555082034,-0.6960887495589851,-9.0486394071225,-4.117826026761219,-10.582861581532462,-5.5988492820155535,-19.33773776733932,-10.632884223614058,-11.15593894428126,-3.8049985981705348,13.782915831937627,10.336216162474656,-4.0862144270863885,-22.105254343960983,-17.813713273119404,-33.835891050382855,-22.70887218703745,-21.163859031409597,-18.436436127641823,-2.964256294836476,-1.3916960872918518,-1.2833805976701642,0.007684875295193005,1.8313340154691957,-1.030062972697775,-0.2267224122469262,0.24580398748247576,-0.33641734924567746,-0.009062576951198725,-0.5157997996535851,-6.986876140743763,-5.311074902080959,-4.523411993937896,-13.093062421623639,5.589165502876888,-5.102500348753308,-6.25403073906988,12.669575458933565,-6.342882796118752,20.392507306995824,-1.351909020376096,-25.524421420408377,-33.864737521567164,-19.63750768536649,-17.921295855947783,-10.68051518520248,-7.847973823034361,-5.647211197376702,-7.145655399693921,0.7692605368608776,-0.5372781690726347,-0.4962723591445855,-1.1689656696292976,-0.55553459000247,-0.016749489667150952,0.11729995450813578,-0.0985160791494526,-1.0305923826798886,-1.1536162402355878,-8.00310664732672,-0.2215183493308847,-3.7007739311563688,-18.986048302767305,4.417235512006145,6.604886463097495,16.271283805601627,-19.058244495084097,12.523670599165051,-5.047702610204016,-23.110853819152645,-24.071174358426003,-18.20095365120947,-13.211942007927309,-6.99533723906191,-10.067577402389157,-10.313635986197337,0.4464149593916716,-0.39333486685873115,0.8713010152497543,0.16253987397603412,0.0327396269841124,0.3503102641170872,0.3196465128178311,-0.09035788344904638,-0.47008048965495597,-0.20874476687341928,-4.092780244313061,-0.8555680966844761,18.150558268496837,5.9674697310750116,-13.173060520199048,0.905880780076332,6.526708094495184,17.06349705337069,14.013441345021175,24.400258903508018,6.610304575462567,-11.6802956988281,-6.242825311364317,-5.931885269846656,-7.798055717217232,-7.495578675202478,0.20677571461339833,1.1871064661769253,-0.8645106784384349,-0.12792966139640455,1.1502300956119136,2.4004585771494367,-0.40066499587038995,-0.03438748863123159,0.18158835302746024,0.15196072978174013,-0.10129519898707517,-0.11493598434081331,0.21018987459738242,-1.3056963666190378,-2.5397897262774527,-9.944577584320507,-12.087534827183504,-0.4078345503648608,6.251793355481584,9.720423379723384,12.93546015363498,-9.680154896089434,-3.573696881837727,-12.581042493927264,-2.1449050012906494,-11.100954090727697,-1.7443013566456886,-0.756622410358318,1.6708782781021418,0.2105392959102416,1.1488637685360241,0.2954746524124858,0.11865294236586925,-0.20957381774395553,0.226149138832049,0.0991894623499352,-0.1331114214840794,-0.033540223398847546,0.31310665802420923,0.16596925981335675,0.1469770849373841,0.3222948628164972,-1.1476758698664091,-1.593510836826806,-1.0032231772322953,-2.4164237590288566,1.2115381287030547,-1.2173088422782674,1.6480573944625694,-13.795785012780641,-0.28520957633505284,-11.839489109885124,-1.8728794343556536,-2.639611573013935,-0.9782877907193579,-0.8668939931301877,-0.11652310448665926,-0.9217971091576681,-0.08267797181215884,0.032615073530008795,0.17473642813436469,0.20470018953674687,0.31026085383700863,0.2165561154394572,-0.1492427098870086,-0.07288686664390442,0.3207404748139635,0.024401664282885704,0.09021781740556734,0.00477401494822893,-0.2376899017738354,-0.19405185041020742,0.44902851775071356,0.2704982772461973,1.2918729250735717,0.5879811911151162,-0.6793536554131335,-1.689412716546902,-0.8108455257821727,0.4598523555906771,0.09482511420952994,-0.8498293364597695,0.27307451953202144,-1.0158600486346159,0.46692791023260305,-0.5315235610377628,0.28176201404191753,0.01336768496707228,0.10908702573145197,0.21622673497936773,-0.3418932257904752,0.5262487174635186,-0.21127204811757028,0.2224471137860724,-0.18225216403413502,-0.3335309167910765,0.05827985492718357,0.15435153138695912,-0.09559735227790989,0.2026423817345824,-0.4068411508927373,0.4317374004760206,-0.30608633584785133,0.21340276922995974,0.06600126128985623,0.10944049285462605,0.12989086731460264,-0.022471371928790767,0.12692241222355036,-0.27274820332374433,0.07059555747158366,0.374541592880766,0.023064930363262934,-0.2193265548543618,-0.13069919119507928,0.032864486575190255,0.2544945308188534,0.09629757724764065,0.17848466425687037,-0.14872760548290365,-0.17052801123283334],[-0.014132647456313485,-0.03700076802958274,-0.20948661607966712,-0.2874444884821852,0.13839948357014575,0.02571146149258219,-0.08765708297143249,0.1451881822548905,-0.48151302416453046,-0.2529947915926274,-0.33352355088237995,0.23649651207810718,-0.29592089043359127,0.19076508745455598,-0.07411542539305586,0.39967466667869517,-0.012030419380261392,-0.05108335111314033,-0.21132801169991944,-0.17369566067228526,-0.0019442473857633757,0.12108266562207726,-0.355269574445894,-0.2192918567191413,-0.577500827722125,0.09199608140824278,-0.09879097932071801,-0.1330290443344746,-0.02382362608109001,-0.20140678814797064,-0.4978781954027458,-0.39185414106088423,0.18333418333039708,-0.1606852050317047,0.0625065720270215,-0.057559499421063275,0.3607664921056416,0.019329268784916424,-0.14998447818230046,-0.055925842490722084,-0.43597831494978806,-0.4996674752361363,0.5878122525255619,-0.5065968777707663,-0.10065845511186858,-0.1567138121641857,-0.18331242237614015,0.5038056383183176,-0.3124711340433935,0.02287748775335832,-0.44853054259695657,0.1568898654602192,0.18630518516279848,-0.12193051735969429,-0.16852823007213846,0.33670983577105706,-0.008932700164981933,-0.4691032595832816,-0.16511993703850236,0.5046771961676827,-0.0005513893148893429,0.3686964566431078,-0.24358810609116138,0.09682448975635023,0.07774200379539584,1.3561200286762756,0.32636664487527883,0.22336245804426672,0.14260309516940892,-0.12526113178469125,-0.7867029053954089,-0.004396126347876331,0.057471097986420985,0.3571788468245121,0.5525914615477502,0.6443993421011027,0.5735326429085936,0.24159549380563142,0.9787565671606688,0.024584041131951666,-0.262434578091698,-0.14530002303317643,0.48809539145494907,0.080060883549395,0.4734973017634644,0.33351194486837066,-0.3317088682612142,0.3317926545066811,0.3597446246759174,0.22766227998817493,0.38331184663965556,2.167757807980956,1.2762390372474868,2.554428216127281,0.6668284575589555,2.3137449237799284,2.102715304566909,3.878184407965252,1.0101345620590376,1.862432454035295,1.9916371996111837,0.6292750719382697,3.58365257075624,0.8121460511587585,0.9130237409394999,0.17034064595814763,-1.4464096651310727,-0.2359249157926421,0.19062118887635135,0.04383680398325147,0.5575202507912558,0.18841129668416912,0.2702181647938704,0.11119299484730491,0.18281772255389583,-0.007574433216197928,0.04311803267647794,-0.11345151079501124,-0.062422495019336,-0.28210375074046795,5.8181509088309555,-0.47858806537329174,2.0806024546615087,1.081900229088569,0.5992204190536033,-3.79943876849266,-0.812351476114792,-2.885689761900077,-18.3359074664068,0.3536957473290655,-3.085500134546862,-10.94894498769369,-1.4400113640619074,-5.000592191589903,2.5879771221253387,2.3574585054521067,0.8093849027151736,1.1182165299593314,1.5945276835057163,0.8012993991778146,-0.23307874511008198,-0.15578562232299675,-0.1068658372618984,-0.17369704151209545,-0.3768108950654949,-0.2985320334088116,1.510523371995557,-4.998860866173508,0.3415634957428547,-0.9758572095113972,-5.030110157804307,8.488417865373963,4.006893333063105,-2.583219861472732,1.1682125720152048,5.2565093496054445,-5.616441227558779,-3.4714284960035626,-3.2572061441254125,-4.431362380165632,0.1226884124897171,-0.9593448548490119,-1.6476238664947611,-6.156446228568072,3.3300185696485887,1.7506355413229489,0.35276841284508575,0.6652005573006866,0.09349040955084809,0.3048654865446003,0.013089080566173797,-0.299058004979332,-0.6226486320715102,5.2154859365379975,-5.8390807743577025,2.388448685787857,3.7375125710065236,-1.8536435485574574,-0.5325985033771645,3.2085558476303007,7.499059813278441,5.035887243618658,-12.209306872108407,-11.40616102197006,-17.58099108612921,-12.497154405690932,0.4566486929035226,0.7109083439021178,-0.4730884581926514,-1.3868030435163483,5.655426885272546,-2.0856946413773216,6.928058385845085,2.5984013359868072,0.45664424604584775,0.32002376387822157,-0.04145718875231151,-0.23799939604706422,-0.13247811771902507,-2.555585752132713,-5.660060165876143,-0.811343351161608,-4.961950594329956,-11.26318929399221,-7.488695834476092,-12.065337511508485,-17.488480042084873,-12.328529171356811,-1.4726376501465168,4.316938108519948,-20.18108196890492,-20.447372950420572,-16.57244692175629,-22.94081935927331,-2.8229377969273797,8.61113909859927,4.267851540656143,2.4689768625044444,-0.01266520798886493,0.5999007110434134,9.378754596451417,5.793359936142195,0.25500063823274693,0.04856416387535277,0.059146487979490264,-0.1337227635331507,-0.1811746730493883,-0.5911839978118748,-1.5633240760972127,-0.1839432984990424,-2.56882859043446,-6.706866775133961,-9.931625852660797,-2.2226364428712824,6.343551366530004,8.388963891499674,1.0974840669749588,-3.132507760905468,-18.41254085012048,-17.891668858827824,-26.050543125154924,-10.048296466218066,-6.666023678385058,-9.593905545876265,-9.3053440691378,0.9171797178692133,-8.10815782180417,6.394658392640806,4.376004947902994,4.64063715794829,0.9418796034530057,0.30228911904938244,-0.07348584289113354,-0.04330588603247163,-0.15338500280006812,-2.688406256941391,-2.9088834866780084,2.1506758954414,-3.2858032519410885,-1.1962202877948493,-4.148456948183612,-12.33803655281427,10.95679589902775,8.650607611826453,-9.758314753033325,-18.52267040421612,-14.851570085437661,-7.022899101681189,-22.72022722832642,-22.284043798145188,-5.864075824926886,3.0305361109712488,-4.615835309313061,-2.5183923429812705,0.4696538811601462,5.6032461864225,9.121366679911546,2.5455887295247384,1.3359326640248832,-0.029651223207699074,0.039184819241186,0.11570561938611917,-1.257886582653874,-0.6127277425947305,-1.5440786106567161,0.12275915234458977,-2.665403544109425,5.74782915814992,16.42071563835883,8.955629477560564,11.124934150840016,-2.624938260533198,5.7053719244351,9.336285096461602,-26.677424202252872,-11.614000651232868,-17.282713071262922,-22.672200871790483,4.554506513969336,1.1288984986200226,10.39281014839158,-12.262014638761432,-3.6511748515620277,-2.4060746452326103,5.68687219897236,5.550767949166176,0.45357832291823946,0.36270553257308374,-0.0690144682229108,-0.3400661705804653,-1.2743329115731405,-3.637853382738057,-1.8825218455338064,7.4208977489741725,4.479973760117314,4.252306552359679,-2.012492746885042,8.99856928330666,0.2034974754323692,-6.160214348029291,-5.696267957326959,-16.28102891759971,-17.91590964578829,-14.98096000793564,-15.84882658464678,-29.25201028172068,-7.765819016299463,-2.8028326549511893,-8.652276038492852,-9.949427354423655,-16.414229463620515,1.3183951299317362,5.571635763128132,1.9913226609898669,-0.32022757335825786,-0.42284520043426665,-0.20289845863339684,-0.5315498735424893,0.1972058792230468,-1.136827277809088,-4.546883046799852,2.315705521639234,1.0361313717396845,0.4078370240663971,1.5558678860919586,4.500053842815813,4.305335493832541,-0.4882701232439017,-6.788508175170519,-27.43083377722755,-14.142212135822207,-2.6419170897277993,-25.62658164377184,1.9204100734649516,-15.825609740264188,-27.668451457718366,2.643134099314223,-0.23659702005800132,0.39271177028405446,-5.6623276314905215,3.9406860998450868,0.23143075269721589,-0.12122237810481962,0.3045921538323581,0.18684262411285646,-0.0018426119430080474,0.10750916939961944,-0.10577947749859014,-6.617565844977786,0.7801726134475574,-1.3829357846069608,2.311826667381776,-4.294379507668876,-8.101614461233998,4.7645410518109435,13.127707420892978,-9.153918571745784,-10.411313368478233,-13.05280823786321,-28.671326180889842,-15.883696197340868,-11.670969709790706,3.939595542653264,-8.242035465158775,-2.2274794230117823,2.894984825954405,-3.6316153792149177,-3.2708045462313935,2.9699086080808663,0.009299832071903305,-0.10152621945695,0.03496915769317057,0.2551802506518621,-0.17414458263552499,-0.4833292224292001,-0.5209916589679408,-0.020091168512206138,2.842594246943218,-7.615376971899868,-0.16775024550642137,-2.5781648913158035,4.9016634215543045,10.878850298628736,6.334035268800797,-15.550257325986058,-17.50927970323542,-12.593606570411854,-12.544380260374611,-22.615511062233768,-10.731696543931395,-7.157315303437588,6.886853434682508,-1.324758866490378,-0.9277573537279102,5.183086368405465,-2.7919490967631324,4.189280436413602,0.33825179190136984,-0.0144523964692673,-0.06512358102441396,-0.43048770811992143,0.11701386460365235,0.08284389871869706,-0.7462270012067532,-7.812548565740868,5.37338293098498,1.8989159094868904,10.786718695531379,10.734579745828144,-2.68646535430629,5.009510806610386,-15.581223575413054,-5.09494189842042,-6.660084750199868,-10.71374785757221,-25.931231475219054,-16.65935094233879,-12.003256017433452,-15.836336048635335,10.620751028001793,8.747952128219838,-3.8026135649133974,-0.7620164898358522,-2.6707949515797202,1.382007125334807,-0.5037352761557313,0.6707077608070589,-0.17489382454988722,0.025605141004377052,0.23466390406962842,-0.10109914378007595,-0.28372910827245623,1.8214741739900597,4.829143799272191,11.510470705194765,-1.7799963695294925,12.234676482461278,-7.368914026407689,3.8086329229864577,-18.796300838428714,-17.78876335116792,-22.143072661794513,-12.46641504345171,-4.716064428207438,2.0219147168517666,-19.867747775511173,7.159232155456527,-4.2276496830695915,2.1230110605833215,-4.102927784955526,-0.8425578188948649,-7.2240944258093,2.618487520590791,-0.7051962411240974,-0.01564746265778688,0.10649657002380053,0.10179722112191048,0.3331723481638162,0.16221870299172506,-0.5859592539102707,3.1801409422617044,-3.8055154288494157,4.625758625562658,3.8135208173528397,4.647948701225763,5.947192513955733,-17.571231491677917,-40.73636131568895,-20.385545668257702,-38.50453487194627,-14.86889342599875,-15.652765192434448,-8.766175654348965,10.06464101897216,7.6164345147343795,4.830256892581223,2.8883636252574236,-4.27202804071303,-3.7223513726592596,-4.276896465157021,4.704701566745928,0.762986526785679,0.8338147837302726,0.2605765679351826,0.2618536638967242,0.027887351368348436,-0.06947195305534257,-0.18084237185622415,0.47613568189357186,9.132731080708567,5.921932384179398,13.824649226657435,7.800713616481054,-6.022542605604735,-15.9230180741837,-5.48310490849466,-19.140858725829055,-18.210496661262685,-11.263316324312516,5.188146843006723,11.81133899133045,6.086709930700331,5.051469613981428,-15.45926554240148,-7.054439353444047,-10.633035230827385,-4.370126168836634,0.182839804571895,5.757802150791689,-1.725905243651916,-2.0372920267085397,-0.05899240061433774,-0.08991590275621597,-0.03531136137565875,0.19777311708912396,-0.13140720019672691,2.9372941179994605,10.3770512409435,6.160620142793042,2.4276351933499245,-6.920882437281728,4.94247334793615,-9.800372269366017,-26.09723123551537,-15.971119586246996,-10.96401568704554,-14.514632126167953,2.9949527904538837,9.304816481090695,0.7738808964990109,6.269195046612712,2.3419264863131564,-9.224796533001546,-3.5939104805431397,0.18563279099176455,3.659774209227009,6.546097574614753,1.1514151940048194,0.989853670221382,-0.36400970735028815,-0.1446562865640586,0.16022788447551667,-0.3152421211677513,-0.6816713369110462,0.19672534597452368,1.013596733606649,7.788096898244712,7.987786411385358,-2.016295210970628,-5.782961815897447,-20.02884514048681,-16.544590748120484,-3.634616913537525,-2.7265147449713125,-4.581327781794739,6.701838669512847,4.067192580200699,8.648524858090687,13.314329440214598,-13.295239717697783,-6.283756465150142,-5.3737908388207565,5.807889765952382,4.3486845859457635,9.476987404428428,6.759762706277083,0.1830699845200431,0.03385268599069724,0.42731077731742995,0.050012786765760556,0.17233299292292378,-1.0718219855645812,0.48950758552651347,1.644521259136247,6.904374343584426,-1.7955280131978688,-1.5822714725961964,-13.906562573312595,-12.95801491314317,-9.284462373936638,0.8433384261289374,-16.20729988267054,-10.423103788296642,-1.3558090848642201,-0.44284810984058315,18.32814294179861,7.570745599250398,-5.674894946881241,-7.691253499939094,-0.18870092819294929,1.1502943396898537,6.051616940753359,5.513192308169742,1.916661882296246,0.13226733854671277,-0.061615325411442434,-0.12521560126423395,-0.3458824840466687,0.013534483583814878,0.14930714143335386,-4.9113832409733,2.664936872395966,7.393291434618831,-1.0369355237183553,-3.750586367503137,-3.407183940729788,-22.464193095767413,-0.8434380058106973,-7.36072656270141,-10.733211847350693,-3.1912592500480375,-0.38249127945412736,3.5546294182393217,-0.9484616558797239,-3.082749429891978,-9.537588051327113,-1.9832803199286648,-2.8989858438970306,5.702142408124613,4.1366411313608475,2.0294016132813337,1.0280907867065745,0.07607271465136904,0.25141020654239143,-0.16250482951303158,0.2549894156028172,0.036559477842746164,-0.3709485330435379,-3.8633062679736625,-13.432057622576906,-6.514142647533018,5.154531299209137,-10.078064266580697,-13.005752792897216,0.08874664063757352,-14.567613392200776,-22.146141111105702,-4.9944857571485155,3.330674827727744,-7.113553280542105,6.271943123661971,-3.783237616044361,1.643794194813834,-9.785520452952216,-7.92092438474491,-1.7887711000088597,0.298465543169035,0.28983043498814176,0.8884434762407614,-0.014274674765266674,-0.20445592870940676,0.09240153429092735,0.028294329055368217,0.056135600125892915,0.011322312416094523,-1.5076947608293425,-2.612014961398976,-0.6996884367250347,-9.194097304944954,-8.09203915517631,1.1836504971920032,-14.964070985834134,-12.780716207293585,5.4603899362614,13.894132406151726,6.716931222498171,-1.2210558598734456,-8.790693730872354,3.365743753221366,0.9555693052941292,-4.423239540820237,2.2473444615420486,0.4480355672784986,-0.8100956091822873,0.06968538962050927,-0.9439076285516624,0.012340644918926013,0.3861185581324481,0.27933338073414954,-0.1093074040878379,0.03827786939053368,0.1396332918315476,-0.05598582356953059,-0.25457599138335724,0.2772712600284142,-4.76273239783203,-7.497714208096103,-4.798237146012117,-19.175581168055515,-12.371863708095256,-11.91411984817884,-6.531532771198536,-5.160007627536694,5.009446642502415,10.705628312843611,4.420293638130298,3.515062234528909,-3.495664362385058,-0.688445530400656,-0.9128238905709485,0.44442771688179333,-1.154055531009648,-0.39021755132435365,-1.0318525779358123,0.10496411143809814,-0.3075081705257763,0.28119544462976176,-0.12893800326864646,-0.17639870393297397,-0.3213716677533973,-0.46051588131889964,0.35253002525080446,0.3075006186289176,0.006344159495721709,-1.122954041980838,-2.9422162344122875,-1.1102880218904587,-2.708332140845982,-2.173852515239674,-2.7794889389802893,-2.1535355754490824,-0.6744903423464784,-1.1687172987283607,-4.177886287700855,-3.32536649831149,-5.220129950220935,-2.803705885889615,-0.7517849170006703,-0.21357293530752644,-0.15163466886673574,0.10949274154796734,-0.5057882552469513,0.22897944628404454,-0.0346329229701039,-0.2736388692225409,-0.14686914360115466,-0.17948046153883368,0.05648627190769506,-0.2728850347837788,-0.13644957182620754,-0.01829938861272118,-0.047355565731240855,-0.02123034184560582,-0.22093349981831192,0.37794788313776595,0.1256146704615884,-0.004080360407208923,-0.07609651292671957,0.0528415610566032,-0.33655110350295064,-0.6575224023903786,-0.2851459406342522,-0.3438941372829814,-0.30842016903421265,-0.4663166860921933,0.04042548199789416,-0.3994216687062974,-0.4360271683628434,0.12123052403495349,-0.04323397898458173,-0.0016569111605793108,-0.22787824253056677,-0.2516248099556082,-0.02188505157086329],[0.10355622534636844,0.12678140231095425,0.2861004169150899,0.27287417657230184,-0.13021769622375712,0.17889224817803517,-0.469800516938949,0.22045994577949612,0.16332932740703543,0.28396903194433654,-0.24637038251535515,0.4449188763239931,0.02640441537530434,-0.29619338058509986,0.18836102815098746,-0.036211816660669846,0.27494992298056464,0.16605862711380237,-0.005055432771221557,-0.08172530348178797,0.37697310893131997,0.2702271971675373,-0.5067627674680868,0.021346462319341897,-0.12177972519773217,-0.033089001741033464,-0.3359680247484673,0.1632072149805719,0.28262388159058294,-0.09485588415621105,-0.2177753020650368,-0.09035070330253148,0.11388765759367503,0.11263858335043417,-0.08053692714294472,0.03967737705582412,-0.024417473947475524,0.15497870804452932,0.22796724320468303,0.7003259498249685,1.0998359517726568,0.6525330577361025,0.23754218435755634,-0.04858009848474114,0.20869297492392952,0.10998835092786613,0.06701048226858053,-0.03068589564482847,0.26781091340967467,-0.311892607464134,-0.012295586346435084,-0.18741058060110988,-0.24927462712801773,-0.17294996141114338,-0.036947211586111806,-0.4228396966867354,-0.1979142190762977,0.33091195289280717,-0.1163030888016452,-0.14115906860578575,0.39011038569770445,0.04856192009227969,0.5380835586136868,0.9412885201308463,0.23922220624350482,0.21294735501217588,1.6009092790771982,1.0157834217204669,3.0132827477066346,1.834636728764386,0.2959222675823876,2.2963871491566423,2.2230861528942665,2.584835675633386,0.7810292523836261,-0.28070776013639004,0.7290391259680026,0.29961823365976165,0.594075993051331,0.1870997961148751,-0.002024511327893719,0.35317061628253976,-0.20792389053163407,-0.0441791044946136,-0.08766587269909198,-0.4804329529274387,-0.38016696346132584,0.040389583611758956,0.09338276263141548,-0.07344877983573835,0.9232978263664833,0.25105238532298957,0.9468326320762106,1.703839823528138,-3.270082705043738,-0.17098981413113035,4.421954755006836,11.436901979629697,5.98970046701226,1.7713796096650902,7.697659725424496,2.8487042861975844,-1.750476870863807,-2.8931917385133294,-2.733505841221537,0.08233551235115968,1.8336340542369332,1.1684572217866482,0.8704951518367862,0.33615515306851124,-0.001948115661060002,0.03290954591532691,0.1366724094347357,0.5400072086118718,0.4266282991155285,-0.20867479479122442,-0.082373618342897,-0.2249000619137672,1.2996161381390854,2.462272437125743,-10.067390343843194,-2.0396580652611607,7.031223389688026,3.052811968590213,1.2847457873925479,0.6149022314682989,6.530489030707139,5.466696524455734,17.014632050619774,12.427427712257007,-6.089198069206283,-1.3678399085082233,-4.117777084771943,-8.71426776218731,-1.5507639188798104,-2.322146571183421,-1.2447089236707545,1.1260003004932244,-0.27089776129992615,0.10644041249504987,-0.05228895169308001,-0.0017248428812768335,0.6065647243768075,-1.259194907470341,-2.6755971204492117,-4.420501559873313,-7.321881165518465,5.510421090624479,-10.641509316088916,-7.467821799476062,4.611826757589768,-2.9474946020533026,3.0058989406807566,8.995816988148247,11.370602347754362,9.748574857059406,-7.505309972251086,4.258523649397593,4.1242632421753775,-5.527824120143044,9.625076896111905,-8.363766941073195,-10.40059804652729,-5.541049835801051,-7.260206592598382,0.15198045761522744,-1.7948089869381456,-0.5394127330233316,-0.1742914358475609,-0.09839803072929709,-0.1288626152789955,0.8525332150799169,1.3809364926617653,4.603587484838451,-8.087981639529826,-3.122324439645858,-6.887208223541879,5.921327637045155,6.0112062046259105,-8.016236534506158,5.791926129894113,19.58448380116989,24.686273428804107,6.289456062468255,8.55740782759827,-1.3793947433723877,-2.1099832885853056,-4.6553732474210765,-11.334683602832154,-3.2597938266486386,-23.53463326313099,-13.126682093812898,-3.5917606653889615,0.9630275835055306,-0.021686292484684695,-0.0014489825725816552,0.2288277563930777,0.29958393531110966,2.725026587202071,1.3470745768418813,0.10394898424107671,0.8988635838204022,-9.591354962459386,-6.570553044077267,-2.0973484751271587,11.049334241101924,-7.977393715127601,17.45013504696142,5.810264506090412,5.3325734673798335,2.860660818556466,-4.144217078285351,-0.13821921116356964,-12.751973719868241,2.071497398572282,-1.402588971380301,-9.421492250526741,-9.908638512100165,2.1587846233258303,-4.029980528200021,-7.634590187768919,0.9110798391369839,-0.02056433463070018,0.03447007845489529,0.12236162276147829,0.28254096144810403,1.24679588336644,3.3746853483650554,1.9243362922563747,-4.832565580866042,-10.236942366563543,-3.360635896172772,-6.058271389291236,11.229782797366317,19.33247940315151,11.722226141330875,18.195679665758934,18.082444128589813,24.411090848461416,4.153501739198416,6.609111893466347,6.848359269430745,6.967922137302408,-3.3450970039785557,-19.13174434344759,-8.79488344121893,-4.829472836440577,-2.1870838732612157,4.6162021817775925,1.3564608509748528,-0.15243726318128598,-0.004174603227812148,0.40199238977015794,0.4108620616131272,0.7862264943187077,2.3651934903307623,-1.2468894322544088,-8.202155001275077,-13.798654808762324,2.229369341107367,9.820761969621739,8.50475556347016,11.662918261348958,-12.278696845930861,1.8818987896619657,8.40026052530231,-3.662716827968405,22.36850154109294,6.549828362818356,-1.3098596789508452,16.924194379111846,-6.558349666307502,-24.76661937911577,1.4228212149678043,-11.315142532394061,-3.499506241749124,-0.3826534631447508,0.7365118607009616,1.7769855247040143,-0.04956638433557578,-0.3159349484207078,-0.11252871932501027,0.8462905529654309,-0.07974314845828095,-3.922038252231255,3.8311781809776133,-14.452030228999323,-0.2769708645490113,1.116398768168279,19.57459915607359,-9.061723302811174,8.9132024450353,-3.513578086544954,2.251052622409549,-11.513605272322645,7.561586220500441,-10.065635836010525,2.8535510689483785,6.655290094753391,-5.225896816938468,6.199788534862965,-21.39158726328305,-9.068255615209203,13.10142119749082,-2.3542508526424473,1.301325866769235,3.1326049248484455,-0.23898245489927186,-0.3937918082008981,0.4546735247026586,1.06979380516258,0.6132406540694878,-1.0510760822574299,-6.134516969748995,-13.737268540579008,3.182207059458815,6.574614101558459,7.365773842080621,0.7729980732501606,1.351420158070279,16.37929063920889,-7.042866843867463,23.76754428354481,12.593837662726997,19.759788139670402,1.694508369464935,-4.284329342532254,-0.0540555249855821,3.5408604036135203,7.093048923745825,-12.94716311817516,4.60319829480899,3.537273819219151,0.5812315373007909,-0.108241316760939,0.015431714923424824,-0.09634494767512991,0.43125389135621434,1.2087233625891727,1.17939071717387,-5.388917217017827,-4.999725685174672,-13.624488470882195,2.4952324622697244,-1.2064808475844466,-0.6267537104139432,2.5800709619051574,4.7161040884177705,10.935658039790336,13.171637884193691,16.122223282922977,11.840805052132557,1.7853917757427693,15.565921745684138,2.5542476357711443,-7.801194901885668,0.9652642066803867,8.283674507595036,-10.153901298008222,-15.007699082473462,-2.338482684254746,-0.26264003648274475,-0.2316638186303118,0.07212936305964367,0.047751801154368306,0.2543064514004432,-0.2826325367758885,-1.416927997557556,-3.309589012762215,-21.869079197342607,-21.864597777044906,-3.4689550011788004,-18.6018292051141,-8.977627587346214,-5.4934162183273205,17.271734939765786,-6.879464603869479,13.69882211817789,39.52539611997682,15.682792061158931,15.312991366417586,8.958564473917983,12.820541584987238,2.673199844477941,-15.067186132503297,-1.2224524318128644,-7.850513312668816,-3.6643482130127207,-6.8385564907997445,0.006762379664625673,0.045152087624281016,0.26211032355710245,-0.1329115662268736,-0.40544599220234717,0.46755187173406093,-0.47003807774033585,-5.822970079142434,-20.833969002667395,-27.66561360156333,-22.40135603800689,-24.39045616992953,3.218376408317936,5.23643834873411,-0.5622133944002321,9.227004816160187,26.7284686172441,20.99088376904585,27.102352507477946,14.013999053897177,4.5082319665387836,5.709774408174179,10.33057480145266,-0.5616218033700934,-3.791533775329686,-6.652193505874332,-6.376019909137271,-9.831447003507863,-4.76165274616314,0.15206632790937263,-0.01789817539337757,-0.1631977493497463,0.06392275891435073,0.08025284280722818,3.325627000769746,-4.845569381766072,-17.75430358579841,-11.230785918759258,-32.511348882749324,-22.776586380550153,-6.236454686797571,6.139873359584545,5.407281141862833,14.240249313524123,15.25640712150843,6.12279362415358,4.426100465581906,2.1676937324827903,6.591326434429892,-0.7890974407329863,-0.7253533529217907,-13.050035375153154,-10.093649865274594,1.6783367574785795,-7.830443554083115,-5.641949408014119,-0.34602411687260776,0.13511478720256728,-0.25595345231084365,-0.027799481590682573,-0.041958163452501696,-0.17179128486652023,-1.8323160039808764,-3.768242203743982,-10.630631519741536,-14.447454131939928,2.664827116283403,-9.848672049376695,-15.654436085371534,-13.753057408064032,-7.883653345292767,4.210861915972826,11.188435415836354,5.2132104066289315,-2.3698073201706817,-10.502889199488548,-11.275366720856006,-2.5345650440053604,-2.872515747482858,-29.538334115906657,-14.132209417220645,0.2918486500697182,-2.2955581049084013,8.862919354056984,1.9673545796650984,0.8561893333624067,0.08342062282167262,-0.14653551854107616,-0.25661084523176414,-0.013032558752086282,2.355218256140676,10.013240603732275,-13.328523004316192,-6.677591688730506,-11.998692782130798,-14.554919804956079,-19.748441602496847,-8.685444956843622,3.005136444294702,19.386522356617476,7.893518342423808,2.379371906876525,0.9388244184714318,-14.232621080121055,-2.262857173716169,-3.744491436166606,-4.592684642678238,-13.991460800135515,-6.002823161102675,-9.230312630852147,-1.8941384587715517,-0.035167496575370015,-1.551527440592908,-0.3606204605426804,-0.2629066212711788,0.10045025131798632,0.4334357329924763,0.36679618853059504,4.542215144938053,-0.02763673520723305,-13.516149671697233,8.348327960985927,1.4782971412322234,-14.39837519796236,-16.637843298044316,9.398377010816398,28.098215792376436,-6.985492878533105,7.9562476144379,4.017321209242368,-2.7316651155376106,5.684056465330992,-11.346935785877394,3.0650965538468355,-12.032790052194922,-2.4803550792378912,2.257019707300601,-4.0965294706734685,-9.881586160701968,-5.817025841681435,3.1703289817941362,-0.24241471382869698,-0.27867950599263425,0.22229055792687247,0.22771066263129408,0.35971640870177746,5.0947668715235865,7.693351920927994,-7.286975617707062,10.942210801853186,8.224939460989809,-2.7953336220612273,-5.722181825069356,8.669485855595847,9.828298766709032,-2.902702238242295,17.837413537924917,8.041512815434473,2.141756812318901,10.045576929059433,-6.0886705721208605,8.277675635581792,2.0895404527458217,16.20758444227636,-7.999504950830177,1.5316655541318895,-6.589856066047026,-2.042316075788753,-1.155147770421219,0.5515937646869608,0.30601667533458177,0.18516847631316258,0.12895998322428867,0.5382138058118743,4.289899071989677,2.893963579894076,6.607958598312855,13.918485837449028,-3.1424467945909096,8.656164658649486,8.914995295582472,15.236439160749029,-1.536142228705564,4.074190240552745,-4.153102536990576,-1.7797169268652047,-1.7706220588192267,-6.5745329950167894,-0.14784987199164226,-0.038681890615874404,-6.312640249727942,-5.467588135660765,7.84677490623879,-14.126651998957588,3.1275908331177322,1.3873332127321942,0.15404877355732166,0.09959006472069278,-0.575564067795127,-0.3312228259918462,-0.1908707726029083,0.20708585449071618,2.1343631768084954,3.979497059643552,-0.40460002514007415,7.31389153310063,1.218679391789957,9.894044241894251,17.274767621770604,24.973351908313873,4.043908032300217,4.704897352364947,19.356238913167495,11.679846451050851,7.731488949402391,1.2235799690621698,-1.6865395142145114,11.223164883120967,-6.2074398928009344,0.21544767562713682,-10.268104655115206,1.1641756853265677,2.208509871972763,-1.19215905719552,-0.43936617018056046,-0.14201204159891065,0.009297341448575866,-0.19293200359667886,0.604553887518145,0.3193357898017935,2.4782320462074847,0.7789995804240414,-3.144291086592127,2.0927394781211244,9.691295409820219,21.46273748419711,6.1888615733143935,0.39711622233559735,3.3827995856252695,4.07979249829683,8.526226820423105,4.636261794677986,1.4733400576417912,-3.6689681956035125,1.6636151795961485,-15.632973691362311,1.9290405523734635,2.06585053489087,-9.87910769513944,0.4287389622601086,-0.11801112755294665,0.9905563784388962,0.5885380694148419,0.17190758737503298,-0.20589004522037607,-0.007803912992459638,0.15175204206522253,0.15902268889930196,0.6152702489767423,7.815924859970955,6.561725056282228,2.9405418636463785,10.346112325005336,4.979850292723695,14.982213880870196,14.584731530956564,11.72946433476588,12.174105183985276,3.1916185172435045,5.872967251286037,-1.7469241271130302,-2.7422664479580705,-5.9407133833387515,-1.0009415223676574,-9.966154732760186,4.862415401936531,0.8709412582664443,2.5396759625065766,0.9815397437845215,0.3999767582315306,0.05647430250954272,-0.19832928581009926,0.20097890340501934,0.5699821837646335,0.2673032002173791,0.13948916208769213,-0.12792319431621268,0.712590306768794,2.9465460926143234,5.047627022910048,9.46293535888361,19.612915387587414,9.88241144012392,12.429930035215312,17.49859532866634,-1.6721664487648944,6.605301994624261,-1.8676388324830915,4.877506938105163,-1.5450333850348636,7.581197243886919,2.9051668833298296,-3.751489858607557,-4.327670550168719,5.322225191589559,1.4792460750888783,-0.01277462852305017,0.17366272654942538,-0.3697474653344084,-0.022477054599131074,-0.12696184506475894,0.0201296094770802,0.4521858936273966,0.1008793872064574,0.09077370409943807,-0.00016340905125974953,1.8568012275326728,0.7190466803030499,4.352585609815427,5.315611421345627,8.107319887483037,6.086458383108954,10.397203559847037,6.588670825270195,5.683108394386649,-0.7681901692005806,1.0657006503940465,-4.030407590284949,1.2596917434421067,1.4567624998412285,-0.5779077867341191,0.8240075559034847,0.19606943428303533,-0.41355996177334126,-0.14214804371073395,1.5894028698718106,-0.03502045838753487,0.06783747314907662,-0.13309483844543757,0.39404380611974255,0.22486084368522619,-0.1468426619212393,-0.14442507470818425,0.042887890948978234,0.28301391386780556,-0.4305083455051468,1.5852520667945649,0.6576574095226548,1.809534352149231,4.3302092481853,3.781950760616854,4.773130936695093,1.9323292509469323,0.8382255372795289,0.9003461922965902,3.9553356807469515,5.333591633273747,1.9629357672008425,1.1628478026843887,0.11902172088699896,0.19271133538295834,0.4665982190956056,0.05670384509697842,-0.15441331586011764,0.0033482723720818473,-0.13279873100936368,-0.10910618092852009,-0.1832047501103824,-0.004583336555730844,-0.09796021455680215,0.17122848706657778,0.023833721939817486,-0.1519922588207698,0.39706763357296176,-0.03793002987286218,-0.20395722425396076,0.232897243250214,1.795013669616546,0.7976563576224744,0.34993007607373267,0.4480272070207156,0.5720132685010845,0.6002419229056635,0.5853640489454325,1.2157277032625735,0.5130666679298733,0.02262749619370474,0.19298473489070583,0.22948599429688535,0.22711628461602698,0.08476513796321272,0.1181550722005773,-0.06438310943409342,0.25419198400044507,-0.19401873926236224],[0.032839349597163725,-0.020837387400800322,-0.18574082105000422,-0.20431832365163793,-0.18756257182899483,-0.07613457175932514,-0.23752541306174035,-0.3109797880872911,0.1771899528612959,-0.19529819795703252,-0.046167235400657924,0.008886838920880602,0.22708342990040742,0.04598085842995472,-0.08203503050740524,0.09768094866177401,-0.5314363926875745,-0.32775119305650624,0.18297779546838022,-0.021425142192375235,0.12770692591512045,-0.0944593184943372,0.09173748776738133,-0.4432964611305923,-0.2684692035973466,-0.2740621920194599,0.04396100262745062,-0.23685848536646525,-0.21728002531546053,0.07116634585702541,0.37634529738294453,-0.21454442149885433,-0.055598086578023675,-0.009581003293529733,-0.13293252303281874,-0.20043074576627126,0.490800499627481,1.7329859596786084,2.5019990072729934,10.837350427239121,2.0958914098358843,2.64075271320033,1.9829363069434178,0.6861220220680795,0.6970500064230315,0.63941355450415,0.5314912798597207,0.3233973790611124,0.14366126305806,-0.23471051725126774,0.4025589880006892,0.3195962227922483,-0.07680006528796635,0.0726804270880601,0.08669795389453494,-0.11811883420601377,-0.18025918142756714,-0.22088259262394772,-0.10142906316224652,-0.3538104131394646,-0.4412392338026182,0.4394680539254192,2.263953370987088,1.4479456352121334,4.608584558479043,4.2341007266391095,4.544816748742183,7.611394323263655,10.923861473302125,8.590395903383776,5.367916570948719,6.001796167792259,9.158424763705172,9.745552275460991,3.249771826908024,2.4091785723985937,-0.00006966486560684444,-0.2965288308575555,0.9829665635328868,0.46022690588636983,0.22783222050939878,1.2770328221059366,-0.13820533500402,-0.4636223914935318,-0.23117454927076997,-0.45542652889308743,0.15011449853363107,-0.13357291046664388,-0.15279661116027166,1.9345708883179,2.066658851304841,2.6772052659284773,4.598324894360582,13.086570991953907,10.221293943177674,16.64497588265183,7.951094903162527,4.1885685357523,4.079317819075998,14.493789135738474,9.124140288308798,17.9520188455767,8.098516845038223,0.3282260607539193,7.347078822211453,4.580782044970982,2.5336088829517642,3.2869031298659044,0.43726866773558265,0.17699002304383107,-0.025885156787284962,-0.07997001708087748,-0.5037325963151948,-0.38662759359873833,-0.08958925709281458,-0.3765538562689377,0.006412741173249616,2.01276249129119,2.4745116649121357,3.420049379828444,8.83870441719498,11.855008978058217,28.28375184812505,18.37319891253021,20.254567284049934,18.205045311020452,20.81349858656114,16.634823569817605,34.46551247961596,18.46896093712563,15.705697100747928,6.5197587339370004,5.127913555964608,5.819320665513319,-3.8811750310414155,3.013266902707427,1.2192258058645205,-0.8281727658496306,-0.21793522827286785,-0.12272175447716552,0.05410521319513906,0.19687680661117923,-0.01014163296807691,-0.3999518000988409,1.052237858054863,0.19335732132949598,2.8006500426363665,14.741526774778487,20.620140972542973,25.57343556334513,11.190505258298568,26.151412720876106,15.737104447297297,39.03048821815544,27.536090040878797,19.070510978822092,29.983573041155655,33.3936539441337,44.38702509873773,33.907546800291115,23.52014892933696,1.1484672085050347,15.124563217802432,-0.2646576153867603,2.39560482143141,0.7929811430626869,1.975348583974066,0.1884553283175653,0.06685558505421119,-0.12537851282260495,-0.30378255229648277,-0.10190138151641281,-0.05705028542001944,-2.816241698321321,-5.743678309250968,6.147642830258764,-12.658387895956889,-3.345435482185337,-0.7952686860636614,25.98093821149254,-15.327717760576338,-22.914260065321457,12.675501488695867,38.395443065736465,4.44830173639793,17.550551974225908,16.002222594900473,-22.46044272696689,-7.1503907448600925,-12.636857959869358,25.647684103626432,5.931779226124698,17.910987877035218,6.10928233421341,1.4482971866283478,-0.5265186511828096,-0.10082708296956788,-0.06254960053471421,-1.1678609298180331,1.067176172722193,-6.115818241873893,-8.096911750791191,-7.600347695086352,13.949980043494426,4.32895646379934,1.0051943797980345,-6.904747588332995,-18.141937101611287,-13.367832761822187,3.182221643672189,25.493643678639977,9.378373951211469,-27.462136286433555,-26.515567583520994,14.522696302948145,-8.158881518272198,-6.6709331497786275,-18.031528306781787,3.0350069020888517,-7.3533673781169195,27.646657780748153,14.849414117419096,12.64669648698723,-2.685713603522356,0.1262523062403274,0.19447978248041628,-1.0590088805314835,-0.7297797029371159,-12.389711920477353,-13.984318011760829,7.766400553089643,0.03459080695995196,13.326506731089964,-9.5176166169304,-35.639331839566125,25.959920292055557,10.562612557085066,10.406393965313464,8.683417355202751,8.304046413958345,20.525142285552633,31.84358264930577,21.211096598991357,-19.203131852776387,4.811389318644414,-14.293952929345808,4.662679378637758,3.7670898886745148,24.710339574951636,14.927015426380061,7.188527060202743,-0.07070531280290665,-0.17527813097732836,-0.3502002361163729,-0.02996668441261352,-0.45681724485691333,-7.666823881689694,0.5322850983502453,-17.155462104831436,15.926715987032303,23.405073330716498,-18.273573088772643,13.364694820597526,-36.96520181721357,-40.87545742317022,-39.46959367612704,-20.759662691333396,-15.635192197007107,10.318243856793814,-12.90065557281453,-0.12100728206711218,-8.091708028769768,14.525204438231137,-31.717505427669415,-3.52902844413122,-8.252008718106868,29.135309695043215,17.807771350414797,8.581708289566564,-0.383966307243268,-0.0740865710963321,-0.32664145504889547,0.697819284209126,-0.13050639001691414,-5.713991396885991,-4.9858247910150615,-12.648279903056242,2.1730909240448515,-0.5914738796143681,-10.497996188799632,3.1988579217101014,-2.47557887324845,-12.726053903689001,-3.53536281437469,-3.9232877408346707,-4.4087746380869515,1.894189521488285,-10.274465092137945,-21.236143966084605,17.13577941806957,-21.568306497292085,-11.323171534597108,15.58971190208679,19.874272305396183,13.53996046227869,8.932419679827289,1.4139034320043846,0.3688482812085017,0.2365970857086499,-0.43375575706699343,-4.253797905222721,-6.564914781230041,-18.87498816639122,-14.31867319831955,-16.807295719264722,-25.44156269248276,-12.49873024127903,-17.720946592609685,-0.4750358092777201,31.99737388381423,24.900562932069555,18.807312445865843,9.51426326281464,31.63580847636587,-12.613612177819045,-20.68644210943659,1.3535880019751383,-16.410622979430716,27.829169108914375,-22.365374943028247,4.707867895839107,22.931805024634734,22.10997642302859,2.0045145381946465,1.6780319259338212,-0.19379748058892177,0.038560788180173944,-0.4579710403123574,-0.5535980987597278,-3.4639770506985763,-21.22751137961041,-8.580716285497527,-11.317818236348735,-11.13530117601076,-0.7684054912781477,16.84105779453578,12.480852156949611,9.970827007981852,2.8123877433895275,39.847521457148055,-6.287458548304499,-22.102070709140854,-16.01224547848294,-8.855920697483661,-25.048273152741622,-17.03308676740592,1.3464485812655311,25.13334286932145,10.378345466363388,14.69576811886724,14.193943015455867,-3.0343683319545818,2.2285773746581903,0.11410969019232053,-0.19987014701596703,-0.5894994717296782,-2.8414639825337065,-0.529535829534286,-6.035690825266228,1.403205398066051,-7.235776046815799,-8.10516399495544,4.954940399713689,16.702059549853942,0.539613648402477,34.011608054911065,42.092616988500396,40.82350035710952,-1.4642755446648454,9.52266285324273,-11.177950625934129,-29.426389674753278,-16.938739963157285,-2.5853075079486465,9.432553363352818,34.72600474584893,14.478635994102499,20.264809307619753,9.58015251394448,3.1397883426724182,3.8100407104199125,0.16544638952401028,0.038072011920543526,0.018526869682989867,0.07922751402273703,-3.138791455010882,-13.028875648610544,-4.2967239358413,-5.156165913796624,-10.633181965455627,12.11988868811733,26.160371483236663,38.3471323461502,66.1021439187484,89.46985888160242,35.53630252293484,67.2931266920177,15.608062486451798,-7.573545416966832,-15.261400402272432,-46.918070175391804,-30.501647975308792,-5.089589626348399,-3.9271137431670047,-5.596906319057296,-1.3825115917368216,15.48346648845419,2.9990422009063975,-0.14297432605765376,-0.04168103012289802,0.3520677513844241,0.10372902402871809,0.9171415150587224,-5.6179607351524306,-28.0113254560066,-9.771570700676788,-39.64351449581802,16.750318964272463,5.4211806349146014,21.864618694995077,13.814129795110716,65.15899561127063,13.006215313865237,29.771931145104848,-6.577327132006807,-38.99456864908257,-27.589259062348503,-29.98557338694474,-43.04660975968408,-7.966853001241378,13.970960446135132,-30.09140988511451,7.6754232249425005,9.61941397315342,7.076624942026557,11.755155083787663,-0.1815235248407363,0.14354008362720447,0.20592001712843988,3.1317895483059357,2.265945482369312,2.327267987241608,-3.83329576618042,-4.746797810106473,-0.8941038425445094,-10.989574950314461,-28.091878727339868,-3.50527945150221,27.46123312264232,31.6465660977616,29.624490982914487,-1.7651439310677812,17.82741759109102,-32.81444789293895,-32.5606268933029,-26.95076272010718,8.909040251060656,-30.389315441013974,-15.629138598327136,-4.837975743898209,6.52053949949221,-9.895770288201698,10.874204999616085,17.59294409854734,0.03879520379020395,0.18760578515234994,-0.02191820973450076,1.400914838188846,0.6814392402758979,1.9748027231258665,-7.9917626672253155,-0.08304716098077272,6.3633338143755855,15.585860773576378,9.633535413606836,17.137227802763473,29.394378264861192,12.334295463628463,23.111403653245215,19.30370173192596,-5.507729474069561,15.182971215867815,-22.707739321054373,-3.498479654644252,12.25454769003484,9.822401844702917,-16.63075147359996,-4.347786369295831,-6.215594177163129,-1.1420331503790533,7.906686330051029,1.0007372918159658,-0.05218335918183369,-0.30819630309062923,0.03968472180989471,0.004417158332098281,1.4698322133912989,-5.06108920506681,1.6030402439295748,13.030780490877278,-8.535841598163294,11.448901493999106,-3.5455792115164453,-4.33728124190572,11.816037592314297,29.77345884880359,-16.736296002942545,3.377027487747014,-8.854767076788919,-35.26133702787565,3.4944246032038095,8.694389904024982,19.816058550756733,46.505807711552734,44.225481867183035,7.892428363818298,15.340372554845109,13.370170725498085,-7.629738224598301,1.3212145620521174,-1.7258876538761192,0.0006681088843889259,-0.13155870591207575,0.2424553193030534,0.7535635294634552,4.824992194646883,6.945859632317109,17.291663654132016,9.466653208371298,11.621500829315858,32.41943518488084,30.066605869176925,19.153742432122645,17.00194367517018,2.1861261745998304,-26.528012046260752,12.003699634570518,10.566410882645004,25.9131264973951,31.83244503718471,28.50289311765276,39.40771588676265,35.345522493824554,19.58813968859148,27.146095907574384,11.066043212741898,6.187719336023094,5.028502762980093,-0.16504265983341862,0.31481225586723127,0.4865888920279625,0.23642100084486561,0.12798317308636276,0.5038848123427362,-7.387806080041308,17.347594472141964,14.976195432410814,25.97842502477788,37.04779496930641,42.456972513845834,18.663392766754725,44.857050015822914,-6.810978781390556,1.5188432375894254,3.9937172261691685,-6.044626166310017,1.429908709225816,24.157211534692106,58.480606877673246,47.41218263863515,32.90863057838425,3.0634177468418424,10.224110761456519,10.850716554767718,7.90317734097625,-0.6885060999741892,-0.1889209363147395,0.5891205449414959,0.1079846123158627,0.06972057579613047,1.2241886356094815,4.949059224532758,-4.865995608594196,-3.959716440067365,11.57302141472393,30.553041946618343,25.940631854612928,48.09554862362918,53.43582577494813,33.75351732912372,16.261739602764884,2.0838408581770356,18.355388658964646,38.63605896519418,36.99358782815931,46.40435722450294,26.58651883051072,28.84379937478041,15.94584299008326,14.662625415347188,3.205748825679421,9.065411502643132,8.549402259404134,-0.5484848327557166,0.39855095577020405,-0.11923392098594679,-0.05042863137604552,0.41345122070846047,0.14566215922350945,2.800080905216035,-11.864461311910855,-7.396331839412813,9.299215222286252,9.905153939365174,26.635116576641643,28.363237907859833,50.39233326891375,26.352865428411743,20.832784308083806,10.326404914890503,5.667103139907826,15.234883248557722,8.088661302685967,3.1103714064027486,1.8945227528759254,2.528708154176716,7.906409975220927,-7.410550445835656,-1.4716067367620702,7.989249195694922,1.2017464358718262,-0.04545576001999516,0.01794491660200981,0.15177007688913077,-0.2687973810477997,-0.1144102626763226,0.028523635006374753,-4.3543438097067035,-4.881492061158506,-18.262731352374338,0.7401796940759819,14.655194660170428,3.9293734938969807,-5.47071348975336,16.635811148419894,10.223502117164182,18.373390888809343,2.1650957250517213,10.152315925566418,-12.722389850328808,19.553063425554807,19.217446372473198,16.889493868579486,10.588481503709763,5.518575610931709,-12.337513163403313,2.1930897908649922,-2.0210022622403874,0.2761208562994703,-0.6150810383275308,0.16577093774647605,-0.5191825783569322,0.002729688083344395,-0.10336088795325771,0.4665163059250244,-8.619870896543427,-10.006948891162379,-6.496575698622691,-16.94710877518408,-13.230437900008578,-10.532859327002747,4.172463535231129,1.115638365671144,-12.793168540492239,13.387805163163083,14.277997240620873,-4.486827527055595,1.4645955079972026,3.193160557093102,2.8261125613407794,10.817143836865213,-5.306095066365337,-10.59876903286027,-10.843637958638885,-3.234901192389887,-6.882339416770793,-1.3510581440523064,-1.221014141116384,0.5143298581128437,0.025327688361462486,0.3047930330597195,-0.6082760654408956,-0.2651037792048074,-5.121321518685591,-1.6454325067221194,-11.450335159707679,-19.24031299171327,-9.924957898192002,1.2756299476896027,-22.892879604481873,-25.14719302655855,-3.6201306618643883,-39.35464624104347,-2.344709161458436,-23.444999376994556,-10.57226353041243,-10.35493995296023,-0.78926636983801,-1.5131117879758054,-7.457299298055475,-10.91113975304058,-7.473635109402142,-10.087497912145007,-2.4464747373810605,-0.7757938108241468,0.2292633233409601,-0.20271653162498793,-0.3647212161082891,0.05424346770048982,0.47673048428339093,-0.21281273208937934,0.3014497472282319,-0.7281780724468992,-1.6249291461186712,-0.8202145552979547,-6.946384765784647,-6.138544305898646,-10.616276780121296,-7.881011128300771,-13.29020849679486,-4.634880955940424,-1.6343082107810623,-6.5699400762727596,-1.0351900702453196,-3.529684864348373,2.079571945273706,4.4281472956913515,-0.4309213291971055,-1.7336626375693072,-2.2087650740273435,-1.025399937144542,0.506035078518926,0.43765310627831167,0.046810223152725906,0.0015108867942125181,-0.16002133197120272,0.27005488808214684,0.20256650016112887,0.20372302100347672,-0.392100441788805,-0.6006236251519753,-0.435083854910009,-0.02665700731732132,-0.21166888530422454,0.34046800010811384,0.12592719463674756,0.07975627472644484,-0.28139431752138766,0.2911649347133007,-0.5094381309838985,-1.5766567734385457,-1.2376316637202165,-1.0537314100392463,-0.33555567857891894,-1.0477139988890687,-0.3967169892020004,-0.012076579914665724,-0.11428113992592571,-0.027830520150227033,-0.0723715820719648,0.0632578941238231,-0.2708867351639137,-0.3674297592281157,0.11614158714747891],[-0.017190976601698438,0.41738333617351575,-0.06509292937816569,-0.06114501253791649,-0.10643018605583343,0.22351705240146835,-0.5774248807769695,-0.45620237515088813,-0.4764024149239503,-0.09595896701036577,-0.3118307936978284,-0.10436119657182696,0.16445991859432427,0.24235548938731485,-0.11159759732523278,-0.15232090182065838,-0.039726766960838766,0.022903533652577246,-0.1923663374440061,0.0803207742694525,0.04864527528903295,0.11229449862674856,-0.2834852331714648,-0.27035329279648934,0.39203788595182687,0.14480813662060543,0.19827115383704508,-0.4022041815999122,0.2507409598624184,-0.38316071733875456,0.07259659312879008,0.2830371304471374,0.14089447691980128,-0.16344942135366236,-0.1107757875897038,0.05694853917011476,0.09137526636856035,0.6652296848543424,0.10585707896520734,-0.009599766884693009,-0.1954108857648273,-0.03399765942779871,-0.08095321864554204,0.02559556961187169,-0.36937250479901784,0.24554989999587265,0.2022872902449235,0.08735382760323154,0.2190971933423918,0.08241723803654431,-0.2953828207413307,0.0478468181867614,-0.40042487160650797,-0.1559691625090105,0.1978245528881315,-0.2187282862376272,0.02466451403144798,-0.39786356773897213,-0.1466919498112269,0.01916463794797174,-0.1816420941251658,0.004874031678381711,0.23919002853149857,-0.27392304372645965,0.023621031806506956,-0.6121519451731302,-0.11640384093745253,0.04105985024815513,-0.5860721657315622,-2.263089057873575,-0.008225792787307349,0.3476579215809776,0.687918159284974,-0.459416637649983,0.30114227221447604,0.4296947863106789,0.4372692216788015,0.014613574038479564,0.010594822988706534,0.35618302408549796,0.2608519446115575,-0.22723819970624426,0.1067464695565058,-0.2176401346297836,0.023865940561079824,0.42403388979509704,-0.061556186506311394,0.499148240418293,0.5064151957426645,0.203726534404457,0.07333878007428313,0.48000888064322533,0.1286668477439079,0.4805520995790534,2.2582329430729695,0.6517601766309999,0.9890082526055775,2.386676256978798,3.9495872018818687,9.32421027617302,5.840580076155376,2.4425075966479977,4.315548907886145,23.921507078872864,6.9485589535872005,2.040395918620401,0.22776538559511492,-0.08653207548050823,0.038919938041364455,-0.04202146375147809,0.43743807417640007,0.22365954445306624,0.15384549522152302,0.007548742166252616,0.2130838791743664,-0.1447822641622228,0.6483071196678716,0.030115832986440234,2.2378764223743257,2.0597227268302873,5.183348281977824,-0.31793358148620776,5.50021503193099,14.30799112347561,0.23837325976446774,7.164052210028253,0.37852052703996575,3.3308597680900034,-2.5174240807614137,3.8172492804320926,5.9949352810302265,10.184082921448995,2.7011327038095287,14.017587334011958,-0.13912398765302447,3.420249861813767,3.577661249878318,0.6737232295373387,-0.25043942636447636,-0.3529150502074727,-0.1792712471669149,-0.27592892896027954,0.1675686491422437,0.07933230521079022,1.100049535534645,0.33800670416357637,4.902498859080644,3.569213830378538,5.626702413769876,-0.2674516509865245,5.179704641876017,-1.229127137103086,8.053114004543728,2.6246348922804326,-7.1966648216435845,0.36391145757222537,-0.5328629004709089,-3.330818741205927,4.4501983682485795,-3.1267407674428935,-6.462627633604841,-5.232393713644943,-0.37159018125851384,-11.816130450599621,-6.139444843230721,-2.62226414519107,-3.2252687721353777,0.1683107469698637,-0.11229478664162929,-0.23788553113324468,0.1801849008457653,0.6781297025218953,1.1404842456439526,5.391744753114303,8.62900090305019,5.4620589182873065,2.804998176800521,-0.266034368071333,1.5495082680476,-2.8135727009175198,3.9083843821399227,1.3958563534116688,8.35086736625465,7.390219828000716,3.9272366887999652,0.10031325481488661,0.8428024940937796,-3.7659842324333375,-3.770614023777404,-5.543238613767275,-0.8590209659974938,-15.871778873883018,-19.30260660308418,-17.295318412576062,-0.8260331916498903,-0.13100945291099464,0.4708262432577096,0.00687843237188219,0.11383131010157321,0.5139471334388922,4.036535536712071,2.5332018796859765,5.66675867964282,9.083390677098397,-4.508349497843436,3.207046168976611,13.765517697009049,-3.3481842293892243,4.372715826244518,1.3047043794709974,-4.081856064839034,-1.2310060754944394,12.934805442692427,9.316542556162439,0.38945891500648233,0.4471433079108352,-11.595798919468345,-6.118144831104201,-4.658958302645101,-12.514456532254961,-15.920465852375244,-10.335856742187326,-1.1168522157567833,0.17161498942459555,-0.02410251274655127,0.31449305952189244,0.6337955333182128,2.5785157208189147,5.977842848499221,9.127733875946566,6.486034323620475,11.571802576625169,2.0099284712412278,9.913380667545216,13.351974364106773,-13.158564342090955,-10.848934890792165,7.800387169697981,12.608997553362796,4.59094584744602,18.37323199183944,27.130393237933532,11.724292330257635,9.112104238295094,6.810263813846004,3.6588846028424884,-5.122213045769364,-10.370869448595396,-8.11284495649859,-8.096633388674743,-1.4755729457551432,0.21462787818083698,0.19970076427013927,0.13539683202657213,0.7546715073434263,2.825974617243444,3.9780222261708396,4.861240022255891,13.868335841452025,4.48119337397556,3.1589671191356556,3.536564055767379,-6.928583285896369,-3.324223474217088,4.739666973564122,9.476252749108854,-2.868451427610535,13.286540766249956,14.833514354395836,7.339226262087054,19.274012436331674,11.288514810117022,23.98927585321389,0.09111593470936215,2.2418129605638466,-3.8557365787825897,-9.886018656026698,-12.373534866253344,-5.279776346490595,-0.09042174783885207,-0.00686593301912275,-0.03508412632627309,5.591407373737428,1.639871357577868,8.788865945516822,5.018755844390208,0.9459441049748473,-6.730918385115946,-18.746953267552342,-24.00596165469597,-8.778905548692183,-8.708458442914427,1.8432130666972064,7.269486760919813,7.144585847441758,9.94168331464876,25.67957096270704,13.078929334134958,9.375469676425892,17.84064875111274,7.022885993383493,10.256481670048746,1.6824882978118239,-3.238345673884727,-2.3733562764082103,-0.8852780300027476,-0.484426960126403,-0.015505187635916396,-0.3626424253641247,0.20711559136880278,1.2806050382521208,-0.18535308773940304,2.6250024004652928,2.2356517095803183,-1.5574340569540288,-7.267488867476232,-12.28947277110868,2.195032843965135,-0.19429509144869292,5.625832393139699,-11.49481773311413,-4.7912544728488475,-0.7535446572133475,10.094991506475653,33.20949711617432,20.418299475854194,11.544200807166515,34.568375201989646,23.279654362948552,13.64081354387011,0.07543569447895755,0.9131680648515028,-5.207675140729719,1.2017768059741465,-0.4620421841987934,0.2722905794902034,-0.06694974308902951,-0.03553525948964734,0.5302010184320863,1.598142614085485,2.243423794450165,-1.4540589398908446,-6.371862487204885,-8.107072850541966,-18.499661171833267,2.417295478825715,0.43073943809072407,-4.73067175445122,-5.653984490907954,-0.5566274958039966,-1.4997068569540892,4.382904532302606,13.841109172576163,14.619797121518232,24.735933021611917,24.492093519538766,16.03405649853948,16.284303937772187,8.608766121899517,-2.1344325039930276,0.1777212256775215,2.2020745221132865,0.3665635704635024,-0.01571682129945176,-0.134563985355457,0.36869615056593324,0.7678987515487566,0.2216667532112663,2.1980894262122965,-2.434826348072832,3.119627302614375,-23.07775472769164,-15.181575694689018,-4.949892297775028,0.4617580798480104,4.095336199942509,-0.5868045619364105,-5.9411655382094715,0.1901957823944154,0.7634444836031897,0.24586679147796348,16.247956842791552,2.5152632931504235,3.9190030356178767,5.847585820142212,6.0844149160997585,2.765946682632307,1.4826346262113232,0.9089503278731517,1.7839772953685336,1.867877181101304,0.2398858482099776,0.16224431286195884,0.04061025116218154,-0.42944370750088595,0.11331264488582046,3.141842663159027,-4.319774456997056,-0.6348853110696644,-4.76770691533289,-9.60412883804249,0.6174081301838252,3.748130153992892,7.663588827821808,-15.88822775643109,-7.360964016468366,-11.089334713367293,-0.24802944032390856,2.0556285607054776,1.8856551410556992,4.8367846124008835,2.27280919460654,7.010720788877405,13.347162713371622,-0.37171969082404754,5.019169505112439,0.8034084775318875,1.8047281279025609,0.8706128699512763,-0.019176971113871462,0.16302351747630883,0.33771236617171974,-0.2220078645026521,-0.4546956199681091,2.359504826145868,0.6822331398510774,0.4530324056755676,3.3207564113012777,8.368352129621927,-2.679010810227913,9.700302077344258,14.302830508607608,5.738590766333268,4.155488397017664,-11.480275189220679,-20.09071342620203,1.8454311663632013,13.746097665087145,0.4589325155058828,3.807405389492613,-2.117324697074303,5.9035487770713235,-8.457528851477377,-0.7737648991977331,0.3956829483880906,1.3330607868195152,0.1664147142976492,-0.20159672094454986,-0.23897184681241557,-0.4164644060978747,-0.0974712925117196,-0.48970448633970176,-2.766738504163175,-4.1629568431962225,-1.8328240445770296,-3.042952893020082,12.783301229160987,14.185238931021368,16.432164113872144,11.682010190016136,24.001963958298898,-3.0451195062407748,3.5149052124043116,-0.40186762288560857,4.848738198204817,5.503545145825099,5.248540788556822,12.78194343999604,0.7231584012206673,2.4998292781934586,3.321055603753191,2.6695494820968646,-2.3708537176627713,3.4734847507091837,0.35206798628968233,-0.09726283461085182,-0.2500272976181286,0.37062546985028544,0.22692207729045138,0.2477893736275918,5.524384617679769,-6.466864962070925,3.54346562769026,-2.367455836181358,11.756695227167565,15.147440984614704,20.69413751201534,12.301171713829374,1.8387341041087775,14.46358213509047,5.706779879313956,9.47813676511677,4.893904470053165,-3.4991184429014983,-3.1465681127945935,-8.36566535267507,-4.253576384219613,0.4518100624664446,0.1004078160744191,2.970958915167126,-2.704449587505881,1.463697901642987,0.44000417110007917,0.14656902668872707,0.1849367470230368,0.09274375358487993,0.10595385818990771,1.5355931194104162,3.072781016740792,0.5334576782082108,-5.151449041516602,-6.198620515438192,14.167638438332444,23.795468118063955,16.014058341420395,8.547537998676237,15.761589583498328,3.4290705224431917,9.57400101745983,12.898260721149153,1.148496292197114,2.6049870799259356,-9.910679071719615,-5.628549000208118,8.221973933884906,3.3089063988296066,5.268091993030268,3.33030091393559,2.7841266487122907,1.946860091191544,0.5111401395587262,-0.1835156444568828,0.13638448496420572,-0.3665612495191161,-0.40730454307284836,1.0789643265202675,3.1077250186897762,4.11999214188395,-6.573568128177424,2.3980991109995964,-5.395026797876909,7.63801384072422,5.4606673560815535,9.702753268692275,7.930231425195643,1.0112508894317525,-6.548627047543713,-6.667349872803774,5.67708248328998,16.11052796292384,-9.512667017251584,0.27269482631426956,4.915515730296185,11.245315263126024,18.33813825456266,2.205336802112393,2.3881044106330256,1.2597340285463987,0.15357582211967843,0.500096014742779,-0.08804328101670844,0.05562417281463194,0.19094277594817347,2.071516031424763,7.5718996630933635,-0.6577622865160614,-8.184088904715498,-5.886928293954252,-3.3960560028254827,-1.7287035117990333,5.687958738762465,6.6423942399236235,12.170768854115513,3.1477139550181477,7.122456445553766,-1.5261889361803775,23.640667269293473,7.051845975343935,12.488893753267394,7.243807198845613,-3.9936497572032996,3.9063583521779974,11.116358771489661,-1.3055618044517454,-0.12525244189950877,0.6181635506133049,-0.39612559525853897,-0.5936510848672172,0.12399027857344108,-0.1626566920174034,0.21419671148353037,6.185334861759497,9.565896782900959,9.900063438794986,-1.4063385271196764,-1.6996384213272298,0.45138375922745544,16.86685514735759,12.39918476660067,16.943773599506496,11.435663373863564,14.18650840852828,4.686944374161018,-0.4337969771077718,13.97117513773075,5.660719994829229,-13.033494465645822,-0.44990097936064427,7.542954208907866,-2.99015474638362,3.591751198913777,2.1318429358769246,1.1766886347927943,1.7266515184072566,-0.04924879003328136,0.24981507238643352,-0.20089692407871557,-0.4001371598860442,0.0058141819444838105,0.5142193671207805,2.644483951053806,1.573833097494456,2.870807270454825,2.4361948182951205,-1.155846142160375,4.168367606098592,10.901936896096235,-1.5220619301951672,7.16260750453411,1.0987700554355726,5.390999787683578,-1.7787285501185262,-8.331852271827552,5.165625529738379,0.13737666908868837,-2.4840202227752837,-2.2108747831863136,0.35879510305924456,-0.037883661398817596,3.0566257516019415,-1.066207342197405,1.409528995599297,-0.10431711728752734,0.2123141290835614,-0.3575838095292021,-0.18103191079854053,-0.07621340819858308,0.3778838586790574,2.2917830298095585,3.6168162721430717,5.0273726856367364,0.7836438531102665,-3.4402083415556937,0.5742608077443362,5.869830770611954,0.09196530537111935,-13.09702306773526,-3.3656412175310106,-3.4406173078180404,2.309401443318206,-5.909380304428851,-0.40755651939296333,7.162747906083201,-5.486553976618746,7.721605430273632,-0.12933765243834575,-0.12670108367941482,2.314097215543352,0.17789569626693985,0.5202515590452411,0.421088155301503,-0.10488502561121993,-0.08943710270719163,0.03321485366359178,-0.06824076558986882,-0.42338142614438257,0.9089698263063332,1.4374039094115107,3.1583136384170802,3.37215629825995,0.8655164330272952,5.318570038527346,2.4955787612628093,1.3109666391557517,-4.413843578555803,-0.00716899058843099,-14.929921521562326,0.6820865343273665,7.059770980450709,8.846395506500292,5.822700116252024,1.2587127070709196,1.6130392497614008,0.13140528173339847,-2.793277204077752,0.18634119801399357,0.06834293299414437,-0.023646496444646715,-0.16063993550734068,-0.49420108621369985,0.32169248249577587,-0.05314236418615237,-0.37900010400759965,-0.11924350313831573,1.4950045632342432,1.869165389813658,0.03454674274396575,1.5083537682492791,1.4640127133664254,1.2917185196557346,1.565513209568805,3.022114761431442,2.1844775085104007,3.148495010833911,5.723804290067899,6.545637824671992,12.249941702516217,12.369678012388311,5.762007336334961,3.072171002673345,-0.06078577401691128,0.34439565257783056,0.4762908071795705,-0.4051731594394768,-0.03318387606024989,-0.20043270425049364,0.1498697066919199,0.37905394411060456,-0.2710671763367358,-0.10847480236203055,-0.38029727233414845,-0.0644620007278105,2.1001974362691573,0.9348407989591219,0.6141459883656571,1.3998829320575155,1.0553785092756696,1.5184960498743327,1.3107398135299924,0.7234370481118305,3.318470198072909,5.148056698119787,0.6903629770091277,5.131135752366947,9.113177054468931,5.04898774307225,0.7857231273956924,0.14240692197869664,0.27437794014538497,-0.1044659007002243,0.08169976342826778,-0.20910737623515155,0.12757281368645967,-0.23770696230049482,-0.04780559430060216,0.2298358743532548,0.2107140265055828,0.0048071292053956105,-0.07180574463546807,0.18654175096706072,0.3972742776259642,-0.08892781335739681,-0.2580129245123045,0.30841413830277936,0.6187179843389573,0.14618045027352344,0.26389927857174406,0.3967155151215839,1.0347240004990095,1.21751937481866,0.378065071171723,0.048347864028518185,0.048327914833846075,0.48038153371818626,0.1090714982153692,-0.1800975415626059,-0.2673600991375136,-0.07027950117962198,0.07079624810675211,0.1674003115361593,0.1674917976233119,-0.22096308931531716,-0.065534832721448,-0.22550161029704152],[0.049847359380990164,0.4104332059305088,0.4330426584368018,-0.18418382730189564,-0.00023798685086773297,-0.4014619782579516,0.1669100604150232,-0.004837087130210138,0.10259379599549978,0.14327499179295466,-0.3460916753929437,0.06670104477873273,0.17212959737754446,0.28359327997134276,-0.2483455873073036,0.14345809757189326,0.28685726668306033,-0.034587351567206825,-0.028096242610359257,0.03113155457549377,-0.23369170478809576,0.10051010543975247,0.0685888528602302,-0.43782327119081654,-0.4400887967727074,0.4340874175250651,0.09680988864303908,-0.3639676607317215,0.04585989815689562,-0.06265937901798768,0.2653244387706103,-0.16268681926910866,-0.34017431623074024,0.030473598586287398,0.2339428776404122,0.6102835738602723,0.08732558311944326,-0.08727895691684467,0.13840417237862848,-0.0507231765922507,-0.016301993814323706,-0.18906961462419872,-0.04866387860580615,0.04369635372871052,-0.17395914910466717,-0.8139417430937093,-0.24607238326443384,-0.17515622204158177,-0.03144975102296585,1.3964960762536875,0.021701746928853714,-0.2100115642350399,0.24068827858397412,-0.09675400771717069,0.21456373433275344,-0.26522234757432894,0.3203264879136577,0.22929029689339775,-0.21499355775850293,-0.34693117954332936,0.06258117213522128,0.5471554069053682,0.1804377545131699,-0.117081090836404,0.5268373198109775,0.0933610680676488,3.938758877359643,0.757597362411606,3.647026858171732,3.39447441403781,10.637297768485723,11.961304222511274,9.429755872257884,5.342973533928502,8.366077671776056,10.003278103790256,15.685496926894212,9.881807017907919,0.20462620359420924,-0.1126099962006157,-0.11388836201273023,-0.0564787891522028,-0.07569525508400976,0.4570243668857926,-0.14720521034329503,0.4572501386393234,-0.2465237808693467,-0.2979811547156993,0.762364253318967,0.279519573281076,0.7493377288248707,-3.2295933878394933,-0.9457320516215798,-2.3554309553202635,-0.1658119114000943,-2.532867160616985,-6.930213093310426,4.890276024771079,-7.407768743579785,-4.666353454879298,7.27617479097697,4.757337765684181,15.742092446464131,39.42559079779771,15.293114360849316,14.302043606107544,5.962528573175304,0.6358354968380753,1.3760927745563563,0.10120546510742248,-0.21855404905045783,-0.26966820400280356,0.3073813917830859,-0.22221731245347473,-0.0632422041196871,0.1440945487884319,0.021834725946665738,2.6463626939783786,-3.8768419866491883,0.4136834652516017,-5.856337493509369,-25.795724639792134,-14.331703644818434,-21.30951334483918,-9.701918549599307,-21.859469582012846,19.347146992835352,7.095598266701963,-15.704971800289867,-4.088061269151791,13.73342727143396,9.100637191285013,6.686270798909748,-3.9228360035817724,13.173088496619503,9.085198635073436,3.0897518265401684,0.6543536345322003,0.0655080169332931,-0.14176161393439587,0.0970947745938614,-0.4526001293122641,0.0824947514477745,-0.9113111192917538,-4.628351887950906,-10.974669970492174,-8.068339963372745,-19.62622195410258,-35.03496751253851,-30.687551427450543,5.4146246381692595,-6.8008417813121005,-52.011430636131806,-17.258662148321065,-16.966818877332525,-25.283912497204927,-32.24669255728905,-1.3702259941156,-8.4105175291044,-23.52260149065591,8.164697212945734,4.6230650796278665,-8.704768680669583,15.32389212011293,-2.2546378464316015,3.07198506791599,0.4056059710790313,-0.0974838045542906,0.3808240474957323,-0.4251504063023914,-0.3068457163269009,-1.5889567349764573,-6.023242770916944,-7.101159831560262,-7.914218461232538,-8.252687825159592,-40.807381810619795,-26.530895926454573,0.4949566663932969,-4.882813896985969,-23.103966345563983,-6.530811187503315,-8.615302405459753,9.889023783639976,3.5042024404412087,10.382044841333784,0.14890641875018196,23.637217523876544,-6.861271874362283,5.272989867871043,13.580136401825259,13.148206284571607,3.668778903979001,0.25684306316303424,0.9271382219814277,0.038874073838737117,0.11491996991911613,0.4955367215985416,0.4930642537163436,-2.5258842043255685,-22.3014134021016,-16.548752256499938,11.386666659220618,-31.09343558365812,-22.055361160462166,-20.772738955864714,-13.628620272758749,14.50264141138522,-1.0324216598905411,12.691363706366385,-14.862032303171551,-18.532600463681927,11.04392426236368,-13.394488221339543,-1.0751495555301267,-2.621794142782589,16.91681828918265,11.08180353509702,11.164860456056836,16.900950161703925,-3.6221189298863306,4.545233839044123,0.15988619742125829,0.20046864247355603,-0.15107191334540693,1.7781951578286581,1.06090200056696,-2.578078991205318,-15.621622421419278,-10.743035423495769,-2.510973091502215,-26.53393684339049,-11.854006034693326,1.0381009573048943,26.785368678635898,12.58155951559123,37.02186727736408,4.235442795998952,-2.611367674311182,-1.3099233224838362,-18.672968334321947,-25.31290107379731,-31.885564943996958,11.658264770146646,3.5227244315866746,16.30530783472795,18.08787653592613,10.789918898528175,10.801823570729614,7.067059240045229,2.131019191817039,0.004477741571761701,0.14227593060003174,-0.19166409132184833,-0.3904954836700754,-0.7721137546943421,-0.43292186754818013,7.936160837264847,-26.975528753528835,-14.997558043532699,6.590958653655666,18.44955379633526,22.003236530214544,56.582533419650574,19.363598012084946,11.76583666953455,-17.02542152575308,-3.2678953451701385,0.08907818928806262,-1.6362183764623928,-27.812734456960627,-2.508684985253455,14.985194629825148,21.72955994034359,17.171478608294336,-2.251658937503556,1.840087108551222,5.422820247690473,0.22003073477595955,-0.17786563820774906,0.30671113715788556,0.26250403196585953,0.36757034557249274,-0.020292423334923326,-20.171858209827946,-2.8090014962283396,23.603935963306455,27.35911949247103,47.948093440289234,63.40390871736164,66.10152458799664,87.7825510291568,34.89624052171396,28.44530485815337,-26.4541554624508,-11.710030725159706,-7.874450731471799,-2.814832068424405,-16.29459445404968,-10.528036534290141,-2.7157933554884286,24.400044079871023,8.882617105947535,13.372150133387219,12.013886588817053,2.2043504648628938,0.827659344426882,-0.044439868416694006,-0.15269372199827277,-0.06794902701478778,0.023378329633550184,4.828059085449963,3.912813992065755,27.317327340714243,37.671707766912085,39.109336683774316,54.002418318954334,17.99081718052765,64.93500070611931,70.1844198635294,49.71979772577718,53.31375958519484,1.9519198812777454,6.353261114273757,-5.2458819179496095,4.120565703541144,15.06410422896593,-6.686034045258324,15.404393224608537,19.085838705386237,5.927121873837165,5.202753788306392,5.875202246427913,2.5912304279914036,0.3132825273394846,0.26980452625860785,-0.07744009255276793,0.38019095367324757,0.04853520837106097,0.4185624322809575,20.31174975853068,12.238748497955047,35.996667717257544,49.20896506555179,31.80452886693453,39.72317115526712,54.30894602402449,35.162652632306056,8.708474642837652,4.609956771337091,18.095961379996552,36.10232615405865,12.642183891919796,29.251715974488587,32.80086542889184,-9.99411040116481,27.18550410299141,18.10711201940756,10.818059791508462,2.1224934592750455,5.438665597751494,-0.814159389224016,0.4855956147211012,-0.06139504744977296,-0.297360161195752,0.026737812477233704,0.22254456878721848,0.589627998945366,12.978908663589054,23.824923139606643,31.56250888409885,30.454426715655078,25.761269168413826,44.255636962151094,58.75409776095421,47.12477369954813,18.701909622088802,-28.792444365041607,6.690375459937061,-0.027954266099334896,-27.98732165982879,5.917294283302043,12.084169620933848,23.62413079514308,15.053973265520538,22.57567065912353,8.119704556740396,20.206953914527567,7.694492467398233,1.5019396287439162,0.3896197213871239,0.3276300988171003,-0.13607061966283363,-2.113139513185461,0.08887590576041214,-0.17509102908900442,6.623038368316853,3.1252320318349645,8.781740404525763,29.10803523551354,10.73916472298368,-9.40635920955268,65.86049935693384,18.11671411823996,23.11286141388609,-6.668226662547239,20.76882082227855,-11.430774097898288,3.106262769981119,-24.668926355306173,4.8189742763878325,31.331653672012877,23.612249588485493,4.085166896743352,-1.0648380867398064,23.851211812025035,-5.099256232923417,4.951395800237898,-0.3362049116996779,-0.03452634914524237,-0.16796314291573067,0.15615456890742418,0.3131116339838859,-0.07200686099313748,-11.937747320105734,-9.039349631430401,17.366806276082556,2.5041877806409985,-18.304969187269446,6.904846143460549,12.75152232172426,36.2900986416161,15.835673069622684,1.4082040987878128,-9.487968774287484,15.188105495191868,0.6356305789421557,3.3535269523824427,7.644152053299058,3.1225349427608036,34.881506916232325,3.2132811193026702,-6.692843968450294,22.829165737738617,6.95949656472489,-2.1671754714602502,-1.2192656851377193,0.3359025553669495,0.21241207980501875,-0.12959988023683222,-0.3094682949413205,-4.906352609434917,-15.802923313594272,4.25591546879425,-12.340388294060297,-5.326268247512905,11.617722366984998,-6.631586627768306,-0.19381516891441486,-1.884520613605247,-10.904445251059464,33.845959816176126,-10.002952398984968,-3.0749931143268356,0.7718048602152333,74.26258774186009,18.49728784703296,8.380814277792487,-6.318208614393454,7.210349092903445,-7.741620035057761,-18.65541919507001,3.985132365527573,-3.0565581060833305,-0.682190676672718,-0.3439277093741048,-0.15502371430069872,0.1376225647609806,-0.9911846919186447,-3.994615136731246,-5.823250792042374,-7.284508916457076,-2.5364237798146614,-4.328499771886247,-1.4062245473532529,10.493510920592094,24.45634533986279,22.776654293259824,41.25631787488254,-32.07680188398705,-49.37775123560262,2.262761051153405,28.479744561808236,8.177155570875758,-18.023434961920174,-9.165082680092617,-31.170506629255343,0.1838412910393108,-33.50561969746697,-4.806691804214798,1.654556580310305,-4.4219628014230405,-1.9300408746441327,-0.21165652541017035,0.24107526451699082,-0.1187761606863904,0.017551630480465572,-8.51405422295823,-4.850501737266317,-3.451219573562831,-7.2594844954476745,-11.379771518743405,-20.03123232849473,20.957806144021173,39.87132346436629,21.572611069112266,-14.134644216515596,-3.480242517407897,-12.935838222380138,28.359607177294347,19.04156674071233,58.48243562336292,-18.788790972408076,-18.91006263438292,-13.11017434455832,-8.056422112644595,-43.70024008947706,-19.919816965057375,-30.336773266773,-7.87845149958471,-2.809183015318445,-0.03308623205267327,0.3262495300069998,-0.47466814220894893,-0.8747661061265836,-4.322611789000043,-18.250181794644714,-18.679499746506163,-23.122824647756314,-25.0155299386733,-8.378397955721349,10.757552996219925,29.662293912173187,4.652712998084895,-7.9020229675040285,-20.090392405783707,-2.628039332159184,-12.143033738924839,4.908691431290574,1.4227178081086236,4.669767565376138,-20.90347020626293,-28.596083335798305,-19.290068165182255,-26.56777989202316,-10.944844924400448,-17.117290357758705,-3.335700431181411,-2.875418485083376,0.39654320621177036,0.3872741268365666,0.1696641409377038,-1.0603447087043465,-5.320598430503043,-23.294252059365228,-3.967953373485369,-12.858595772923824,-41.20426997112389,-33.67245860560704,-23.783051046238214,35.225681730410734,-0.08639278829853034,1.0719425872678476,6.947947743645888,20.366220836933227,29.54718615141842,30.204633704005108,-0.7990052679427647,17.821520953106173,-16.16359905501713,-29.956327007253,-34.85086483806175,-37.66628871703635,-14.49578193887071,-3.1290574888245337,-6.384641055059095,-5.690598638786038,0.2603214508625352,0.4902812058850327,0.12487481634156529,-0.33592595798364144,-5.935200818768972,-4.070450555732389,-26.50375411794063,-26.900904264156313,-0.4918822918401384,-27.796212902439272,4.164026897170732,24.216683942041023,34.51874039011916,1.5795929271888354,17.866055524029363,13.59328372747787,8.847291298159652,20.756679736052515,19.95326039268193,7.403114537391623,-17.86459883090613,-29.432125675444603,-23.772285768118326,-39.71343511611157,-25.195141772700996,-9.875728169876272,-1.84229545753697,0.19691549778487108,0.457498406244342,-0.22047156387802763,0.12039631991968344,-0.5192584333399881,-5.513551798099923,-5.47768505707262,-18.399761336033247,-24.345894454920742,-14.976149561505427,-29.911971498586507,-44.36508480677009,9.772158762152289,3.3166828015537466,8.760479721634018,2.2356018375372666,4.254791320450934,-4.0633530076351,20.77204973140513,-20.79467811012633,-23.935398048131283,-8.443647319518425,-1.7102915647561596,-16.617115938619634,1.148078092344208,-19.674776380032206,-8.980069818382463,-1.2630374080877922,-0.7309799970718367,0.0835610942634668,-0.37911922967657286,-0.36722170674068333,-0.48667115122974386,-3.263257712488289,-4.624186370295036,-18.68384763264255,-28.75056380308847,-47.01706024781705,-21.84091699069146,0.1496591301917141,-7.855498328553498,-3.2973790247406756,8.208754829585741,2.5540993021192975,-14.624584335244704,-6.63015386019957,20.274405289174698,-21.407362060282452,15.901916040440389,-9.522483654614243,-13.390689253177506,-6.299443837304877,-11.86987734922588,-10.754300754632446,-4.64779017888605,-0.26887086135912597,-1.3516066059160121,0.05060137361954575,0.2649851523932627,-0.4829088337403329,-0.15202516716980852,-3.011232453050496,-9.175747166743292,-10.969245244367968,-23.71938033137235,-30.257133809623628,-32.67110171127175,-8.787238801544259,-13.175897980978315,-18.73644963190162,6.180667391274591,23.311936673152278,14.409904753176498,4.866277305356846,8.327118404126022,13.384388043100827,14.215859444383801,9.279477271715843,14.52125834808438,2.4472720234365437,-0.18000792945320804,-2.3315545878638284,-0.32408386972077446,1.123301502708494,-0.12966184900693578,-0.03971739683288411,0.1605300968727148,-0.03755545626051737,-0.07477266353383435,-0.30189211318843423,-0.28380109812661314,-0.5943948404652247,0.7762555825403951,-1.4304458369726585,-1.4568005091593814,-3.0665947137512695,11.912470290221538,1.2645973345124766,7.817263398269864,14.943138438902874,13.086931996605287,-1.4529060777695886,0.2734705343176998,10.109273602813959,10.386354829968841,8.380065863348468,2.824889618102063,3.000941120839639,0.8684159435191509,0.7054177823079295,0.468099569850093,0.12253048034447865,0.12976364205643526,0.26898326387521043,-0.06556445949430856,0.1763780491315553,0.1470918254177752,-0.19273222015620273,-0.15258016648280182,-0.1594597703309107,-0.24378557034004675,0.3073974949266035,-0.30774879727962956,-0.7291402083623025,4.078219947812342,1.2961417953177885,5.109200657506191,9.132841515454285,4.0295329841458285,6.658664098808115,3.693487025351078,3.626747500186105,0.8080342826550162,0.2990015129302745,-0.5476174428445477,-1.5409927749385859,-1.2032101606518442,0.3997855523408353,0.05687363925330203,-0.14477465827237257,0.4677064408978374,-0.07399861993712942,-0.05626034333402341,-0.46747703528256523,-0.10394732651963956,-0.15629712897652825,0.12074700364301327,0.15654155709676912,-0.1286345773831965,-0.041629948955182454,0.21904789736987412,-0.154789433065186,0.17960592241129886,0.3778342054285402,0.06778394997844052,-0.3218180408471882,-0.38470215344750225,0.03250786930600718,0.19307424732271364,-0.1719988242626271,0.07801885273101254,-0.19124288197585698,-0.18031814665740142,-0.207681781071319,-0.06117969097074075,-0.28759442653235234,-0.390288919859308,0.07101955843985286,-0.09143688484220003,-0.004157759611096656],[0.19165799520053328,-0.44639653687945224,-0.19066154358004028,-0.07309043122963432,-0.1585407029964463,-0.0030780695337802033,-0.3183739744031724,-0.32368337003151093,0.20324052243323487,0.2523533817233439,0.17614690263158828,0.20871685260488348,0.03362991372937601,0.2825139684919582,0.3217314838933447,0.23296824069047406,0.0053983495657279335,0.013551827375062886,-0.029890461342459318,0.3861968960071015,0.21892039686471831,0.2807872253926931,-0.07464677653344842,0.02780847875125192,-0.33108227141130775,-0.08933209156676702,-0.12063187662124641,0.4447333040454067,0.21128850610255645,0.04339027387034389,-0.3615443306395676,-0.37658958148892996,-0.018698390797194486,-0.011179495522317673,0.06578690344104136,-0.11296899521729413,-0.10912491310833256,0.02449687073944187,-0.2501854851246346,0.207649819003426,-0.27379546002923844,-0.011562051918191167,-0.09677341769594139,-0.1982452065718124,0.34878075397993685,0.09330051181892558,-0.12104616013791349,0.3046414346682329,-0.2649203524952758,-0.17625618243266378,0.25154747712760106,0.1092219220492271,-0.20970182217330202,-0.05055785258065426,-0.2927288290461758,-0.38046934602070603,0.05694584422604432,0.3644026245693429,-0.007168342772917907,-0.24539071406623614,-0.05315225739085368,0.28609957690497956,-0.08427825502906508,0.23025015742795352,0.20177258073446303,-0.6400237846400604,-0.09466000066812905,-0.4354217026027011,0.5009618994529081,-0.09071795721968255,0.635665741309236,0.19391827714034515,1.220837514377736,0.6883467625717706,0.4022774670181278,0.24258391290610418,0.6477715896739168,0.3375531170828258,0.2766526560246015,-0.15095647865233458,-0.07241304177754705,0.000482528411192909,0.15879128187712122,0.021554543717291152,0.14267121910975966,-0.044822559159812814,-0.20549269461109923,-0.2001168304685503,0.11712348115324928,-0.42253251042194345,0.36794342566447363,0.7985722048748571,0.3192823414470471,0.4508501436643101,-0.5948630688583529,1.383613695664652,1.4750439100087014,3.8553974950877787,0.9266889681500169,2.676644513838541,1.8938421797588414,2.334723448056572,1.2682773175864577,2.1666216218697305,0.5144656511948698,0.2109620820691098,0.9795516368047708,0.18810151245368092,0.314098446550091,0.4422812909318234,0.08305435837000268,-0.2914581231622255,0.4519141048446055,0.17184502776259333,-0.001832689031144863,-0.052253273217937386,0.06948083487501586,0.2030585114928381,0.7463468191150747,0.6115898908156464,1.4823439557199778,0.3658236690403651,3.476757258358504,1.9433870559512307,3.415295421981619,-0.29424870245934637,-1.0408331822975658,2.2082374638482087,0.2555073525797297,-0.061095285075113574,-1.2737544606253515,2.3066758229812248,0.4351848551758446,-0.17566506225279568,-0.3909027637416505,-0.9066349083461744,-0.3189760112966389,-0.6115002288037914,-0.10992228276456346,0.008638500967597551,0.045685882604432404,0.20727836621222318,0.1414270955239596,-0.5180133689604938,-0.24147777304035123,-0.1100792968980105,-0.2737042665147967,-0.49781261106570013,0.22696139487476497,0.14458979010857978,2.842219442087639,1.0869788352684409,5.289856499635833,2.9745058761296543,0.7171952021247734,-1.0370450883584768,1.5415649094760824,2.314903465028795,0.033284936921982505,-4.522780119109872,-0.46311517266640373,-1.143295100779548,-1.8156076819967173,-0.1875389037627417,-1.4407927059067187,0.008706868167751142,-0.5361994790770834,0.09181647217802208,-0.2603064420250969,-0.09114871996231799,0.37911130292140854,0.5535632114190561,0.47688039913515706,0.20962287871400373,0.18309859056158762,-0.4586748481759495,5.842064158076079,1.9862110638845671,4.174089478601795,-1.0375316561696684,-2.806512823961578,-4.027113083895564,-4.799077353801363,-0.4834202010276711,-1.025850702445104,0.5673909819521511,-0.13623123617957603,-1.282621833881385,-0.1144319100929224,0.4886639535146047,-0.34216974875115086,-0.888443977898536,1.0524951984793094,0.23865244625080712,-0.17443547443830046,0.13529965413441825,-0.3967818853704028,0.05356005848942274,0.6218742810342834,0.6153334826774849,-0.19578899251943593,-1.3945926477659751,0.9122841304931248,-5.377917376139553,1.577481389314543,-4.066546635228885,3.195657505836439,2.2119677474404256,3.397060273265019,-0.33556669682014806,-3.6763360723066922,-3.285426056354895,-3.74108207741624,-3.4113088246158076,-7.332801266017468,-5.768966869724225,-8.541856382260944,-1.1339496716194175,-2.010931355125233,-2.014417240898613,-1.7635031912486654,-0.011041166540648881,-0.29044010112210694,0.10269103333563621,0.30772981872590144,0.43820299611211977,0.018984004945674378,0.32691124284942885,-0.9814597174575512,0.4559114357339828,-0.6557658392997668,-2.6714223705357836,-1.3388185995871795,-3.4225194239183963,0.17031897630942566,-0.503097607717583,0.6194739530587468,-3.903942261650465,2.032639993048181,3.4540136370165295,-6.652964358680403,-3.7306648058374803,-7.572741719600685,-4.811651375174318,-7.810112805146153,0.6575663876550939,-2.068928317319891,-1.6481715331609652,-1.384663174841328,-0.6606827129495997,0.21228797726788387,-0.008193168994233743,0.029833899330449554,0.2817724160535597,-0.2855112132723554,0.16497315320179964,0.8770399726167525,-3.7625849499783164,-4.03098806194141,-4.125465522921889,1.1814291939937058,-3.700510629623902,-0.6646553458502399,-8.072714189205092,-3.5851619782981943,-3.7918445665165863,-2.7847049568184707,-3.4352414181376725,-5.915843656330334,-8.81588595513667,-3.193616602663142,-9.404926170594944,-6.17585911413412,-4.897758073496002,-3.60978433765873,-4.557787750792738,-1.6292945693887546,-0.03918949421401109,0.026058870314079684,-0.5396731653460103,-0.07997370150769201,-0.16586467144421413,0.46597600641010783,-1.0616966701463681,-1.475020224064455,-3.309873537620554,-5.073992991476363,-3.7043384870226967,-3.0285087347338386,-4.764135410133173,0.45316100135854553,-5.211680893614957,-9.998577472209726,-5.520844866326642,-6.274822575422145,1.082131938310709,-3.3186493622996696,-7.118866049356636,-6.696211842822188,-0.6098196067123333,-3.5587169740787408,-5.257879001567736,-1.6484570552327824,-4.110393293741179,-0.8401049897304335,-0.7865070927205771,-0.02737340957472742,0.16445436021266938,-0.2270890204451863,0.3447898522204596,0.06524421987736757,-0.5962288291436717,-1.2675721152687867,-1.5230069405092244,-3.8340278727216637,-6.856877273047012,-3.648649790284691,-5.735449603302471,-1.4358913790028391,-8.555889429521798,-6.590168581304905,-1.6239433451753549,1.7908860195733514,0.3688339541409601,-1.777767493136077,-1.322504543477024,-6.61397261983023,-2.4025199659594976,-3.1312433759931655,-7.292122492433071,-2.4923371377574663,-5.022902556089941,-1.45415182316618,0.7781906307039633,-0.44535477776620425,-0.24682006726601358,0.03823388841069352,0.2828167392600271,-0.35503898551183616,-0.2868348859112893,-1.0555525974861415,0.35294592552342796,-1.7674124472902473,-3.5459707771803006,-2.369595859174781,-3.0877085877411448,0.2876653907686663,2.343295444724555,-1.0017846004621531,1.8845320104993082,5.7111928382457435,1.689898318614886,-3.5218882619001524,-1.128857987198407,-3.8839061652335216,-5.723643872040079,-7.16710345667079,-0.7408828165706329,-1.2286999504915184,-2.512385795078914,0.22168569509360736,0.35575809600437247,0.1363370844651522,0.2337525051371095,0.2235438558373467,0.6003593583126623,-0.2197060107533539,-0.17891830825606436,-0.650372583565817,-0.7502635674222458,-4.647206879363026,-8.323394381325839,-6.066454383882807,-5.141383750643687,-3.1924442009212255,1.3358331453216539,-2.2960945976729374,8.665658266022525,9.739652072575561,0.6741402160826052,0.8584149822368655,-2.227330953872005,-5.706381191821737,-2.682312185382315,-0.5739444349634978,-8.176170260153404,-5.034559033652718,-0.9099030119656164,-1.9516512777825814,1.881780109118774,-0.014090390358250762,-0.24054921379245098,-0.17399974050419753,0.17221974699062487,0.3763455427800341,0.018967047663786405,-0.7462425426033521,-1.7477859907754167,-7.234086168973016,-5.06792317222314,-2.1212825916209543,-5.17182605983254,-0.6016701475859672,-0.6434131439973919,4.764091627243918,0.8672041596539899,3.4672807562769594,1.3516977784941464,-2.4044552890594235,0.45177589619152075,-4.514243208398245,-5.40852777251225,1.4569138373189365,-2.76170088798003,-1.4827941084356302,0.8495622318987385,0.7004050329441285,3.279625287438952,-0.0645984230246933,0.4688210111992671,0.08122131022762191,-0.25574907324626106,